<?xml version="1.0"?>
<opencv_storage>
<opencv_ml_svm>
  <format>3</format>
  <svmType>C_SVC</svmType>
  <kernel>
    <type>RBF</type>
    <gamma>5.0624999999999998e-01</gamma></kernel>
  <C>5.</C>
  <term_criteria><epsilon>1.1920928955078125e-07</epsilon>
    <iterations>1000</iterations></term_criteria>
  <var_count>216</var_count>
  <class_count>2</class_count>
  <class_labels type_id="opencv-matrix">
    <rows>2</rows>
    <cols>1</cols>
    <dt>i</dt>
    <data>
      0 1</data></class_labels>
  <sv_total>1112</sv_total>
  <support_vectors>
    <_>
      0. 0. 0. 0. 0. 0. 0. 0. 0. 0. 0. 0. 0. 0. 0. 0. 0. 0. 0. 0. 0. 0.
      0. 0. 0. 0. 0. 0. 0. 0. 0. 0. 0. 0. 0. 0. 0. 0. 0. 0. 0. 0. 0. 0.
      0. 0. 0. 0. 0. 0. 0. 0. 0. 0. 0. 0. 0. 0. 0. 0. 0. 0. 0. 0. 0. 0.
      0. 0. 0. 0. 0. 0. 0. 0. 0. 0. 0. 0. 0. 0. 0. 0. 0. 0. 0. 0. 0. 0.
      0. 0. 0. 0. 0. 0. 0. 0. 0. 0. 0. 0. 0. 0. 0. 0. 0. 0. 0. 0. 0. 0.
      0. 0. 0. 0. 0. 0. 0. 0. 0. 0. 0. 0. 0. 0. 0. 0. 0. 0. 0. 0. 0. 0.
      0. 0. 0. 0. 0. 0. 0. 0. 0. 0. 0. 0. 0. 0. 0. 0. 0. 0. 0. 0. 0. 0.
      0. 0. 0. 0. 0. 0. 0. 0. 0. 0. 0. 0. 0. 0. 0. 0. 0. 0. 0. 0. 0. 0.
      0. 0. 0. 0. 0. 0. 0. 0. 0. 0. 0. 0. 0. 3.06910366e-01 0. 0. 0. 0.
      0. 0. 0. 3.06910366e-01 0. 0. 0. 0. 7.35469103e-01 0. 0. 0. 0.
      4.23713624e-01 0. 0. 0. 5.71172178e-01 0. 0. 0. 4.23713624e-01</_>
    <_>
      0. 0. 0. 0. 0. 0. 0. 0. 0. 0. 0. 0. 0. 0. 0. 0. 0. 0. 0. 0. 0. 0.
      0. 0. 0. 0. 0. 0. 0. 0. 0. 0. 0. 0. 0. 0. 0. 0. 0. 0. 0. 0. 0. 0.
      0. 0. 0. 0. 0. 0. 0. 0. 0. 0. 0. 0. 0. 0. 0. 0. 0. 0. 0. 0. 0. 0.
      0. 0. 0. 0. 0. 0. 0. 0. 0. 0. 0. 0. 0. 0. 0. 0. 0. 0. 0. 0. 0. 0.
      0. 0. 0. 0. 0. 0. 0. 0. 0. 0. 0. 0. 0. 0. 0. 0. 0. 0. 0. 0. 0. 0.
      0. 0. 0. 0. 0. 0. 0. 0. 0. 0. 0. 0. 0. 0. 0. 0. 0. 0. 0. 0. 0. 0.
      0. 0. 0. 0. 0. 0. 0. 0. 0. 0. 0. 0. 0. 0. 0. 0. 0. 0. 0. 0. 0. 0.
      0. 0. 0. 0. 0. 0. 0. 0. 4.66970056e-01 2.48102516e-01
      8.43447447e-02 1.05057001e-01 1.60513416e-01 2.52642661e-01
      4.14552599e-01 4.66970056e-01 4.66970056e-01 3.99930894e-01
      2.40483806e-02 1.45896850e-02 1.83758754e-02 1.03670545e-01
      1.97459925e-02 6.11235350e-02 5.40713251e-01 7.24191606e-01
      1.51492506e-01 1.65355317e-02 2.18893643e-02 1.30147904e-01
      8.67199063e-01 3.35326016e-01 2.35069394e-02 6.47128075e-02
      2.80103713e-01 5.36924005e-01 3.83950949e-01 1.44255713e-01
      5.27615808e-02 7.22653344e-02 6.63219094e-02 1.95252657e-01
      4.46438044e-01 5.36924005e-01 6.78771615e-01 1.39719173e-01
      8.48215595e-02 0. 1.38903007e-01 2.58366764e-02 7.98152685e-02
      1.36798933e-01 6.78771615e-01 6.80397391e-01 1.63628399e-01
      6.31428510e-02 4.53928821e-02 4.91914079e-02 0. 3.70455794e-02
      1.75249755e-01 6.80397391e-01</_>
    <_>
      0. 0. 0. 0. 0. 0. 0. 0. 0. 0. 0. 0. 0. 0. 0. 0. 0. 0. 0. 0. 0. 0.
      0. 0. 0. 0. 0. 0. 0. 0. 0. 0. 0. 0. 0. 0. 0. 0. 0. 0. 0. 0. 0. 0.
      0. 0. 0. 0. 0. 0. 0. 0. 0. 0. 0. 0. 0. 0. 0. 0. 0. 0. 0. 0. 0. 0.
      0. 0. 0. 0. 0. 0. 0. 0. 0. 0. 0. 0. 0. 0. 0. 0. 0. 0. 0. 0. 0. 0.
      0. 0. 0. 0. 0. 0. 0. 0. 0. 0. 0. 0. 0. 0. 0. 0. 0. 0. 0. 0. 0. 0.
      0. 0. 0. 0. 0. 0. 0. 0. 0. 0. 0. 0. 0. 0. 0. 0. 0. 0. 0. 0. 0. 0.
      0. 0. 0. 0. 0. 0. 0. 0. 0. 0. 0. 0. 0. 0. 0. 0. 0. 0. 0. 0. 0. 0.
      0. 0. 0. 0. 0. 0. 0. 0. 3.99930894e-01 2.40483806e-02
      1.45896850e-02 1.83758754e-02 1.03670545e-01 1.97459925e-02
      6.11235350e-02 5.40713251e-01 7.24191606e-01 1.51492506e-01
      1.65355317e-02 2.18893643e-02 1.30147904e-01 8.67199063e-01
      3.35326016e-01 2.35069394e-02 6.47128075e-02 2.80103713e-01
      5.36924005e-01 3.83950949e-01 1.44255713e-01 5.27615808e-02
      7.22653344e-02 6.63219094e-02 1.95252657e-01 4.46438044e-01
      5.36924005e-01 6.78771615e-01 1.39719173e-01 8.48215595e-02 0.
      1.38903007e-01 2.58366764e-02 7.98152685e-02 1.36798933e-01
      6.78771615e-01 6.80397391e-01 1.63628399e-01 6.31428510e-02
      4.53928821e-02 4.91914079e-02 0. 3.70455794e-02 1.75249755e-01
      6.80397391e-01 5.68052769e-01 3.24171454e-01 4.57151562e-01
      1.20294973e-01 9.07469839e-02 2.50207782e-02 2.47395746e-02
      1.04598731e-01 5.68052769e-01</_>
    <_>
      0. 0. 0. 0. 0. 0. 0. 0. 0. 0. 0. 0. 0. 0. 0. 0. 0. 0. 0. 0. 0. 0.
      0. 0. 0. 0. 0. 0. 0. 0. 0. 0. 0. 0. 0. 0. 0. 0. 0. 0. 0. 0. 0. 0.
      0. 0. 0. 0. 0. 0. 0. 0. 0. 0. 0. 0. 0. 0. 0. 0. 0. 0. 0. 0. 0. 0.
      0. 0. 0. 0. 0. 0. 0. 0. 0. 0. 0. 0. 0. 0. 0. 0. 0. 0. 0. 0. 0. 0.
      0. 0. 0. 0. 0. 0. 0. 0. 0. 0. 0. 0. 0. 0. 0. 0. 0. 0. 0. 0.
      5.36924005e-01 3.83950949e-01 1.44255713e-01 5.27615808e-02
      7.22653344e-02 6.63219094e-02 1.95252657e-01 4.46438044e-01
      5.36924005e-01 6.78771615e-01 1.39719173e-01 8.48215595e-02 0.
      1.38903007e-01 2.58366764e-02 7.98152685e-02 1.36798933e-01
      6.78771615e-01 6.80397391e-01 1.63628399e-01 6.31428510e-02
      4.53928821e-02 4.91914079e-02 0. 3.70455794e-02 1.75249755e-01
      6.80397391e-01 5.68052769e-01 3.24171454e-01 4.57151562e-01
      1.20294973e-01 9.07469839e-02 2.50207782e-02 2.47395746e-02
      1.04598731e-01 5.68052769e-01 4.73224729e-01 4.73224729e-01
      1.87190086e-01 1.34903759e-01 1.87748060e-01 5.80419675e-02
      8.74609351e-02 4.73224729e-01 4.73224729e-01 4.69426841e-01
      4.69426841e-01 2.61303335e-01 1.24786049e-01 1.35952339e-01
      1.65422961e-01 2.63236851e-01 3.67742091e-01 4.69426841e-01
      3.59057158e-01 3.59057158e-01 3.59057158e-01 3.59057158e-01
      3.59057158e-01 1.56570911e-01 3.59057158e-01 3.59057158e-01
      2.63522476e-01 2.37646371e-01 3.60478908e-01 3.60478908e-01
      3.60478908e-01 3.60478908e-01 3.60478908e-01 3.60478908e-01
      3.28799039e-01 2.28349745e-01 3.46766412e-01 3.46766412e-01
      3.46766412e-01 3.46766412e-01 3.46766412e-01 3.46766412e-01
      1.85902625e-01 3.46766412e-01 3.46766412e-01 2.82203615e-01
      2.85415173e-01 3.35549176e-01 3.47092241e-01 3.47092241e-01
      3.47092241e-01 3.47092241e-01 3.47092241e-01 3.47092241e-01
      3.37986529e-01 3.37986529e-01 3.37986529e-01 3.37986529e-01
      2.87652433e-01 3.37986529e-01 3.37986529e-01 3.37986529e-01
      3.37986529e-01 3.40970606e-01 3.40970606e-01 3.40970606e-01
      3.40970606e-01 3.40970606e-01 3.40970606e-01 3.37508857e-01
      2.62401193e-01 3.40970606e-01</_>
    <_>
      0. 0. 0. 0. 0. 0. 0. 0. 0. 0. 0. 0. 0. 0. 0. 0. 0. 0. 0. 0. 0. 0.
      0. 0. 0. 0. 0. 0. 0. 0. 0. 0. 0. 0. 0. 0. 0. 0. 0. 0. 0. 0. 0. 0.
      0. 0. 0. 0. 0. 0. 0. 0. 0. 0. 5.28359652e-01 0. 0. 0. 0. 0. 0. 0.
      5.28359652e-01 5.49448252e-01 0. 0. 0. 0. 0. 0. 0. 5.49448252e-01
      0. 0. 0. 0. 0. 0. 0. 0. 0. 0. 0. 0. 0. 0. 0. 0. 0. 0.
      6.10327899e-01 1.06362261e-01 4.80339117e-02 0. 0. 0. 0.
      1.16495714e-01 7.62343764e-01 8.36716473e-01 3.18800211e-02
      1.30338185e-02 0. 0. 0. 9.67319356e-04 1.48520181e-02
      5.38653910e-01 3.39745075e-01 3.39745075e-01 3.30864400e-01
      2.81331092e-01 3.39745075e-01 3.39745075e-01 3.39745075e-01
      3.39745075e-01 3.39745075e-01 3.45237017e-01 3.45237017e-01
      3.45237017e-01 2.07465127e-01 3.45237017e-01 3.45237017e-01
      3.45237017e-01 3.45237017e-01 3.45237017e-01 3.69794935e-01
      3.69794935e-01 3.17804366e-01 1.97224215e-01 2.28490353e-01
      3.69794935e-01 3.69794935e-01 3.47072244e-01 3.69794935e-01
      3.43229145e-01 3.43229145e-01 3.43229145e-01 3.43229145e-01
      3.43229145e-01 3.43229145e-01 3.43229145e-01 2.32639030e-01
      3.43229145e-01 3.34741026e-01 3.34741026e-01 3.34741026e-01
      3.34741026e-01 3.34741026e-01 3.34741026e-01 3.16611856e-01
      3.34741026e-01 3.34741026e-01 3.32778692e-01 3.32778692e-01
      3.32778692e-01 3.32778692e-01 3.32778692e-01 3.32778692e-01
      3.32778692e-01 3.32778692e-01 3.32778692e-01 3.46221089e-01
      3.46221089e-01 3.46221089e-01 3.46221089e-01 3.46221089e-01
      2.74858862e-01 2.86199301e-01 3.46221089e-01 3.46221089e-01
      3.40717196e-01 3.40717196e-01 3.40717196e-01 3.40717196e-01
      2.98756182e-01 3.40717196e-01 3.40717196e-01 3.07771236e-01
      3.40717196e-01 3.38658541e-01 3.38658541e-01 3.38658541e-01
      3.38658541e-01 3.38658541e-01 3.38658541e-01 3.38658541e-01
      2.81245857e-01 3.38658541e-01 3.51603478e-01 2.40205705e-01
      2.70948380e-01 3.51603478e-01 3.51603478e-01 3.51603478e-01
      3.51603478e-01 3.51603478e-01 3.51603478e-01 3.53193492e-01
      3.53193492e-01 3.53193492e-01 3.53193492e-01 3.35243523e-01
      3.53193492e-01 3.53193492e-01 2.88888901e-01 2.28368998e-01
      2.68406719e-01 3.02820057e-01 3.36368054e-01 3.46326977e-01
      3.46326977e-01 3.46326977e-01 3.46326977e-01 3.46326977e-01
      3.46326977e-01</_>
    <_>
      0. 0. 0. 0. 0. 0. 0. 0. 0. 0. 0. 0. 0. 0. 0. 0. 0. 0. 0. 0. 0. 0.
      0. 0. 0. 0. 0. 0. 0. 0. 0. 0. 0. 0. 0. 0. 0. 0. 0. 0. 0. 0. 0. 0.
      0. 0. 0. 0. 0. 0. 0. 0. 0. 0. 4.46883291e-01 4.46883291e-01
      8.12767297e-02 2.43404843e-02 1.05685018e-01 9.27570164e-02
      4.12002444e-01 4.46883291e-01 4.46883291e-01 4.66970056e-01
      2.48102516e-01 8.43447447e-02 1.05057001e-01 1.60513416e-01
      2.52642661e-01 4.14552599e-01 4.66970056e-01 4.66970056e-01
      3.99930894e-01 2.40483806e-02 1.45896850e-02 1.83758754e-02
      1.03670545e-01 1.97459925e-02 6.11235350e-02 5.40713251e-01
      7.24191606e-01 1.51492506e-01 1.65355317e-02 2.18893643e-02
      1.30147904e-01 8.67199063e-01 3.35326016e-01 2.35069394e-02
      6.47128075e-02 2.80103713e-01 5.36924005e-01 3.83950949e-01
      1.44255713e-01 5.27615808e-02 7.22653344e-02 6.63219094e-02
      1.95252657e-01 4.46438044e-01 5.36924005e-01 6.78771615e-01
      1.39719173e-01 8.48215595e-02 0. 1.38903007e-01 2.58366764e-02
      7.98152685e-02 1.36798933e-01 6.78771615e-01 3.24202865e-01
      3.52213979e-01 3.52213979e-01 3.52213979e-01 2.27433518e-01
      3.08738351e-01 3.52213979e-01 3.52213979e-01 3.52213979e-01
      3.45356673e-01 3.45356673e-01 3.45356673e-01 3.45356673e-01
      3.45356673e-01 3.45356673e-01 3.45356673e-01 3.45356673e-01
      2.05862969e-01 3.73303533e-01 3.73303533e-01 3.73303533e-01
      3.73303533e-01 3.73303533e-01 1.62423372e-01 2.76724905e-01
      3.13479334e-01 3.13473552e-01 3.60774964e-01 2.51841933e-01
      2.40901083e-01 3.06572139e-01 3.60774964e-01 3.60774964e-01
      3.60774964e-01 3.60774964e-01 3.60774964e-01 3.59057158e-01
      3.59057158e-01 3.59057158e-01 3.59057158e-01 3.59057158e-01
      1.56570911e-01 3.59057158e-01 3.59057158e-01 2.63522476e-01
      2.37646371e-01 3.60478908e-01 3.60478908e-01 3.60478908e-01
      3.60478908e-01 3.60478908e-01 3.60478908e-01 3.28799039e-01
      2.28349745e-01 3.32778692e-01 3.32778692e-01 3.32778692e-01
      3.32778692e-01 3.32778692e-01 3.32778692e-01 3.32778692e-01
      3.32778692e-01 3.32778692e-01 3.52632642e-01 2.20066667e-01
      3.87894809e-01 3.87894809e-01 3.87894809e-01 2.16806993e-01
      1.55011684e-01 3.87894809e-01 3.87894809e-01 3.49089414e-01
      3.47065449e-01 3.48300457e-01 3.49089414e-01 3.49089414e-01
      3.49089414e-01 1.53506026e-01 3.49089414e-01 3.49089414e-01
      3.76397878e-01 3.76397878e-01 2.14367688e-01 2.58747339e-01
      3.76397878e-01 3.76397878e-01 3.76397878e-01 1.82438225e-01
      3.76397878e-01 3.33804935e-01 3.33804935e-01 3.33804935e-01
      3.33804935e-01 3.33804935e-01 3.33804935e-01 3.29498887e-01
      3.28808695e-01 3.33804935e-01 3.32778692e-01 3.32778692e-01
      3.32778692e-01 3.32778692e-01 3.32778692e-01 3.32778692e-01
      3.32778692e-01 3.32778692e-01 3.32778692e-01</_>
    <_>
      0. 0. 0. 0. 0. 0. 0. 0. 0. 0. 0. 0. 0. 0. 0. 0. 0. 0. 0. 0. 0. 0.
      0. 0. 0. 0. 0. 0. 0. 0. 0. 0. 0. 0. 0. 0. 0. 0. 0. 0. 0. 0. 0. 0.
      0. 0. 0. 0. 0. 0. 0. 0. 0. 0. 4.66970056e-01 2.48102516e-01
      8.43447447e-02 1.05057001e-01 1.60513416e-01 2.52642661e-01
      4.14552599e-01 4.66970056e-01 4.66970056e-01 3.99930894e-01
      2.40483806e-02 1.45896850e-02 1.83758754e-02 1.03670545e-01
      1.97459925e-02 6.11235350e-02 5.40713251e-01 7.24191606e-01
      1.51492506e-01 1.65355317e-02 2.18893643e-02 1.30147904e-01
      8.67199063e-01 3.35326016e-01 2.35069394e-02 6.47128075e-02
      2.80103713e-01 5.36924005e-01 3.83950949e-01 1.44255713e-01
      5.27615808e-02 7.22653344e-02 6.63219094e-02 1.95252657e-01
      4.46438044e-01 5.36924005e-01 6.78771615e-01 1.39719173e-01
      8.48215595e-02 0. 1.38903007e-01 2.58366764e-02 7.98152685e-02
      1.36798933e-01 6.78771615e-01 6.80397391e-01 1.63628399e-01
      6.31428510e-02 4.53928821e-02 4.91914079e-02 0. 3.70455794e-02
      1.75249755e-01 6.80397391e-01 3.45356673e-01 3.45356673e-01
      3.45356673e-01 3.45356673e-01 3.45356673e-01 3.45356673e-01
      3.45356673e-01 3.45356673e-01 2.05862969e-01 3.73303533e-01
      3.73303533e-01 3.73303533e-01 3.73303533e-01 3.73303533e-01
      1.62423372e-01 2.76724905e-01 3.13479334e-01 3.13473552e-01
      3.60774964e-01 2.51841933e-01 2.40901083e-01 3.06572139e-01
      3.60774964e-01 3.60774964e-01 3.60774964e-01 3.60774964e-01
      3.60774964e-01 3.59057158e-01 3.59057158e-01 3.59057158e-01
      3.59057158e-01 3.59057158e-01 1.56570911e-01 3.59057158e-01
      3.59057158e-01 2.63522476e-01 2.37646371e-01 3.60478908e-01
      3.60478908e-01 3.60478908e-01 3.60478908e-01 3.60478908e-01
      3.60478908e-01 3.28799039e-01 2.28349745e-01 3.46766412e-01
      3.46766412e-01 3.46766412e-01 3.46766412e-01 3.46766412e-01
      3.46766412e-01 1.85902625e-01 3.46766412e-01 3.46766412e-01
      3.52632642e-01 2.20066667e-01 3.87894809e-01 3.87894809e-01
      3.87894809e-01 2.16806993e-01 1.55011684e-01 3.87894809e-01
      3.87894809e-01 3.49089414e-01 3.47065449e-01 3.48300457e-01
      3.49089414e-01 3.49089414e-01 3.49089414e-01 1.53506026e-01
      3.49089414e-01 3.49089414e-01 3.76397878e-01 3.76397878e-01
      2.14367688e-01 2.58747339e-01 3.76397878e-01 3.76397878e-01
      3.76397878e-01 1.82438225e-01 3.76397878e-01 3.33804935e-01
      3.33804935e-01 3.33804935e-01 3.33804935e-01 3.33804935e-01
      3.33804935e-01 3.29498887e-01 3.28808695e-01 3.33804935e-01
      3.32778692e-01 3.32778692e-01 3.32778692e-01 3.32778692e-01
      3.32778692e-01 3.32778692e-01 3.32778692e-01 3.32778692e-01
      3.32778692e-01 3.36945474e-01 3.36945474e-01 3.36945474e-01
      2.97279894e-01 3.36945474e-01 3.36945474e-01 3.36945474e-01
      3.36945474e-01 3.36945474e-01</_>
    <_>
      0. 0. 0. 0. 0. 0. 0. 0. 0. 0. 0. 0. 0. 0. 0. 0. 0. 0. 0. 0. 0. 0.
      0. 0. 0. 0. 0. 0. 0. 0. 0. 0. 0. 0. 0. 0. 0. 0. 0. 0. 0. 0. 0. 0.
      0. 0. 0. 0. 0. 0. 0. 0. 0. 0. 5.36924005e-01 3.83950949e-01
      1.44255713e-01 5.27615808e-02 7.22653344e-02 6.63219094e-02
      1.95252657e-01 4.46438044e-01 5.36924005e-01 6.78771615e-01
      1.39719173e-01 8.48215595e-02 0. 1.38903007e-01 2.58366764e-02
      7.98152685e-02 1.36798933e-01 6.78771615e-01 6.80397391e-01
      1.63628399e-01 6.31428510e-02 4.53928821e-02 4.91914079e-02 0.
      3.70455794e-02 1.75249755e-01 6.80397391e-01 5.68052769e-01
      3.24171454e-01 4.57151562e-01 1.20294973e-01 9.07469839e-02
      2.50207782e-02 2.47395746e-02 1.04598731e-01 5.68052769e-01
      4.73224729e-01 4.73224729e-01 1.87190086e-01 1.34903759e-01
      1.87748060e-01 5.80419675e-02 8.74609351e-02 4.73224729e-01
      4.73224729e-01 4.69426841e-01 4.69426841e-01 2.61303335e-01
      1.24786049e-01 1.35952339e-01 1.65422961e-01 2.63236851e-01
      3.67742091e-01 4.69426841e-01 3.59057158e-01 3.59057158e-01
      3.59057158e-01 3.59057158e-01 3.59057158e-01 1.56570911e-01
      3.59057158e-01 3.59057158e-01 2.63522476e-01 2.37646371e-01
      3.60478908e-01 3.60478908e-01 3.60478908e-01 3.60478908e-01
      3.60478908e-01 3.60478908e-01 3.28799039e-01 2.28349745e-01
      3.46766412e-01 3.46766412e-01 3.46766412e-01 3.46766412e-01
      3.46766412e-01 3.46766412e-01 1.85902625e-01 3.46766412e-01
      3.46766412e-01 2.82203615e-01 2.85415173e-01 3.35549176e-01
      3.47092241e-01 3.47092241e-01 3.47092241e-01 3.47092241e-01
      3.47092241e-01 3.47092241e-01 3.37986529e-01 3.37986529e-01
      3.37986529e-01 3.37986529e-01 2.87652433e-01 3.37986529e-01
      3.37986529e-01 3.37986529e-01 3.37986529e-01 3.40970606e-01
      3.40970606e-01 3.40970606e-01 3.40970606e-01 3.40970606e-01
      3.40970606e-01 3.37508857e-01 2.62401193e-01 3.40970606e-01
      3.33804935e-01 3.33804935e-01 3.33804935e-01 3.33804935e-01
      3.33804935e-01 3.33804935e-01 3.29498887e-01 3.28808695e-01
      3.33804935e-01 3.32778692e-01 3.32778692e-01 3.32778692e-01
      3.32778692e-01 3.32778692e-01 3.32778692e-01 3.32778692e-01
      3.32778692e-01 3.32778692e-01 3.36945474e-01 3.36945474e-01
      3.36945474e-01 2.97279894e-01 3.36945474e-01 3.36945474e-01
      3.36945474e-01 3.36945474e-01 3.36945474e-01 3.32778692e-01
      3.32778692e-01 3.32778692e-01 3.32778692e-01 3.32778692e-01
      3.32778692e-01 3.32778692e-01 3.32778692e-01 3.32778692e-01
      3.44515979e-01 3.44515979e-01 3.44515979e-01 3.44515979e-01
      3.44515979e-01 3.44515979e-01 2.63542265e-01 3.10265362e-01
      3.44515979e-01 3.02272767e-01 3.36390793e-01 3.36390793e-01
      3.36390793e-01 3.36390793e-01 3.36390793e-01 3.36390793e-01
      3.36390793e-01 3.36390793e-01</_>
    <_>
      0. 0. 0. 0. 0. 0. 0. 0. 0. 0. 0. 0. 0. 0. 0. 0. 0. 0. 0. 0. 0. 0.
      0. 0. 0. 0. 0. 0. 0. 0. 0. 0. 0. 0. 0. 0. 0. 0. 0. 0. 0. 0. 0. 0.
      0. 0. 0. 0. 0. 0. 0. 0. 0. 0. 7.20631540e-01 2.37298250e-01
      6.26930594e-02 0. 0. 0. 0. 8.20253640e-02 6.21963441e-01
      6.92542851e-01 6.19511530e-02 1.02327364e-02 8.99690390e-02
      1.33037522e-01 4.12004739e-02 1.65712051e-02 4.63382192e-02
      6.92542851e-01 7.45100558e-01 6.00669570e-02 1.40723595e-02
      1.36706263e-01 2.51600891e-01 6.61310256e-02 1.25916498e-02
      3.53923440e-02 5.87924719e-01 4.57586527e-01 3.72082680e-01
      2.40078002e-01 8.04790184e-02 4.12031949e-01 2.78390288e-01
      1.29960582e-01 3.31568301e-01 4.57586527e-01 6.33571625e-01
      2.39612430e-01 7.42264315e-02 3.46833132e-02 5.55482171e-02 0.
      1.01274446e-01 3.36719066e-01 6.33571625e-01 4.83990908e-01
      4.83990908e-01 4.67519648e-02 3.36418711e-02 1.41632631e-01
      2.70423815e-02 1.84576392e-01 4.83990908e-01 4.83990908e-01
      3.39086384e-01 3.39086384e-01 3.39086384e-01 3.39086384e-01
      3.39086384e-01 3.39086384e-01 3.39086384e-01 2.77083933e-01
      3.39086384e-01 3.32778692e-01 3.32778692e-01 3.32778692e-01
      3.32778692e-01 3.32778692e-01 3.32778692e-01 3.32778692e-01
      3.32778692e-01 3.32778692e-01 3.32778692e-01 3.32778692e-01
      3.32778692e-01 3.32778692e-01 3.32778692e-01 3.32778692e-01
      3.32778692e-01 3.32778692e-01 3.32778692e-01 3.39433074e-01
      2.73660481e-01 3.39433074e-01 3.39433074e-01 3.39433074e-01
      3.39433074e-01 3.39433074e-01 3.39433074e-01 3.39433074e-01
      3.41456920e-01 3.41456920e-01 3.41456920e-01 2.52677143e-01
      3.41456920e-01 3.41456920e-01 3.41456920e-01 3.41456920e-01
      3.41456920e-01 3.30895841e-01 2.42853060e-01 2.65405178e-01
      3.55731308e-01 3.53288382e-01 3.55731308e-01 3.55731308e-01
      3.55731308e-01 3.55731308e-01 3.43779057e-01 3.43779057e-01
      3.43779057e-01 2.94076562e-01 2.87742525e-01 3.43779057e-01
      3.43779057e-01 3.43779057e-01 3.43779057e-01 3.35677296e-01
      3.35677296e-01 3.35677296e-01 3.35672110e-01 3.35677296e-01
      3.35677296e-01 3.35677296e-01 3.35677296e-01 3.08570325e-01
      3.32778692e-01 3.32778692e-01 3.32778692e-01 3.32778692e-01
      3.32778692e-01 3.32778692e-01 3.32778692e-01 3.32778692e-01
      3.32778692e-01 3.36423814e-01 3.36423814e-01 3.36423814e-01
      3.36423814e-01 3.01978171e-01 3.36423814e-01 3.36423814e-01
      3.36423814e-01 3.36423814e-01 3.40739578e-01 3.40739578e-01
      3.38589072e-01 3.40739578e-01 3.40739578e-01 3.40739578e-01
      3.40739578e-01 2.63113588e-01 3.40739578e-01 3.32778692e-01
      3.32778692e-01 3.32778692e-01 3.32778692e-01 3.32778692e-01
      3.32778692e-01 3.32778692e-01 3.32778692e-01 3.32778692e-01</_>
    <_>
      0. 0. 0. 0. 0. 0. 0. 0. 0. 0. 0. 0. 0. 0. 0. 0. 0. 0. 0. 0. 0. 0.
      0. 0. 0. 0. 0. 0. 0. 0. 0. 0. 0. 0. 0. 0. 0. 0. 0. 0. 0. 0. 0. 0.
      0. 0. 0. 0. 0. 0. 0. 0. 0. 0. 5.42608559e-01 1.85532376e-01
      2.56244600e-01 7.69590810e-02 1.46177888e-01 4.01256941e-02
      2.16765031e-01 4.79334801e-01 5.42608559e-01 3.77944440e-01
      3.60934198e-01 2.53788173e-01 1.36635303e-01 3.23767275e-01
      3.26618761e-01 3.77944440e-01 3.77944440e-01 3.77944440e-01
      4.97792155e-01 4.87383902e-01 2.74217695e-01 1.31596297e-01
      2.77460933e-01 2.02366993e-01 1.44162819e-01 1.75094992e-01
      4.97792155e-01 4.96370614e-01 3.66722137e-01 4.01146635e-02
      1.82731420e-01 2.25520268e-01 1.33410275e-01 1.33223176e-01
      4.96370614e-01 4.96370614e-01 4.44693804e-01 4.44693804e-01
      3.59209776e-01 2.64734030e-01 1.85758278e-01 9.62539390e-02
      1.19173259e-01 3.81065875e-01 4.44693804e-01 4.37567383e-01
      2.95646250e-01 2.42132887e-01 3.17858517e-01 2.34174699e-01
      1.33058757e-01 3.18782002e-01 4.37567383e-01 4.37567383e-01
      3.43712449e-01 3.32951665e-01 3.43712449e-01 3.43712449e-01
      3.43712449e-01 3.43712449e-01 2.42366239e-01 3.43712449e-01
      3.43712449e-01 3.39064091e-01 3.39064091e-01 3.39064091e-01
      3.39064091e-01 2.77302474e-01 3.39064091e-01 3.39064091e-01
      3.39064091e-01 3.39064091e-01 3.82365346e-01 2.94049710e-01
      2.46203214e-01 3.82365346e-01 3.82365346e-01 1.70701683e-01
      2.98234165e-01 3.82365346e-01 3.82365346e-01 3.39415282e-01
      3.39415282e-01 3.39415282e-01 3.39415282e-01 2.73837179e-01
      3.39415282e-01 3.39415282e-01 3.39415282e-01 3.39415282e-01
      3.44167262e-01 3.44167262e-01 3.44167262e-01 3.44167262e-01
      2.21251979e-01 3.44167262e-01 3.44167262e-01 3.44167262e-01
      3.44167262e-01 3.37274611e-01 3.37274611e-01 3.37274611e-01
      2.94273317e-01 3.37274611e-01 3.37274611e-01 3.37274611e-01
      3.37274611e-01 3.37274611e-01 3.37149322e-01 3.37149322e-01
      3.37149322e-01 3.37149322e-01 2.95421809e-01 3.37149322e-01
      3.37149322e-01 3.37149322e-01 3.37149322e-01 3.41694862e-01
      3.41694862e-01 3.41694862e-01 3.41694862e-01 3.41694862e-01
      3.41694862e-01 3.41694862e-01 2.82543689e-01 3.15384418e-01
      3.61483276e-01 3.61483276e-01 3.61483276e-01 3.61483276e-01
      3.61483276e-01 3.61483276e-01 2.47695535e-01 1.42633185e-01
      3.61483276e-01 3.50651950e-01 3.50651950e-01 3.50651950e-01
      3.50651950e-01 3.50651950e-01 2.58641422e-01 2.62494981e-01
      3.50651950e-01 3.50651950e-01 3.42662394e-01 3.42662394e-01
      3.11329246e-01 2.79695183e-01 3.42662394e-01 3.42662394e-01
      3.42662394e-01 3.42662394e-01 3.41929555e-01 2.37077564e-01
      2.62021571e-01 3.64830077e-01 3.64830077e-01 3.64830077e-01
      2.69977868e-01 3.64830077e-01 3.64830077e-01 3.64830077e-01</_>
    <_>
      5.28359652e-01 0. 0. 0. 0. 0. 0. 0. 5.28359652e-01 5.49448252e-01
      0. 0. 0. 0. 0. 0. 0. 5.49448252e-01 0. 0. 0. 0. 0. 0. 0. 0. 0. 0.
      0. 0. 0. 0. 0. 0. 0. 0. 6.10327899e-01 1.06362261e-01
      4.80339117e-02 0. 0. 0. 0. 1.16495714e-01 7.62343764e-01
      8.36716473e-01 3.18800211e-02 1.30338185e-02 0. 0. 0.
      9.67319356e-04 1.48520181e-02 5.38653910e-01 3.39745075e-01
      3.39745075e-01 3.30864400e-01 2.81331092e-01 3.39745075e-01
      3.39745075e-01 3.39745075e-01 3.39745075e-01 3.39745075e-01
      3.45237017e-01 3.45237017e-01 3.45237017e-01 2.07465127e-01
      3.45237017e-01 3.45237017e-01 3.45237017e-01 3.45237017e-01
      3.45237017e-01 3.69794935e-01 3.69794935e-01 3.17804366e-01
      1.97224215e-01 2.28490353e-01 3.69794935e-01 3.69794935e-01
      3.47072244e-01 3.69794935e-01 3.43229145e-01 3.43229145e-01
      3.43229145e-01 3.43229145e-01 3.43229145e-01 3.43229145e-01
      3.43229145e-01 2.32639030e-01 3.43229145e-01 3.34741026e-01
      3.34741026e-01 3.34741026e-01 3.34741026e-01 3.34741026e-01
      3.34741026e-01 3.16611856e-01 3.34741026e-01 3.34741026e-01
      3.32778692e-01 3.32778692e-01 3.32778692e-01 3.32778692e-01
      3.32778692e-01 3.32778692e-01 3.32778692e-01 3.32778692e-01
      3.32778692e-01 3.46221089e-01 3.46221089e-01 3.46221089e-01
      3.46221089e-01 3.46221089e-01 2.74858862e-01 2.86199301e-01
      3.46221089e-01 3.46221089e-01 3.40717196e-01 3.40717196e-01
      3.40717196e-01 3.40717196e-01 2.98756182e-01 3.40717196e-01
      3.40717196e-01 3.07771236e-01 3.40717196e-01 3.38658541e-01
      3.38658541e-01 3.38658541e-01 3.38658541e-01 3.38658541e-01
      3.38658541e-01 3.38658541e-01 2.81245857e-01 3.38658541e-01
      3.51603478e-01 2.40205705e-01 2.70948380e-01 3.51603478e-01
      3.51603478e-01 3.51603478e-01 3.51603478e-01 3.51603478e-01
      3.51603478e-01 3.53193492e-01 3.53193492e-01 3.53193492e-01
      3.53193492e-01 3.35243523e-01 3.53193492e-01 3.53193492e-01
      2.88888901e-01 2.28368998e-01 2.68406719e-01 3.02820057e-01
      3.36368054e-01 3.46326977e-01 3.46326977e-01 3.46326977e-01
      3.46326977e-01 3.46326977e-01 3.46326977e-01 2.38810048e-01
      3.42699885e-01 3.42699885e-01 3.42699885e-01 3.42699885e-01
      3.42699885e-01 3.42699885e-01 3.42699885e-01 3.42699885e-01
      3.38055342e-01 3.38055342e-01 2.99126714e-01 3.38055342e-01
      3.38055342e-01 3.38055342e-01 3.38055342e-01 3.27376962e-01
      3.38055342e-01 3.35617870e-01 3.35617870e-01 3.35617870e-01
      3.35617870e-01 3.35617870e-01 3.09082508e-01 3.35617870e-01
      3.35617870e-01 3.35617870e-01 3.63536060e-01 2.19415694e-01
      2.11267427e-01 3.32626075e-01 3.63536060e-01 3.63536060e-01
      3.63536060e-01 3.63536060e-01 3.63536060e-01 1.86026916e-01
      3.46758097e-01 3.46758097e-01 3.46758097e-01 3.46758097e-01
      3.46758097e-01 3.46758097e-01 3.46758097e-01 3.46758097e-01
      3.33260775e-01 3.33260775e-01 3.33260775e-01 3.33260775e-01
      3.33260775e-01 3.33260775e-01 3.33260775e-01 3.28889161e-01
      3.33260775e-01</_>
    <_>
      6.10327899e-01 1.06362261e-01 4.80339117e-02 0. 0. 0. 0.
      1.16495714e-01 7.62343764e-01 8.36716473e-01 3.18800211e-02
      1.30338185e-02 0. 0. 0. 9.67319356e-04 1.48520181e-02
      5.38653910e-01 5.25537908e-01 2.83052653e-01 2.83535093e-01
      8.25428814e-02 6.19974732e-01 7.97613114e-02 9.68115628e-02
      6.31609336e-02 3.82365257e-01 4.72736418e-01 1.78187713e-01
      1.19930722e-01 1.84420034e-01 3.99227381e-01 1.23705961e-01
      4.25394267e-01 2.92259365e-01 4.94521648e-01 0. 0. 0. 0. 0. 0. 0.
      0. 0. 0. 0. 0. 0. 0. 0. 0. 0. 0. 3.34741026e-01 3.34741026e-01
      3.34741026e-01 3.34741026e-01 3.34741026e-01 3.34741026e-01
      3.16611856e-01 3.34741026e-01 3.34741026e-01 3.32778692e-01
      3.32778692e-01 3.32778692e-01 3.32778692e-01 3.32778692e-01
      3.32778692e-01 3.32778692e-01 3.32778692e-01 3.32778692e-01
      3.83113682e-01 3.83113682e-01 3.83113682e-01 3.83113682e-01
      3.83113682e-01 1.79136440e-01 1.41716257e-01 2.51679569e-01
      3.83113682e-01 3.63746375e-01 3.63746375e-01 2.77171642e-01
      2.19607383e-01 2.78290868e-01 3.63746375e-01 3.63746375e-01
      3.63746375e-01 3.63746375e-01 3.89589250e-01 3.89589250e-01
      3.89589250e-01 1.28772140e-01 1.28619686e-01 2.28700563e-01
      3.89589250e-01 3.89589250e-01 3.89589250e-01 3.94796818e-01
      3.94796818e-01 3.94796818e-01 2.22718060e-01 1.11493729e-01
      1.35137841e-01 3.69373530e-01 3.94796818e-01 3.94796818e-01
      3.53193492e-01 3.53193492e-01 3.53193492e-01 3.53193492e-01
      3.35243523e-01 3.53193492e-01 3.53193492e-01 2.88888901e-01
      2.28368998e-01 2.68406719e-01 3.02820057e-01 3.36368054e-01
      3.46326977e-01 3.46326977e-01 3.46326977e-01 3.46326977e-01
      3.46326977e-01 3.46326977e-01 3.32778692e-01 3.32778692e-01
      3.32778692e-01 3.32778692e-01 3.32778692e-01 3.32778692e-01
      3.32778692e-01 3.32778692e-01 3.32778692e-01 3.35406482e-01
      3.35406482e-01 3.35406482e-01 3.35406482e-01 3.35406482e-01
      3.35406482e-01 3.35406482e-01 3.35406482e-01 3.10916036e-01
      2.36549139e-01 3.42895478e-01 3.42895478e-01 3.42895478e-01
      3.42895478e-01 3.42895478e-01 3.42895478e-01 3.42895478e-01
      3.42895478e-01 3.49201441e-01 3.49201441e-01 3.10761809e-01
      3.49201441e-01 2.38369837e-01 3.33868206e-01 3.49201441e-01
      3.49201441e-01 3.49201441e-01 1.86026916e-01 3.46758097e-01
      3.46758097e-01 3.46758097e-01 3.46758097e-01 3.46758097e-01
      3.46758097e-01 3.46758097e-01 3.46758097e-01 3.33260775e-01
      3.33260775e-01 3.33260775e-01 3.33260775e-01 3.33260775e-01
      3.33260775e-01 3.33260775e-01 3.28889161e-01 3.33260775e-01
      3.24355692e-01 3.37885588e-01 3.37885588e-01 3.37885588e-01
      3.37885588e-01 3.03728461e-01 3.37885588e-01 3.37885588e-01
      3.37885588e-01 3.38357896e-01 3.38357896e-01 2.84131736e-01
      3.38357896e-01 3.38357896e-01 3.38357896e-01 3.38357896e-01
      3.38357896e-01 3.38357896e-01 3.51427883e-01 3.51427883e-01
      3.51427883e-01 3.51427883e-01 3.51427883e-01 2.78218538e-01
      2.33607426e-01 3.51427883e-01 3.51427883e-01 3.41308653e-01
      3.41308653e-01 3.41308653e-01 3.41308653e-01 3.41308653e-01
      3.41308653e-01 2.59603322e-01 3.37275624e-01 3.41308653e-01</_>
    <_>
      8.36716473e-01 3.18800211e-02 1.30338185e-02 0. 0. 0.
      9.67319356e-04 1.48520181e-02 5.38653910e-01 5.25537908e-01
      2.83052653e-01 2.83535093e-01 8.25428814e-02 6.19974732e-01
      7.97613114e-02 9.68115628e-02 6.31609336e-02 3.82365257e-01
      4.72736418e-01 1.78187713e-01 1.19930722e-01 1.84420034e-01
      3.99227381e-01 1.23705961e-01 4.25394267e-01 2.92259365e-01
      4.94521648e-01 0. 0. 0. 0. 0. 0. 0. 0. 0. 0. 0. 0. 0. 0. 0. 0. 0.
      0. 7.98931718e-01 2.92397976e-01 2.27835804e-01 0. 1.49020612e-01
      0. 1.73155159e-01 5.77183925e-02 3.82153362e-01 3.32778692e-01
      3.32778692e-01 3.32778692e-01 3.32778692e-01 3.32778692e-01
      3.32778692e-01 3.32778692e-01 3.32778692e-01 3.32778692e-01
      3.83113682e-01 3.83113682e-01 3.83113682e-01 3.83113682e-01
      3.83113682e-01 1.79136440e-01 1.41716257e-01 2.51679569e-01
      3.83113682e-01 3.63746375e-01 3.63746375e-01 2.77171642e-01
      2.19607383e-01 2.78290868e-01 3.63746375e-01 3.63746375e-01
      3.63746375e-01 3.63746375e-01 3.89589250e-01 3.89589250e-01
      3.89589250e-01 1.28772140e-01 1.28619686e-01 2.28700563e-01
      3.89589250e-01 3.89589250e-01 3.89589250e-01 3.94796818e-01
      3.94796818e-01 3.94796818e-01 2.22718060e-01 1.11493729e-01
      1.35137841e-01 3.69373530e-01 3.94796818e-01 3.94796818e-01
      3.79690707e-01 3.79690707e-01 3.79690707e-01 1.22944146e-01
      1.49170756e-01 3.79690707e-01 3.79690707e-01 3.06348622e-01
      3.79690707e-01 2.68406719e-01 3.02820057e-01 3.36368054e-01
      3.46326977e-01 3.46326977e-01 3.46326977e-01 3.46326977e-01
      3.46326977e-01 3.46326977e-01 3.32778692e-01 3.32778692e-01
      3.32778692e-01 3.32778692e-01 3.32778692e-01 3.32778692e-01
      3.32778692e-01 3.32778692e-01 3.32778692e-01 3.35406482e-01
      3.35406482e-01 3.35406482e-01 3.35406482e-01 3.35406482e-01
      3.35406482e-01 3.35406482e-01 3.35406482e-01 3.10916036e-01
      2.36549139e-01 3.42895478e-01 3.42895478e-01 3.42895478e-01
      3.42895478e-01 3.42895478e-01 3.42895478e-01 3.42895478e-01
      3.42895478e-01 3.49201441e-01 3.49201441e-01 3.10761809e-01
      3.49201441e-01 2.38369837e-01 3.33868206e-01 3.49201441e-01
      3.49201441e-01 3.49201441e-01 3.37938935e-01 3.37938935e-01
      3.37938935e-01 3.37938935e-01 3.37938935e-01 3.17571580e-01
      3.10407460e-01 3.37938935e-01 3.37938935e-01 3.33260775e-01
      3.33260775e-01 3.33260775e-01 3.33260775e-01 3.33260775e-01
      3.33260775e-01 3.33260775e-01 3.28889161e-01 3.33260775e-01
      3.24355692e-01 3.37885588e-01 3.37885588e-01 3.37885588e-01
      3.37885588e-01 3.03728461e-01 3.37885588e-01 3.37885588e-01
      3.37885588e-01 3.38357896e-01 3.38357896e-01 2.84131736e-01
      3.38357896e-01 3.38357896e-01 3.38357896e-01 3.38357896e-01
      3.38357896e-01 3.38357896e-01 3.51427883e-01 3.51427883e-01
      3.51427883e-01 3.51427883e-01 3.51427883e-01 2.78218538e-01
      2.33607426e-01 3.51427883e-01 3.51427883e-01 3.41308653e-01
      3.41308653e-01 3.41308653e-01 3.41308653e-01 3.41308653e-01
      3.41308653e-01 2.59603322e-01 3.37275624e-01 3.41308653e-01
      3.40692639e-01 3.40692639e-01 3.40692639e-01 3.40692639e-01
      3.40692639e-01 3.40692639e-01 2.60814846e-01 3.40692639e-01
      3.40692639e-01</_>
    <_>
      4.46883291e-01 4.46883291e-01 8.12767297e-02 2.43404843e-02
      1.05685018e-01 9.27570164e-02 4.12002444e-01 4.46883291e-01
      4.46883291e-01 4.66970056e-01 2.48102516e-01 8.43447447e-02
      1.05057001e-01 1.60513416e-01 2.52642661e-01 4.14552599e-01
      4.66970056e-01 4.66970056e-01 3.99930894e-01 2.40483806e-02
      1.45896850e-02 1.83758754e-02 1.03670545e-01 1.97459925e-02
      6.11235350e-02 5.40713251e-01 7.24191606e-01 1.51492506e-01
      1.65355317e-02 2.18893643e-02 1.30147904e-01 8.67199063e-01
      3.35326016e-01 2.35069394e-02 6.47128075e-02 2.80103713e-01
      5.36924005e-01 3.83950949e-01 1.44255713e-01 5.27615808e-02
      7.22653344e-02 6.63219094e-02 1.95252657e-01 4.46438044e-01
      5.36924005e-01 6.78771615e-01 1.39719173e-01 8.48215595e-02 0.
      1.38903007e-01 2.58366764e-02 7.98152685e-02 1.36798933e-01
      6.78771615e-01 3.24202865e-01 3.52213979e-01 3.52213979e-01
      3.52213979e-01 2.27433518e-01 3.08738351e-01 3.52213979e-01
      3.52213979e-01 3.52213979e-01 3.45356673e-01 3.45356673e-01
      3.45356673e-01 3.45356673e-01 3.45356673e-01 3.45356673e-01
      3.45356673e-01 3.45356673e-01 2.05862969e-01 3.73303533e-01
      3.73303533e-01 3.73303533e-01 3.73303533e-01 3.73303533e-01
      1.62423372e-01 2.76724905e-01 3.13479334e-01 3.13473552e-01
      3.60774964e-01 2.51841933e-01 2.40901083e-01 3.06572139e-01
      3.60774964e-01 3.60774964e-01 3.60774964e-01 3.60774964e-01
      3.60774964e-01 3.59057158e-01 3.59057158e-01 3.59057158e-01
      3.59057158e-01 3.59057158e-01 1.56570911e-01 3.59057158e-01
      3.59057158e-01 2.63522476e-01 2.37646371e-01 3.60478908e-01
      3.60478908e-01 3.60478908e-01 3.60478908e-01 3.60478908e-01
      3.60478908e-01 3.28799039e-01 2.28349745e-01 3.32778692e-01
      3.32778692e-01 3.32778692e-01 3.32778692e-01 3.32778692e-01
      3.32778692e-01 3.32778692e-01 3.32778692e-01 3.32778692e-01
      3.52632642e-01 2.20066667e-01 3.87894809e-01 3.87894809e-01
      3.87894809e-01 2.16806993e-01 1.55011684e-01 3.87894809e-01
      3.87894809e-01 3.49089414e-01 3.47065449e-01 3.48300457e-01
      3.49089414e-01 3.49089414e-01 3.49089414e-01 1.53506026e-01
      3.49089414e-01 3.49089414e-01 3.76397878e-01 3.76397878e-01
      2.14367688e-01 2.58747339e-01 3.76397878e-01 3.76397878e-01
      3.76397878e-01 1.82438225e-01 3.76397878e-01 3.33804935e-01
      3.33804935e-01 3.33804935e-01 3.33804935e-01 3.33804935e-01
      3.33804935e-01 3.29498887e-01 3.28808695e-01 3.33804935e-01
      3.32778692e-01 3.32778692e-01 3.32778692e-01 3.32778692e-01
      3.32778692e-01 3.32778692e-01 3.32778692e-01 3.32778692e-01
      3.32778692e-01 3.41260791e-01 3.41260791e-01 3.41260791e-01
      3.41260791e-01 3.41260791e-01 2.67812461e-01 3.41260791e-01
      3.41260791e-01 3.31141144e-01 3.43909562e-01 3.43909562e-01
      3.43909562e-01 3.43909562e-01 2.24440992e-01 3.43909562e-01
      3.43909562e-01 3.43909562e-01 3.43909562e-01 3.33418041e-01
      3.33418041e-01 3.33418041e-01 3.27609390e-01 3.33418041e-01
      3.33418041e-01 3.33418041e-01 3.33418041e-01 3.33418041e-01
      3.36156815e-01 3.34069997e-01 3.36156815e-01 3.36156815e-01
      3.36156815e-01 3.36156815e-01 3.36156815e-01 3.06641072e-01
      3.36156815e-01 3.32778692e-01 3.32778692e-01 3.32778692e-01
      3.32778692e-01 3.32778692e-01 3.32778692e-01 3.32778692e-01
      3.32778692e-01 3.32778692e-01 3.32778692e-01 3.32778692e-01
      3.32778692e-01 3.32778692e-01 3.32778692e-01 3.32778692e-01
      3.32778692e-01 3.32778692e-01 3.32778692e-01</_>
    <_>
      4.66970056e-01 2.48102516e-01 8.43447447e-02 1.05057001e-01
      1.60513416e-01 2.52642661e-01 4.14552599e-01 4.66970056e-01
      4.66970056e-01 3.99930894e-01 2.40483806e-02 1.45896850e-02
      1.83758754e-02 1.03670545e-01 1.97459925e-02 6.11235350e-02
      5.40713251e-01 7.24191606e-01 1.51492506e-01 1.65355317e-02
      2.18893643e-02 1.30147904e-01 8.67199063e-01 3.35326016e-01
      2.35069394e-02 6.47128075e-02 2.80103713e-01 5.36924005e-01
      3.83950949e-01 1.44255713e-01 5.27615808e-02 7.22653344e-02
      6.63219094e-02 1.95252657e-01 4.46438044e-01 5.36924005e-01
      6.78771615e-01 1.39719173e-01 8.48215595e-02 0. 1.38903007e-01
      2.58366764e-02 7.98152685e-02 1.36798933e-01 6.78771615e-01
      6.80397391e-01 1.63628399e-01 6.31428510e-02 4.53928821e-02
      4.91914079e-02 0. 3.70455794e-02 1.75249755e-01 6.80397391e-01
      3.45356673e-01 3.45356673e-01 3.45356673e-01 3.45356673e-01
      3.45356673e-01 3.45356673e-01 3.45356673e-01 3.45356673e-01
      2.05862969e-01 3.73303533e-01 3.73303533e-01 3.73303533e-01
      3.73303533e-01 3.73303533e-01 1.62423372e-01 2.76724905e-01
      3.13479334e-01 3.13473552e-01 3.60774964e-01 2.51841933e-01
      2.40901083e-01 3.06572139e-01 3.60774964e-01 3.60774964e-01
      3.60774964e-01 3.60774964e-01 3.60774964e-01 3.59057158e-01
      3.59057158e-01 3.59057158e-01 3.59057158e-01 3.59057158e-01
      1.56570911e-01 3.59057158e-01 3.59057158e-01 2.63522476e-01
      2.37646371e-01 3.60478908e-01 3.60478908e-01 3.60478908e-01
      3.60478908e-01 3.60478908e-01 3.60478908e-01 3.28799039e-01
      2.28349745e-01 3.46766412e-01 3.46766412e-01 3.46766412e-01
      3.46766412e-01 3.46766412e-01 3.46766412e-01 1.85902625e-01
      3.46766412e-01 3.46766412e-01 3.52632642e-01 2.20066667e-01
      3.87894809e-01 3.87894809e-01 3.87894809e-01 2.16806993e-01
      1.55011684e-01 3.87894809e-01 3.87894809e-01 3.49089414e-01
      3.47065449e-01 3.48300457e-01 3.49089414e-01 3.49089414e-01
      3.49089414e-01 1.53506026e-01 3.49089414e-01 3.49089414e-01
      3.76397878e-01 3.76397878e-01 2.14367688e-01 2.58747339e-01
      3.76397878e-01 3.76397878e-01 3.76397878e-01 1.82438225e-01
      3.76397878e-01 3.33804935e-01 3.33804935e-01 3.33804935e-01
      3.33804935e-01 3.33804935e-01 3.33804935e-01 3.29498887e-01
      3.28808695e-01 3.33804935e-01 3.32778692e-01 3.32778692e-01
      3.32778692e-01 3.32778692e-01 3.32778692e-01 3.32778692e-01
      3.32778692e-01 3.32778692e-01 3.32778692e-01 3.36945474e-01
      3.36945474e-01 3.36945474e-01 2.97279894e-01 3.36945474e-01
      3.36945474e-01 3.36945474e-01 3.36945474e-01 3.36945474e-01
      3.43909562e-01 3.43909562e-01 3.43909562e-01 3.43909562e-01
      2.24440992e-01 3.43909562e-01 3.43909562e-01 3.43909562e-01
      3.43909562e-01 3.33418041e-01 3.33418041e-01 3.33418041e-01
      3.27609390e-01 3.33418041e-01 3.33418041e-01 3.33418041e-01
      3.33418041e-01 3.33418041e-01 3.36156815e-01 3.34069997e-01
      3.36156815e-01 3.36156815e-01 3.36156815e-01 3.36156815e-01
      3.36156815e-01 3.06641072e-01 3.36156815e-01 3.32778692e-01
      3.32778692e-01 3.32778692e-01 3.32778692e-01 3.32778692e-01
      3.32778692e-01 3.32778692e-01 3.32778692e-01 3.32778692e-01
      3.32778692e-01 3.32778692e-01 3.32778692e-01 3.32778692e-01
      3.32778692e-01 3.32778692e-01 3.32778692e-01 3.32778692e-01
      3.32778692e-01 3.35473508e-01 3.35473508e-01 3.35473508e-01
      3.35473508e-01 3.35473508e-01 3.18523884e-01 3.27709377e-01
      3.35473508e-01 3.35473508e-01</_>
    <_>
      6.33571625e-01 2.39612430e-01 7.42264315e-02 3.46833132e-02
      5.55482171e-02 0. 1.01274446e-01 3.36719066e-01 6.33571625e-01
      4.83990908e-01 4.83990908e-01 4.67519648e-02 3.36418711e-02
      1.41632631e-01 2.70423815e-02 1.84576392e-01 4.83990908e-01
      4.83990908e-01 4.49775577e-01 1.06350660e-01 1.91597059e-01
      3.20805907e-01 6.21927977e-01 2.21982390e-01 1.00123264e-01
      1.43176764e-01 4.17086601e-01 0. 0. 0. 0. 0. 0. 0. 0. 0. 0. 0. 0.
      0. 0. 0. 0. 0. 0. 0. 0. 0. 0. 0. 0. 0. 0. 0. 3.41456920e-01
      3.41456920e-01 3.41456920e-01 2.52677143e-01 3.41456920e-01
      3.41456920e-01 3.41456920e-01 3.41456920e-01 3.41456920e-01
      3.30895841e-01 2.42853060e-01 2.65405178e-01 3.55731308e-01
      3.53288382e-01 3.55731308e-01 3.55731308e-01 3.55731308e-01
      3.55731308e-01 2.32396826e-01 3.57077837e-01 3.57077837e-01
      3.57077837e-01 2.23365486e-01 3.57077837e-01 3.57077837e-01
      3.57077837e-01 3.57077837e-01 3.67435962e-01 3.19831818e-01
      2.43187264e-01 3.30093622e-01 2.25585386e-01 3.67435962e-01
      3.67435962e-01 3.67435962e-01 3.67435962e-01 3.42243165e-01
      3.42243165e-01 3.42243165e-01 3.30182880e-01 3.42243165e-01
      2.60090709e-01 3.42243165e-01 3.42243165e-01 3.42243165e-01
      3.90602767e-01 3.90602767e-01 2.86739051e-01 2.62557209e-01
      2.24817976e-01 1.77613288e-01 3.90602767e-01 3.90602767e-01
      3.90602767e-01 3.40739578e-01 3.40739578e-01 3.38589072e-01
      3.40739578e-01 3.40739578e-01 3.40739578e-01 3.40739578e-01
      2.63113588e-01 3.40739578e-01 3.32778692e-01 3.32778692e-01
      3.32778692e-01 3.32778692e-01 3.32778692e-01 3.32778692e-01
      3.32778692e-01 3.32778692e-01 3.32778692e-01 3.39741051e-01
      2.70580322e-01 3.39741051e-01 3.39741051e-01 3.39741051e-01
      3.39741051e-01 3.39741051e-01 3.39741051e-01 3.39741051e-01
      3.38731140e-01 3.38731140e-01 3.38731140e-01 3.04512948e-01
      3.17357659e-01 3.38731140e-01 3.38731140e-01 3.38731140e-01
      3.38731140e-01 3.37681860e-01 3.18969935e-01 3.37681860e-01
      3.37681860e-01 3.37681860e-01 3.10935766e-01 3.37681860e-01
      3.37681860e-01 3.37681860e-01 3.44029337e-01 3.16627711e-01
      3.43676865e-01 2.91573912e-01 3.44029337e-01 3.44029337e-01
      3.18433106e-01 3.44029337e-01 3.44029337e-01 3.32778692e-01
      3.32778692e-01 3.32778692e-01 3.32778692e-01 3.32778692e-01
      3.32778692e-01 3.32778692e-01 3.32778692e-01 3.32778692e-01
      3.47420067e-01 2.87472755e-01 3.47420067e-01 3.47420067e-01
      3.47420067e-01 3.47420067e-01 3.47420067e-01 2.62646943e-01
      3.47420067e-01 2.49264747e-01 3.53083223e-01 3.53083223e-01
      3.53083223e-01 3.53083223e-01 3.53083223e-01 3.53083223e-01
      3.53083223e-01 2.48324275e-01 3.48367274e-01 3.48367274e-01
      3.48367274e-01 3.48367274e-01 3.48367274e-01 2.63817400e-01
      2.78211176e-01 3.48367274e-01 3.48367274e-01 3.48403305e-01
      3.48403305e-01 3.48403305e-01 2.79223472e-01 2.97150463e-01
      3.48403305e-01 3.48403305e-01 3.48403305e-01 3.19289416e-01
      3.37154359e-01 3.37154359e-01 3.37154359e-01 2.96244234e-01
      3.37154359e-01 3.37154359e-01 3.36391717e-01 3.37154359e-01
      3.37154359e-01</_>
    <_>
      4.51923430e-01 1.07251957e-01 3.21755886e-01 0. 0. 0.
      4.74349082e-01 1.58116356e-01 4.51923430e-01 4.17442471e-01
      1.87154517e-01 2.19578162e-01 2.01682314e-01 5.68671942e-01
      2.68143088e-01 2.89591193e-01 2.17442751e-01 4.01299417e-01
      4.26976919e-01 3.71517926e-01 1.59183487e-01 1.31809667e-01
      4.26976919e-01 4.26976919e-01 4.03539270e-01 2.11031288e-01
      2.46353567e-01 4.13553089e-01 4.13553089e-01 4.13553089e-01
      1.68411732e-01 6.00354150e-02 1.06925815e-01 3.30727220e-01
      3.98727447e-01 4.13553089e-01 5.42608559e-01 1.85532376e-01
      2.56244600e-01 7.69590810e-02 1.46177888e-01 4.01256941e-02
      2.16765031e-01 4.79334801e-01 5.42608559e-01 3.77944440e-01
      3.60934198e-01 2.53788173e-01 1.36635303e-01 3.23767275e-01
      3.26618761e-01 3.77944440e-01 3.77944440e-01 3.77944440e-01
      3.39488268e-01 3.39488268e-01 3.39488268e-01 3.39488268e-01
      2.73255944e-01 3.39488268e-01 3.39371860e-01 3.39488268e-01
      3.39488268e-01 3.49238664e-01 2.95653015e-01 3.49238664e-01
      2.35215649e-01 3.49238664e-01 3.49238664e-01 3.49238664e-01
      3.49238664e-01 3.49238664e-01 3.46353710e-01 3.46353710e-01
      3.46353710e-01 3.22518140e-01 3.46353710e-01 3.46353710e-01
      2.29772002e-01 3.46353710e-01 3.46353710e-01 3.53283584e-01
      3.14712703e-01 1.54147163e-01 3.53283584e-01 3.53283584e-01
      3.53283584e-01 3.53283584e-01 3.53283584e-01 3.53283584e-01
      3.43712449e-01 3.32951665e-01 3.43712449e-01 3.43712449e-01
      3.43712449e-01 3.43712449e-01 2.42366239e-01 3.43712449e-01
      3.43712449e-01 3.39064091e-01 3.39064091e-01 3.39064091e-01
      3.39064091e-01 2.77302474e-01 3.39064091e-01 3.39064091e-01
      3.39064091e-01 3.39064091e-01 3.46309394e-01 3.46309394e-01
      3.46309394e-01 3.46309394e-01 2.58541256e-01 3.00308168e-01
      3.46309394e-01 3.46309394e-01 3.46309394e-01 3.32778692e-01
      3.32778692e-01 3.32778692e-01 3.32778692e-01 3.32778692e-01
      3.32778692e-01 3.32778692e-01 3.32778692e-01 3.32778692e-01
      3.50930750e-01 2.81319588e-01 2.70274669e-01 3.50930750e-01
      3.24638784e-01 3.50930750e-01 3.50930750e-01 3.50930750e-01
      3.50930750e-01 3.32778692e-01 3.32778692e-01 3.32778692e-01
      3.32778692e-01 3.32778692e-01 3.32778692e-01 3.32778692e-01
      3.32778692e-01 3.32778692e-01 3.37149322e-01 3.37149322e-01
      3.37149322e-01 3.37149322e-01 2.95421809e-01 3.37149322e-01
      3.37149322e-01 3.37149322e-01 3.37149322e-01 3.41694862e-01
      3.41694862e-01 3.41694862e-01 3.41694862e-01 3.41694862e-01
      3.41694862e-01 3.41694862e-01 2.82543689e-01 3.15384418e-01
      3.53711843e-01 2.33389571e-01 3.31706405e-01 3.17959338e-01
      3.53711843e-01 3.53711843e-01 3.53711843e-01 3.24511409e-01
      3.53711843e-01 3.58589858e-01 3.58589858e-01 3.58589858e-01
      3.58589858e-01 2.14175493e-01 2.24587217e-01 3.58589858e-01
      3.58589858e-01 3.58589858e-01 3.42427522e-01 3.42427522e-01
      3.42427522e-01 3.42427522e-01 3.42427522e-01 3.42427522e-01
      2.41920993e-01 3.42427522e-01 3.42427522e-01 2.52947509e-01
      3.09105188e-01 1.88154802e-01 3.27364862e-01 2.99611688e-01
      3.88668120e-01 3.88668120e-01 3.88668120e-01 3.88668120e-01
      3.52042168e-01 3.52042168e-01 3.52042168e-01 3.52042168e-01
      3.52042168e-01 3.52042168e-01 3.52042168e-01 2.45668054e-01
      2.61905044e-01 1.91405356e-01 3.66029948e-01 3.66029948e-01
      3.66029948e-01 3.66029948e-01 3.66029948e-01 3.66029948e-01
      3.02846611e-01 2.53225952e-01</_>
    <_>
      4.44693804e-01 4.44693804e-01 3.59209776e-01 2.64734030e-01
      1.85758278e-01 9.62539390e-02 1.19173259e-01 3.81065875e-01
      4.44693804e-01 4.37567383e-01 2.95646250e-01 2.42132887e-01
      3.17858517e-01 2.34174699e-01 1.33058757e-01 3.18782002e-01
      4.37567383e-01 4.37567383e-01 5.47821879e-01 5.47821879e-01
      9.85877737e-02 5.72672598e-02 8.09723958e-02 9.07851234e-02
      8.04489926e-02 2.44812697e-01 5.47821879e-01 4.94514048e-01
      3.29657614e-01 1.02269471e-01 1.85934901e-01 2.78377175e-01
      3.05361569e-01 1.34981319e-01 4.04114068e-01 4.94514048e-01
      4.43192244e-01 4.43192244e-01 1.32767811e-01 2.00058967e-01
      2.54114658e-01 2.20399976e-01 1.97722659e-01 4.43192244e-01
      4.43192244e-01 4.07917023e-01 4.07917023e-01 2.57252067e-01
      6.75348565e-02 1.02419563e-01 2.87600398e-01 4.07917023e-01
      4.07917023e-01 4.07917023e-01 3.44167262e-01 3.44167262e-01
      3.44167262e-01 3.44167262e-01 2.21251979e-01 3.44167262e-01
      3.44167262e-01 3.44167262e-01 3.44167262e-01 3.37274611e-01
      3.37274611e-01 3.37274611e-01 2.94273317e-01 3.37274611e-01
      3.37274611e-01 3.37274611e-01 3.37274611e-01 3.37274611e-01
      3.49562198e-01 3.49562198e-01 2.90965080e-01 3.49562198e-01
      3.49562198e-01 3.49562198e-01 3.49562198e-01 2.37677693e-01
      3.49562198e-01 4.15358365e-01 1.74214125e-01 3.92019749e-01
      4.15358365e-01 4.15358365e-01 2.37165436e-01 9.69084948e-02
      2.36836925e-01 4.15358365e-01 3.60425264e-01 2.80070454e-01
      3.60425264e-01 3.60425264e-01 3.60425264e-01 2.06281841e-01
      3.09789062e-01 3.60425264e-01 3.60425264e-01 3.32778692e-01
      3.32778692e-01 3.32778692e-01 3.32778692e-01 3.32778692e-01
      3.32778692e-01 3.32778692e-01 3.32778692e-01 3.32778692e-01
      3.42662394e-01 3.42662394e-01 3.11329246e-01 2.79695183e-01
      3.42662394e-01 3.42662394e-01 3.42662394e-01 3.42662394e-01
      3.41929555e-01 2.37077564e-01 2.62021571e-01 3.64830077e-01
      3.64830077e-01 3.64830077e-01 2.69977868e-01 3.64830077e-01
      3.64830077e-01 3.64830077e-01 2.30122551e-01 3.81922692e-01
      3.81922692e-01 3.81922692e-01 3.05464894e-01 3.81922692e-01
      3.81922692e-01 3.27576697e-01 1.15273766e-01 3.32778692e-01
      3.32778692e-01 3.32778692e-01 3.32778692e-01 3.32778692e-01
      3.32778692e-01 3.32778692e-01 3.32778692e-01 3.32778692e-01
      3.49624693e-01 3.49624693e-01 3.24056625e-01 1.89294264e-01
      3.49624693e-01 3.49624693e-01 3.49624693e-01 3.49624693e-01
      3.49624693e-01 3.32778692e-01 3.32778692e-01 3.32778692e-01
      3.32778692e-01 3.32778692e-01 3.32778692e-01 3.32778692e-01
      3.32778692e-01 3.32778692e-01 3.43771428e-01 3.43771428e-01
      2.26130277e-01 3.43771428e-01 3.43771428e-01 3.43771428e-01
      3.43771428e-01 3.43771428e-01 3.43771428e-01 3.32778692e-01
      3.32778692e-01 3.32778692e-01 3.32778692e-01 3.32778692e-01
      3.32778692e-01 3.32778692e-01 3.32778692e-01 3.32778692e-01
      3.34473699e-01 3.18868220e-01 3.34473699e-01 3.34473699e-01
      3.34473699e-01 3.34473699e-01 3.34473699e-01 3.34473699e-01
      3.34473699e-01 3.45909446e-01 2.70617664e-01 2.92808056e-01
      3.45909446e-01 3.45909446e-01 3.45909446e-01 3.45909446e-01
      3.45909446e-01 3.45909446e-01 3.49528432e-01 3.49528432e-01
      3.49528432e-01 3.49528432e-01 3.49528432e-01 3.49528432e-01
      3.49528432e-01 2.83224970e-01 2.47185081e-01 3.32778692e-01
      3.32778692e-01 3.32778692e-01 3.32778692e-01 3.32778692e-01
      3.32778692e-01 3.32778692e-01 3.32778692e-01 3.32778692e-01</_>
    <_>
      3.44167262e-01 3.44167262e-01 3.44167262e-01 3.44167262e-01
      2.21251979e-01 3.44167262e-01 3.44167262e-01 3.44167262e-01
      3.44167262e-01 3.37274611e-01 3.37274611e-01 3.37274611e-01
      2.94273317e-01 3.37274611e-01 3.37274611e-01 3.37274611e-01
      3.37274611e-01 3.37274611e-01 3.49562198e-01 3.49562198e-01
      2.90965080e-01 3.49562198e-01 3.49562198e-01 3.49562198e-01
      3.49562198e-01 2.37677693e-01 3.49562198e-01 4.15358365e-01
      1.74214125e-01 3.92019749e-01 4.15358365e-01 4.15358365e-01
      2.37165436e-01 9.69084948e-02 2.36836925e-01 4.15358365e-01
      3.60425264e-01 2.80070454e-01 3.60425264e-01 3.60425264e-01
      3.60425264e-01 2.06281841e-01 3.09789062e-01 3.60425264e-01
      3.60425264e-01 3.32778692e-01 3.32778692e-01 3.32778692e-01
      3.32778692e-01 3.32778692e-01 3.32778692e-01 3.32778692e-01
      3.32778692e-01 3.32778692e-01 3.42662394e-01 3.42662394e-01
      3.11329246e-01 2.79695183e-01 3.42662394e-01 3.42662394e-01
      3.42662394e-01 3.42662394e-01 3.41929555e-01 2.37077564e-01
      2.62021571e-01 3.64830077e-01 3.64830077e-01 3.64830077e-01
      2.69977868e-01 3.64830077e-01 3.64830077e-01 3.64830077e-01
      2.30122551e-01 3.81922692e-01 3.81922692e-01 3.81922692e-01
      3.05464894e-01 3.81922692e-01 3.81922692e-01 3.27576697e-01
      1.15273766e-01 3.32778692e-01 3.32778692e-01 3.32778692e-01
      3.32778692e-01 3.32778692e-01 3.32778692e-01 3.32778692e-01
      3.32778692e-01 3.32778692e-01 3.49624693e-01 3.49624693e-01
      3.24056625e-01 1.89294264e-01 3.49624693e-01 3.49624693e-01
      3.49624693e-01 3.49624693e-01 3.49624693e-01 3.32778692e-01
      3.32778692e-01 3.32778692e-01 3.32778692e-01 3.32778692e-01
      3.32778692e-01 3.32778692e-01 3.32778692e-01 3.32778692e-01
      3.43771428e-01 3.43771428e-01 2.26130277e-01 3.43771428e-01
      3.43771428e-01 3.43771428e-01 3.43771428e-01 3.43771428e-01
      3.43771428e-01 3.32778692e-01 3.32778692e-01 3.32778692e-01
      3.32778692e-01 3.32778692e-01 3.32778692e-01 3.32778692e-01
      3.32778692e-01 3.32778692e-01 3.34473699e-01 3.18868220e-01
      3.34473699e-01 3.34473699e-01 3.34473699e-01 3.34473699e-01
      3.34473699e-01 3.34473699e-01 3.34473699e-01 3.45909446e-01
      2.70617664e-01 2.92808056e-01 3.45909446e-01 3.45909446e-01
      3.45909446e-01 3.45909446e-01 3.45909446e-01 3.45909446e-01
      3.49528432e-01 3.49528432e-01 3.49528432e-01 3.49528432e-01
      3.49528432e-01 3.49528432e-01 3.49528432e-01 2.83224970e-01
      2.47185081e-01 3.32778692e-01 3.32778692e-01 3.32778692e-01
      3.32778692e-01 3.32778692e-01 3.32778692e-01 3.32778692e-01
      3.32778692e-01 3.32778692e-01 3.40385318e-01 3.40385318e-01
      3.40385318e-01 2.85941124e-01 3.22182387e-01 3.40385318e-01
      3.40385318e-01 3.40385318e-01 3.40385318e-01 3.35732430e-01
      2.67121792e-01 3.40697974e-01 3.40697974e-01 3.40697974e-01
      3.40697974e-01 3.40697974e-01 3.40697974e-01 3.40697974e-01
      3.92531455e-01 2.99951047e-01 3.18399131e-01 3.92531455e-01
      3.92531455e-01 3.92531455e-01 2.29886413e-01 2.13406354e-01
      3.00026774e-01 3.79471719e-01 2.15335369e-01 1.79271460e-01
      2.81245232e-01 3.79471719e-01 3.79471719e-01 3.44395906e-01
      3.79471719e-01 3.79471719e-01 3.44313353e-01 3.44313353e-01
      3.44313353e-01 3.44313353e-01 3.44313353e-01 2.92337835e-01
      3.44313353e-01 2.85020769e-01 3.44313353e-01 3.37851733e-01
      2.88918853e-01 3.37851733e-01 3.37851733e-01 3.37851733e-01
      3.37851733e-01 3.37851733e-01 3.37851733e-01 3.37851733e-01</_>
    <_>
      3.32778692e-01 3.32778692e-01 3.32778692e-01 3.32778692e-01
      3.32778692e-01 3.32778692e-01 3.32778692e-01 3.32778692e-01
      3.32778692e-01 3.38588744e-01 3.38588744e-01 3.38588744e-01
      2.81919152e-01 3.38588744e-01 3.38588744e-01 3.38588744e-01
      3.38588744e-01 3.38588744e-01 3.66577715e-01 3.66577715e-01
      3.66577715e-01 3.66577715e-01 3.66577715e-01 1.83999971e-01
      2.83989161e-01 2.74875402e-01 3.66577715e-01 3.58780414e-01
      2.29062870e-01 2.07079694e-01 3.58780414e-01 3.58780414e-01
      3.58780414e-01 3.58780414e-01 3.58780414e-01 3.58780414e-01
      3.37380469e-01 3.37380469e-01 3.37380469e-01 3.37380469e-01
      3.37380469e-01 2.93299466e-01 3.37380469e-01 3.37380469e-01
      3.37380469e-01 3.59445065e-01 2.82797962e-01 2.08614662e-01
      3.59445065e-01 3.59445065e-01 3.59445065e-01 3.12585354e-01
      3.59445065e-01 3.59445065e-01 3.57344061e-01 3.57344061e-01
      3.57344061e-01 2.00685531e-01 3.57344061e-01 3.57344061e-01
      3.57344061e-01 2.49583200e-01 3.57344061e-01 3.45788121e-01
      3.45788121e-01 3.45788121e-01 1.99974194e-01 3.45788121e-01
      3.45788121e-01 3.45788121e-01 3.45788121e-01 3.45788121e-01
      4.99819249e-01 2.40693629e-01 4.48789336e-02 1.87334016e-01
      4.99819249e-01 4.99819249e-01 1.73643157e-01 5.68388142e-02
      3.42236847e-01 4.24825400e-01 1.39090031e-01 2.27471650e-01
      4.78639603e-01 4.78639603e-01 2.23744288e-01 6.77298084e-02
      1.62845224e-01 4.51989174e-01 2.95094341e-01 1.91578984e-01
      3.59826416e-01 3.59826416e-01 3.59826416e-01 3.09469551e-01
      3.59826416e-01 3.59826416e-01 3.59826416e-01 3.36432427e-01
      3.36432427e-01 3.36432427e-01 3.36432427e-01 3.36432427e-01
      3.36432427e-01 3.01901370e-01 3.36432427e-01 3.36432427e-01
      3.32778692e-01 3.32778692e-01 3.32778692e-01 3.32778692e-01
      3.32778692e-01 3.32778692e-01 3.32778692e-01 3.32778692e-01
      3.32778692e-01 2.41371527e-01 1.89348415e-01 3.67054790e-01
      3.67054790e-01 3.06340307e-01 3.67054790e-01 3.67054790e-01
      3.67054790e-01 3.67054790e-01 4.91755962e-01 1.10453047e-01
      1.58942834e-01 2.50583380e-01 1.87121838e-01 1.72840595e-01
      3.23223591e-01 4.91755962e-01 4.91755962e-01 3.59391034e-01
      3.59391034e-01 3.38113755e-01 2.98460871e-01 2.69661993e-01
      2.76566803e-01 3.59391034e-01 3.56588095e-01 3.59391034e-01
      3.40279341e-01 3.90215486e-01 3.46865326e-01 1.16206929e-01
      3.43290001e-01 3.90215486e-01 3.90215486e-01 3.90215486e-01
      1.39897555e-01 3.03341538e-01 3.54695916e-01 3.54695916e-01
      3.54695916e-01 2.92756349e-01 3.27338129e-01 3.54695916e-01
      3.54695916e-01 2.87293524e-01 3.47475827e-01 3.47475827e-01
      2.50972003e-01 3.47475827e-01 3.47475827e-01 3.47475827e-01
      3.47475827e-01 3.28898191e-01 3.17695886e-01 3.42010230e-01
      3.42010230e-01 3.42010230e-01 2.46606544e-01 3.42010230e-01
      3.42010230e-01 3.42010230e-01 3.42010230e-01 3.42010230e-01
      3.43495250e-01 3.43495250e-01 2.82361627e-01 3.43495250e-01
      3.43495250e-01 3.43495250e-01 3.43495250e-01 3.01524520e-01
      3.43495250e-01 3.49052221e-01 3.49052221e-01 3.20833415e-01
      3.49052221e-01 3.49052221e-01 2.99643189e-01 2.69754827e-01
      3.49052221e-01 3.49052221e-01 3.56021315e-01 3.56021315e-01
      2.04107359e-01 2.59855509e-01 3.56021315e-01 3.56021315e-01
      3.56021315e-01 3.56021315e-01 3.56021315e-01 3.55525643e-01
      1.03714235e-01 3.17650437e-01 3.55525643e-01 3.55525643e-01
      3.55525643e-01 3.55525643e-01 3.55525643e-01 3.55525643e-01</_>
    <_>
      3.38588744e-01 3.38588744e-01 3.38588744e-01 2.81919152e-01
      3.38588744e-01 3.38588744e-01 3.38588744e-01 3.38588744e-01
      3.38588744e-01 3.66577715e-01 3.66577715e-01 3.66577715e-01
      3.66577715e-01 3.66577715e-01 1.83999971e-01 2.83989161e-01
      2.74875402e-01 3.66577715e-01 3.58780414e-01 2.29062870e-01
      2.07079694e-01 3.58780414e-01 3.58780414e-01 3.58780414e-01
      3.58780414e-01 3.58780414e-01 3.58780414e-01 3.37380469e-01
      3.37380469e-01 3.37380469e-01 3.37380469e-01 3.37380469e-01
      2.93299466e-01 3.37380469e-01 3.37380469e-01 3.37380469e-01
      3.59445065e-01 2.82797962e-01 2.08614662e-01 3.59445065e-01
      3.59445065e-01 3.59445065e-01 3.12585354e-01 3.59445065e-01
      3.59445065e-01 3.36600542e-01 3.36600542e-01 3.36600542e-01
      3.36600542e-01 3.36600542e-01 3.00395548e-01 3.36600542e-01
      3.36600542e-01 3.36600542e-01 3.45788121e-01 3.45788121e-01
      3.45788121e-01 1.99974194e-01 3.45788121e-01 3.45788121e-01
      3.45788121e-01 3.45788121e-01 3.45788121e-01 4.99819249e-01
      2.40693629e-01 4.48789336e-02 1.87334016e-01 4.99819249e-01
      4.99819249e-01 1.73643157e-01 5.68388142e-02 3.42236847e-01
      4.24825400e-01 1.39090031e-01 2.27471650e-01 4.78639603e-01
      4.78639603e-01 2.23744288e-01 6.77298084e-02 1.62845224e-01
      4.51989174e-01 2.95094341e-01 1.91578984e-01 3.59826416e-01
      3.59826416e-01 3.59826416e-01 3.09469551e-01 3.59826416e-01
      3.59826416e-01 3.59826416e-01 3.36432427e-01 3.36432427e-01
      3.36432427e-01 3.36432427e-01 3.36432427e-01 3.36432427e-01
      3.01901370e-01 3.36432427e-01 3.36432427e-01 3.60685706e-01
      3.60685706e-01 3.40368450e-01 2.76044577e-01 3.60685706e-01
      3.60685706e-01 2.36688852e-01 3.12814146e-01 3.60685706e-01
      2.41371527e-01 1.89348415e-01 3.67054790e-01 3.67054790e-01
      3.06340307e-01 3.67054790e-01 3.67054790e-01 3.67054790e-01
      3.67054790e-01 4.91755962e-01 1.10453047e-01 1.58942834e-01
      2.50583380e-01 1.87121838e-01 1.72840595e-01 3.23223591e-01
      4.91755962e-01 4.91755962e-01 3.59391034e-01 3.59391034e-01
      3.38113755e-01 2.98460871e-01 2.69661993e-01 2.76566803e-01
      3.59391034e-01 3.56588095e-01 3.59391034e-01 3.40279341e-01
      3.90215486e-01 3.46865326e-01 1.16206929e-01 3.43290001e-01
      3.90215486e-01 3.90215486e-01 3.90215486e-01 1.39897555e-01
      3.03341538e-01 3.54695916e-01 3.54695916e-01 3.54695916e-01
      2.92756349e-01 3.27338129e-01 3.54695916e-01 3.54695916e-01
      2.87293524e-01 3.39117408e-01 3.39117408e-01 3.39117408e-01
      3.39117408e-01 3.13267052e-01 3.05730790e-01 3.39117408e-01
      3.39117408e-01 3.39117408e-01 3.42010230e-01 3.42010230e-01
      3.42010230e-01 2.46606544e-01 3.42010230e-01 3.42010230e-01
      3.42010230e-01 3.42010230e-01 3.42010230e-01 3.43495250e-01
      3.43495250e-01 2.82361627e-01 3.43495250e-01 3.43495250e-01
      3.43495250e-01 3.43495250e-01 3.01524520e-01 3.43495250e-01
      3.49052221e-01 3.49052221e-01 3.20833415e-01 3.49052221e-01
      3.49052221e-01 2.99643189e-01 2.69754827e-01 3.49052221e-01
      3.49052221e-01 3.56021315e-01 3.56021315e-01 2.04107359e-01
      2.59855509e-01 3.56021315e-01 3.56021315e-01 3.56021315e-01
      3.56021315e-01 3.56021315e-01 3.55525643e-01 1.03714235e-01
      3.17650437e-01 3.55525643e-01 3.55525643e-01 3.55525643e-01
      3.55525643e-01 3.55525643e-01 3.55525643e-01 3.47267359e-01
      3.47267359e-01 2.97449023e-01 3.47267359e-01 3.47267359e-01
      3.47267359e-01 2.52769083e-01 3.47267359e-01 3.47267359e-01</_>
    <_>
      3.36600542e-01 3.36600542e-01 3.36600542e-01 3.36600542e-01
      3.36600542e-01 3.00395548e-01 3.36600542e-01 3.36600542e-01
      3.36600542e-01 3.59664112e-01 3.59664112e-01 3.59664112e-01
      3.59664112e-01 3.59664112e-01 3.59664112e-01 3.59664112e-01
      1.37926325e-01 2.68094957e-01 3.32778692e-01 3.32778692e-01
      3.32778692e-01 3.32778692e-01 3.32778692e-01 3.32778692e-01
      3.32778692e-01 3.32778692e-01 3.32778692e-01 3.46562207e-01
      3.46562207e-01 3.46562207e-01 3.46562207e-01 3.46562207e-01
      3.21419269e-01 2.29106173e-01 3.46562207e-01 3.46562207e-01
      3.25471699e-01 3.25499892e-01 3.59133393e-01 3.65191966e-01
      3.65191966e-01 2.74431974e-01 2.16146305e-01 3.65191966e-01
      3.65191966e-01 3.39598894e-01 3.39598894e-01 2.72006720e-01
      3.39598894e-01 3.39598894e-01 3.39598894e-01 3.39598894e-01
      3.39598894e-01 3.39598894e-01 3.60685706e-01 3.60685706e-01
      3.40368450e-01 2.76044577e-01 3.60685706e-01 3.60685706e-01
      2.36688852e-01 3.12814146e-01 3.60685706e-01 3.62632781e-01
      2.14477286e-01 2.54868448e-01 3.10488969e-01 3.62632781e-01
      3.62632781e-01 3.62632781e-01 3.62632781e-01 3.62632781e-01
      3.38210225e-01 3.38210225e-01 3.38210225e-01 3.38210225e-01
      3.38210225e-01 3.03883851e-01 3.21826369e-01 3.38210225e-01
      3.38210225e-01 3.32778692e-01 3.32778692e-01 3.32778692e-01
      3.32778692e-01 3.32778692e-01 3.32778692e-01 3.32778692e-01
      3.32778692e-01 3.32778692e-01 3.32778692e-01 3.32778692e-01
      3.32778692e-01 3.32778692e-01 3.32778692e-01 3.32778692e-01
      3.32778692e-01 3.32778692e-01 3.32778692e-01 3.37271512e-01
      3.79461735e-01 3.79461735e-01 3.79461735e-01 1.35706991e-01
      3.43215346e-01 3.79461735e-01 3.79461735e-01 1.62134454e-01
      3.39117408e-01 3.39117408e-01 3.39117408e-01 3.39117408e-01
      3.13267052e-01 3.05730790e-01 3.39117408e-01 3.39117408e-01
      3.39117408e-01 3.13439876e-01 3.51461500e-01 3.51461500e-01
      3.51461500e-01 3.51461500e-01 2.43786186e-01 3.12508017e-01
      3.51461500e-01 3.51461500e-01 3.54110628e-01 3.54110628e-01
      2.53969908e-01 2.89933324e-01 3.54110628e-01 3.54110628e-01
      3.54110628e-01 3.35655183e-01 3.29034716e-01 3.32778692e-01
      3.32778692e-01 3.32778692e-01 3.32778692e-01 3.32778692e-01
      3.32778692e-01 3.32778692e-01 3.32778692e-01 3.32778692e-01
      3.40685159e-01 2.82758683e-01 3.40685159e-01 3.40685159e-01
      3.40685159e-01 3.40685159e-01 3.22767615e-01 3.40685159e-01
      3.40685159e-01 3.68019998e-01 3.68019998e-01 3.68019998e-01
      3.03020954e-01 2.30516598e-01 2.91319966e-01 3.68019998e-01
      3.68019998e-01 2.98835546e-01 3.47267359e-01 3.47267359e-01
      2.97449023e-01 3.47267359e-01 3.47267359e-01 3.47267359e-01
      2.52769083e-01 3.47267359e-01 3.47267359e-01 3.39352012e-01
      2.74464935e-01 3.39352012e-01 3.39352012e-01 3.39352012e-01
      3.39352012e-01 3.39352012e-01 3.39352012e-01 3.39352012e-01
      3.22955310e-01 3.40475112e-01 2.47859225e-01 3.56586993e-01
      3.56586993e-01 2.81084180e-01 3.56586993e-01 3.56586993e-01
      3.56586993e-01 3.24456155e-01 3.33802521e-01 3.33802521e-01
      3.33802521e-01 3.33802521e-01 3.33802521e-01 3.33802521e-01
      3.33802521e-01 3.33802521e-01 3.51550698e-01 3.39315891e-01
      3.51550698e-01 3.51550698e-01 3.51550698e-01 2.54933804e-01
      2.73557156e-01 3.51550698e-01 3.51550698e-01 3.32778692e-01
      3.32778692e-01 3.32778692e-01 3.32778692e-01 3.32778692e-01
      3.32778692e-01 3.32778692e-01 3.32778692e-01 3.32778692e-01</_>
    <_>
      3.57344061e-01 3.57344061e-01 3.57344061e-01 2.00685531e-01
      3.57344061e-01 3.57344061e-01 3.57344061e-01 2.49583200e-01
      3.57344061e-01 3.45788121e-01 3.45788121e-01 3.45788121e-01
      1.99974194e-01 3.45788121e-01 3.45788121e-01 3.45788121e-01
      3.45788121e-01 3.45788121e-01 4.99819249e-01 2.40693629e-01
      4.48789336e-02 1.87334016e-01 4.99819249e-01 4.99819249e-01
      1.73643157e-01 5.68388142e-02 3.42236847e-01 4.24825400e-01
      1.39090031e-01 2.27471650e-01 4.78639603e-01 4.78639603e-01
      2.23744288e-01 6.77298084e-02 1.62845224e-01 4.51989174e-01
      2.95094341e-01 1.91578984e-01 3.59826416e-01 3.59826416e-01
      3.59826416e-01 3.09469551e-01 3.59826416e-01 3.59826416e-01
      3.59826416e-01 3.36432427e-01 3.36432427e-01 3.36432427e-01
      3.36432427e-01 3.36432427e-01 3.36432427e-01 3.01901370e-01
      3.36432427e-01 3.36432427e-01 3.32778692e-01 3.32778692e-01
      3.32778692e-01 3.32778692e-01 3.32778692e-01 3.32778692e-01
      3.32778692e-01 3.32778692e-01 3.32778692e-01 2.41371527e-01
      1.89348415e-01 3.67054790e-01 3.67054790e-01 3.06340307e-01
      3.67054790e-01 3.67054790e-01 3.67054790e-01 3.67054790e-01
      4.91755962e-01 1.10453047e-01 1.58942834e-01 2.50583380e-01
      1.87121838e-01 1.72840595e-01 3.23223591e-01 4.91755962e-01
      4.91755962e-01 3.59391034e-01 3.59391034e-01 3.38113755e-01
      2.98460871e-01 2.69661993e-01 2.76566803e-01 3.59391034e-01
      3.56588095e-01 3.59391034e-01 3.40279341e-01 3.90215486e-01
      3.46865326e-01 1.16206929e-01 3.43290001e-01 3.90215486e-01
      3.90215486e-01 3.90215486e-01 1.39897555e-01 3.03341538e-01
      3.54695916e-01 3.54695916e-01 3.54695916e-01 2.92756349e-01
      3.27338129e-01 3.54695916e-01 3.54695916e-01 2.87293524e-01
      3.47475827e-01 3.47475827e-01 2.50972003e-01 3.47475827e-01
      3.47475827e-01 3.47475827e-01 3.47475827e-01 3.28898191e-01
      3.17695886e-01 3.42010230e-01 3.42010230e-01 3.42010230e-01
      2.46606544e-01 3.42010230e-01 3.42010230e-01 3.42010230e-01
      3.42010230e-01 3.42010230e-01 3.43495250e-01 3.43495250e-01
      2.82361627e-01 3.43495250e-01 3.43495250e-01 3.43495250e-01
      3.43495250e-01 3.01524520e-01 3.43495250e-01 3.49052221e-01
      3.49052221e-01 3.20833415e-01 3.49052221e-01 3.49052221e-01
      2.99643189e-01 2.69754827e-01 3.49052221e-01 3.49052221e-01
      3.56021315e-01 3.56021315e-01 2.04107359e-01 2.59855509e-01
      3.56021315e-01 3.56021315e-01 3.56021315e-01 3.56021315e-01
      3.56021315e-01 3.55525643e-01 1.03714235e-01 3.17650437e-01
      3.55525643e-01 3.55525643e-01 3.55525643e-01 3.55525643e-01
      3.55525643e-01 3.55525643e-01 3.32778692e-01 3.32778692e-01
      3.32778692e-01 3.32778692e-01 3.32778692e-01 3.32778692e-01
      3.32778692e-01 3.32778692e-01 3.32778692e-01 2.53849834e-01
      3.64336491e-01 3.64336491e-01 3.64336491e-01 3.64336491e-01
      2.97230601e-01 2.42176875e-01 3.48165631e-01 3.64336491e-01
      3.54580730e-01 3.54580730e-01 3.54580730e-01 3.54580730e-01
      1.80029660e-01 2.89748341e-01 3.54580730e-01 3.54580730e-01
      3.54580730e-01 3.40506792e-01 3.40506792e-01 3.40506792e-01
      3.40506792e-01 3.40506792e-01 3.40506792e-01 3.40506792e-01
      2.62752175e-01 3.40506792e-01 3.46066862e-01 3.46066862e-01
      3.46066862e-01 3.46066862e-01 2.41856217e-01 3.46066862e-01
      3.46066862e-01 3.46066862e-01 3.15771878e-01 3.44683290e-01
      3.44683290e-01 3.44683290e-01 3.44683290e-01 3.44683290e-01
      2.14717552e-01 3.44683290e-01 3.44683290e-01 3.44683290e-01</_>
    <_>
      3.45788121e-01 3.45788121e-01 3.45788121e-01 1.99974194e-01
      3.45788121e-01 3.45788121e-01 3.45788121e-01 3.45788121e-01
      3.45788121e-01 4.99819249e-01 2.40693629e-01 4.48789336e-02
      1.87334016e-01 4.99819249e-01 4.99819249e-01 1.73643157e-01
      5.68388142e-02 3.42236847e-01 4.24825400e-01 1.39090031e-01
      2.27471650e-01 4.78639603e-01 4.78639603e-01 2.23744288e-01
      6.77298084e-02 1.62845224e-01 4.51989174e-01 2.95094341e-01
      1.91578984e-01 3.59826416e-01 3.59826416e-01 3.59826416e-01
      3.09469551e-01 3.59826416e-01 3.59826416e-01 3.59826416e-01
      3.36432427e-01 3.36432427e-01 3.36432427e-01 3.36432427e-01
      3.36432427e-01 3.36432427e-01 3.01901370e-01 3.36432427e-01
      3.36432427e-01 3.60685706e-01 3.60685706e-01 3.40368450e-01
      2.76044577e-01 3.60685706e-01 3.60685706e-01 2.36688852e-01
      3.12814146e-01 3.60685706e-01 2.41371527e-01 1.89348415e-01
      3.67054790e-01 3.67054790e-01 3.06340307e-01 3.67054790e-01
      3.67054790e-01 3.67054790e-01 3.67054790e-01 4.91755962e-01
      1.10453047e-01 1.58942834e-01 2.50583380e-01 1.87121838e-01
      1.72840595e-01 3.23223591e-01 4.91755962e-01 4.91755962e-01
      3.59391034e-01 3.59391034e-01 3.38113755e-01 2.98460871e-01
      2.69661993e-01 2.76566803e-01 3.59391034e-01 3.56588095e-01
      3.59391034e-01 3.40279341e-01 3.90215486e-01 3.46865326e-01
      1.16206929e-01 3.43290001e-01 3.90215486e-01 3.90215486e-01
      3.90215486e-01 1.39897555e-01 3.03341538e-01 3.54695916e-01
      3.54695916e-01 3.54695916e-01 2.92756349e-01 3.27338129e-01
      3.54695916e-01 3.54695916e-01 2.87293524e-01 3.39117408e-01
      3.39117408e-01 3.39117408e-01 3.39117408e-01 3.13267052e-01
      3.05730790e-01 3.39117408e-01 3.39117408e-01 3.39117408e-01
      3.42010230e-01 3.42010230e-01 3.42010230e-01 2.46606544e-01
      3.42010230e-01 3.42010230e-01 3.42010230e-01 3.42010230e-01
      3.42010230e-01 3.43495250e-01 3.43495250e-01 2.82361627e-01
      3.43495250e-01 3.43495250e-01 3.43495250e-01 3.43495250e-01
      3.01524520e-01 3.43495250e-01 3.49052221e-01 3.49052221e-01
      3.20833415e-01 3.49052221e-01 3.49052221e-01 2.99643189e-01
      2.69754827e-01 3.49052221e-01 3.49052221e-01 3.56021315e-01
      3.56021315e-01 2.04107359e-01 2.59855509e-01 3.56021315e-01
      3.56021315e-01 3.56021315e-01 3.56021315e-01 3.56021315e-01
      3.55525643e-01 1.03714235e-01 3.17650437e-01 3.55525643e-01
      3.55525643e-01 3.55525643e-01 3.55525643e-01 3.55525643e-01
      3.55525643e-01 3.47267359e-01 3.47267359e-01 2.97449023e-01
      3.47267359e-01 3.47267359e-01 3.47267359e-01 2.52769083e-01
      3.47267359e-01 3.47267359e-01 2.53849834e-01 3.64336491e-01
      3.64336491e-01 3.64336491e-01 3.64336491e-01 2.97230601e-01
      2.42176875e-01 3.48165631e-01 3.64336491e-01 3.54580730e-01
      3.54580730e-01 3.54580730e-01 3.54580730e-01 1.80029660e-01
      2.89748341e-01 3.54580730e-01 3.54580730e-01 3.54580730e-01
      3.40506792e-01 3.40506792e-01 3.40506792e-01 3.40506792e-01
      3.40506792e-01 3.40506792e-01 3.40506792e-01 2.62752175e-01
      3.40506792e-01 3.46066862e-01 3.46066862e-01 3.46066862e-01
      3.46066862e-01 2.41856217e-01 3.46066862e-01 3.46066862e-01
      3.46066862e-01 3.15771878e-01 3.44683290e-01 3.44683290e-01
      3.44683290e-01 3.44683290e-01 3.44683290e-01 2.14717552e-01
      3.44683290e-01 3.44683290e-01 3.44683290e-01 3.19560379e-01
      3.34391266e-01 3.34391266e-01 3.34391266e-01 3.34391266e-01
      3.34391266e-01 3.34391266e-01 3.34391266e-01 3.34391266e-01</_>
    <_>
      3.21784586e-01 3.41369420e-01 3.41369420e-01 3.41369420e-01
      3.41369420e-01 3.41369420e-01 3.41369420e-01 3.41369420e-01
      2.78050900e-01 3.61351848e-01 3.61351848e-01 2.16208279e-01
      1.92348793e-01 3.59436870e-01 3.61351848e-01 3.61351848e-01
      3.61351848e-01 3.61351848e-01 3.42516541e-01 3.42516541e-01
      2.40908861e-01 3.42516541e-01 3.42516541e-01 3.42516541e-01
      3.42516541e-01 3.42516541e-01 3.42516541e-01 3.30849826e-01
      3.35859895e-01 3.35859895e-01 3.35859895e-01 3.25976878e-01
      3.22661519e-01 3.35859895e-01 3.35859895e-01 3.35859895e-01
      3.34959507e-01 3.34959507e-01 3.34959507e-01 3.34959507e-01
      3.34959507e-01 3.34959507e-01 3.14754128e-01 3.34959507e-01
      3.34959507e-01 3.32778692e-01 3.32778692e-01 3.32778692e-01
      3.32778692e-01 3.32778692e-01 3.32778692e-01 3.32778692e-01
      3.32778692e-01 3.32778692e-01 2.01069310e-01 3.74202579e-01
      3.74202579e-01 3.74202579e-01 2.67297387e-01 2.10283488e-01
      3.74202579e-01 3.74202579e-01 3.74202579e-01 3.32778692e-01
      3.32778692e-01 3.32778692e-01 3.32778692e-01 3.32778692e-01
      3.32778692e-01 3.32778692e-01 3.32778692e-01 3.32778692e-01
      3.60136062e-01 2.91849732e-01 2.89093763e-01 2.22401604e-01
      3.60136062e-01 3.60136062e-01 3.60136062e-01 3.60136062e-01
      3.60136062e-01 3.48026872e-01 3.37662160e-01 3.57734054e-01
      3.57734054e-01 3.57734054e-01 2.60372669e-01 2.31571332e-01
      3.57734054e-01 3.57734054e-01 3.55032057e-01 3.55032057e-01
      3.55032057e-01 2.71142811e-01 3.55032057e-01 2.01494664e-01
      3.55032057e-01 3.55032057e-01 3.55032057e-01 2.08473980e-01
      3.45161170e-01 3.45161170e-01 3.45161170e-01 3.45161170e-01
      3.45161170e-01 3.45161170e-01 3.45161170e-01 3.45161170e-01
      3.65717977e-01 3.65717977e-01 3.47995460e-01 2.18546763e-01
      3.60290319e-01 3.65717977e-01 3.65717977e-01 3.19484115e-01
      2.46180385e-01 3.61438543e-01 3.61438543e-01 3.61438543e-01
      3.51741195e-01 3.61438543e-01 3.61438543e-01 3.61438543e-01
      2.33543411e-01 1.85196564e-01 2.42494822e-01 3.59466404e-01
      3.59466404e-01 3.59466404e-01 3.59466404e-01 2.75826544e-01
      3.59466404e-01 3.59466404e-01 2.93646038e-01 3.53653699e-01
      3.53653699e-01 3.07327241e-01 1.62849665e-01 3.53653699e-01
      3.53653699e-01 3.53653699e-01 3.53653699e-01 3.53653699e-01
      3.50531667e-01 3.50531667e-01 3.30073386e-01 2.44215608e-01
      3.01120311e-01 3.50531667e-01 3.50531667e-01 3.50531667e-01
      3.50531667e-01 3.36934149e-01 3.36934149e-01 3.36934149e-01
      3.36934149e-01 3.36934149e-01 2.97382742e-01 3.36934149e-01
      3.36934149e-01 3.36934149e-01 3.51693839e-01 3.00046206e-01
      2.01590598e-01 3.51693839e-01 3.51693839e-01 3.51693839e-01
      3.51693839e-01 3.51693839e-01 3.51693839e-01 3.46704900e-01
      3.14121753e-01 3.46704900e-01 3.46704900e-01 3.23054671e-01
      2.68837422e-01 3.46704900e-01 3.46704900e-01 3.46704900e-01
      3.36352229e-01 3.36352229e-01 3.36352229e-01 3.36352229e-01
      3.15194428e-01 3.36352229e-01 3.36352229e-01 3.36352229e-01
      3.24595064e-01 3.65800112e-01 3.65800112e-01 3.65800112e-01
      2.59603262e-01 3.06427419e-01 3.65800112e-01 3.65800112e-01
      3.50027174e-01 2.08532989e-01 3.32778692e-01 3.32778692e-01
      3.32778692e-01 3.32778692e-01 3.32778692e-01 3.32778692e-01
      3.32778692e-01 3.32778692e-01 3.32778692e-01 3.71810049e-01
      3.71810049e-01 3.71810049e-01 2.61626959e-01 2.49832973e-01
      3.71810049e-01 3.71810049e-01 1.89641371e-01 3.71810049e-01</_>
    <_>
      3.33268315e-01 3.33268315e-01 3.33268315e-01 3.28828186e-01
      3.33268315e-01 3.33268315e-01 3.33268315e-01 3.33268315e-01
      3.33268315e-01 3.63778532e-01 3.63778532e-01 3.53763193e-01
      2.95574337e-01 3.63778532e-01 3.63778532e-01 3.63778532e-01
      1.74694464e-01 3.02755117e-01 3.36984873e-01 3.36984873e-01
      3.36984873e-01 2.96921909e-01 3.36984873e-01 3.36984873e-01
      3.36984873e-01 3.36984873e-01 3.36984873e-01 2.91141212e-01
      1.69360936e-01 3.59960139e-01 3.59960139e-01 3.59960139e-01
      3.59960139e-01 3.59960139e-01 3.59960139e-01 3.24852854e-01
      3.56445462e-01 3.56445462e-01 3.56445462e-01 3.56445462e-01
      3.56445462e-01 3.56445462e-01 1.82959765e-01 2.71276593e-01
      3.56445462e-01 3.35424572e-01 3.35424572e-01 3.35424572e-01
      3.35424572e-01 3.35424572e-01 3.10759217e-01 3.35424572e-01
      3.35424572e-01 3.35424572e-01 3.38924348e-01 3.38924348e-01
      2.78668016e-01 3.38924348e-01 3.38924348e-01 3.38924348e-01
      3.38924348e-01 3.38924348e-01 3.38924348e-01 3.46437663e-01
      3.46437663e-01 3.46437663e-01 3.27165693e-01 2.35271707e-01
      3.46437663e-01 3.37689489e-01 3.46437663e-01 3.46437663e-01
      3.41875970e-01 3.41875970e-01 3.41875970e-01 3.41875970e-01
      3.41875970e-01 3.41875970e-01 3.41875970e-01 2.51355588e-01
      3.39485407e-01 3.44538063e-01 3.44538063e-01 3.44538063e-01
      3.44538063e-01 3.44538063e-01 3.44538063e-01 2.74850398e-01
      3.00115675e-01 3.44538063e-01 1.20013863e-01 3.65571409e-01
      3.65571409e-01 3.65571409e-01 3.65571409e-01 3.41163009e-01
      3.65571409e-01 3.65571409e-01 2.52383262e-01 3.40530157e-01
      3.40530157e-01 3.40530157e-01 3.04228097e-01 3.10391754e-01
      3.40530157e-01 3.40530157e-01 3.34567159e-01 3.40530157e-01
      3.32778692e-01 3.32778692e-01 3.32778692e-01 3.32778692e-01
      3.32778692e-01 3.32778692e-01 3.32778692e-01 3.32778692e-01
      3.32778692e-01 3.44765365e-01 3.44765365e-01 3.44765365e-01
      3.44765365e-01 2.22458184e-01 3.39154303e-01 3.44765365e-01
      3.44765365e-01 3.44765365e-01 3.36769074e-01 3.36769074e-01
      3.36769074e-01 2.98877478e-01 3.36769074e-01 3.36769074e-01
      3.36769074e-01 3.36769074e-01 3.36769074e-01 3.65971893e-01
      3.65971893e-01 2.89361119e-01 1.53912291e-01 2.92082638e-01
      3.65971893e-01 3.65971893e-01 3.65971893e-01 3.65971893e-01
      3.51314753e-01 3.51314753e-01 3.51314753e-01 2.71202624e-01
      2.42867574e-01 3.51314753e-01 3.51314753e-01 3.51314753e-01
      3.51314753e-01 3.35643500e-01 3.35643500e-01 3.08859110e-01
      3.35643500e-01 3.35643500e-01 3.35643500e-01 3.35643500e-01
      3.35643500e-01 3.35643500e-01 3.37818712e-01 3.37818712e-01
      3.37818712e-01 2.89228112e-01 3.37818712e-01 3.37818712e-01
      3.37818712e-01 3.37818712e-01 3.37818712e-01 3.18857998e-01
      3.38644207e-01 3.38644207e-01 3.38644207e-01 3.03622663e-01
      3.38644207e-01 3.38644207e-01 3.38644207e-01 3.38644207e-01
      3.38845968e-01 3.38845968e-01 3.38845968e-01 2.79431134e-01
      3.38845968e-01 3.38845968e-01 3.38845968e-01 3.38845968e-01
      3.38845968e-01 3.49235237e-01 3.49235237e-01 2.99396425e-01
      2.93093175e-01 3.49235237e-01 3.49235237e-01 3.49235237e-01
      2.98626125e-01 3.49235237e-01 3.47372472e-01 3.28414798e-01
      3.47372472e-01 3.47372472e-01 3.47372472e-01 3.47372472e-01
      3.35951447e-01 2.27604404e-01 3.47372472e-01 3.76844376e-01
      3.76844376e-01 2.04658315e-01 2.47068360e-01 3.76844376e-01
      3.76844376e-01 3.76844376e-01 2.71282077e-01 3.31142098e-01</_>
    <_>
      8.93158317e-02 1.71552598e-01 3.80912662e-01 3.80912662e-01
      3.26467365e-01 3.80912662e-01 3.80912662e-01 3.80912662e-01
      3.55996758e-01 3.42406273e-01 3.42406273e-01 3.42406273e-01
      3.42406273e-01 3.42406273e-01 3.42406273e-01 3.42406273e-01
      2.42162064e-01 3.42406273e-01 3.53851736e-01 3.53851736e-01
      3.53851736e-01 2.13107601e-01 3.53851736e-01 3.12682897e-01
      3.49911213e-01 3.23706925e-01 3.53851736e-01 3.13095301e-01
      2.18426690e-01 2.76812285e-01 3.81157249e-01 3.81157249e-01
      2.60636240e-01 3.53232980e-01 3.81157249e-01 3.81157249e-01
      3.36472332e-01 3.36472332e-01 3.31690103e-01 3.36472332e-01
      3.36472332e-01 3.36472332e-01 3.36472332e-01 3.36472332e-01
      3.06796968e-01 3.37390184e-01 2.93209583e-01 3.37390184e-01
      3.37390184e-01 3.37390184e-01 3.37390184e-01 3.37390184e-01
      3.37390184e-01 3.37390184e-01 2.69058913e-01 2.87706763e-01
      3.72940004e-01 3.72940004e-01 3.72940004e-01 2.87688106e-01
      3.72940004e-01 3.72940004e-01 2.50839680e-01 3.69684130e-01
      3.69684130e-01 3.69684130e-01 1.73186585e-01 1.68927252e-01
      3.43188703e-01 3.69684130e-01 3.69684130e-01 3.69684130e-01
      3.49598169e-01 3.49598169e-01 3.49598169e-01 3.49598169e-01
      3.38368237e-01 3.49598169e-01 3.49598169e-01 2.89459944e-01
      2.54781872e-01 3.65171343e-01 2.35969871e-01 2.72314042e-01
      3.65171343e-01 3.65171343e-01 3.65171343e-01 2.57709682e-01
      3.65171343e-01 3.65171343e-01 2.87610650e-01 1.78411663e-01
      3.62530917e-01 3.62530917e-01 3.62530917e-01 3.62530917e-01
      3.14762473e-01 3.62530917e-01 3.54413092e-01 2.25057393e-01
      3.68074059e-01 3.80640179e-01 2.00001746e-01 2.13617772e-01
      3.80640179e-01 3.80640179e-01 3.80640179e-01 3.80640179e-01
      1.97638184e-01 4.24665749e-01 4.24665749e-01 2.52632469e-01
      1.33084089e-01 4.24665749e-01 4.24665749e-01 3.68727148e-01
      1.33561909e-01 2.39718929e-01 3.57713759e-01 3.57713759e-01
      3.57713759e-01 3.57713759e-01 3.57713759e-01 3.57713759e-01
      3.57713759e-01 2.07959250e-01 3.35626543e-01 3.51623416e-01
      3.51623416e-01 3.51623416e-01 2.78500497e-01 2.53860116e-01
      3.51623416e-01 3.51623416e-01 3.51623416e-01 3.43512982e-01
      3.43512982e-01 3.43512982e-01 2.54253298e-01 3.25445533e-01
      3.43512982e-01 3.43512982e-01 3.43512982e-01 3.43512982e-01
      2.70197749e-01 3.64191920e-01 3.64191920e-01 3.33225816e-01
      3.35381478e-01 3.64191920e-01 3.64191920e-01 3.64191920e-01
      1.91456720e-01 2.47096226e-01 2.10912108e-01 3.58731359e-01
      3.58731359e-01 3.58731359e-01 3.58731359e-01 3.58731359e-01
      3.44595701e-01 3.58731359e-01 2.11033061e-01 3.69918197e-01
      3.69918197e-01 3.69918197e-01 2.62022138e-01 3.69918197e-01
      3.69918197e-01 3.69918197e-01 2.49152109e-01 2.03063697e-01
      3.45563412e-01 3.45563412e-01 3.45563412e-01 3.45563412e-01
      3.45563412e-01 3.45563412e-01 3.45563412e-01 3.45563412e-01
      3.67817521e-01 3.67817521e-01 2.73873061e-01 2.70361543e-01
      3.67817521e-01 3.33440810e-01 3.67817521e-01 3.67817521e-01
      2.46154293e-01 3.66368860e-01 3.66368860e-01 2.94930935e-01
      3.66368860e-01 3.66368860e-01 2.64006734e-01 2.49379531e-01
      3.52277011e-01 3.41265351e-01 3.78320158e-01 3.43642324e-01
      2.50126898e-01 2.31705934e-01 2.35567093e-01 3.65900129e-01
      3.78320158e-01 3.78320158e-01 3.78320158e-01 3.57114315e-01
      3.57114315e-01 2.02298254e-01 2.50585347e-01 3.57114315e-01
      3.57114315e-01 3.57114315e-01 3.57114315e-01 3.57114315e-01</_>
    <_>
      3.65171343e-01 2.35969871e-01 2.72314042e-01 3.65171343e-01
      3.65171343e-01 3.65171343e-01 2.57709682e-01 3.65171343e-01
      3.65171343e-01 2.87610650e-01 1.78411663e-01 3.62530917e-01
      3.62530917e-01 3.62530917e-01 3.62530917e-01 3.14762473e-01
      3.62530917e-01 3.54413092e-01 2.25057393e-01 3.68074059e-01
      3.80640179e-01 2.00001746e-01 2.13617772e-01 3.80640179e-01
      3.80640179e-01 3.80640179e-01 3.80640179e-01 3.62969249e-01
      3.40424836e-01 3.62969249e-01 3.62969249e-01 3.62969249e-01
      3.62969249e-01 1.62841395e-01 2.51966417e-01 3.62969249e-01
      3.64703000e-01 2.39356950e-01 2.74714947e-01 3.64703000e-01
      3.64703000e-01 3.64703000e-01 3.64703000e-01 2.56020725e-01
      3.64703000e-01 3.54917914e-01 3.54917914e-01 3.54917914e-01
      3.37130070e-01 3.54917914e-01 2.84350634e-01 3.07034135e-01
      2.86461592e-01 3.48919749e-01 3.43512982e-01 3.43512982e-01
      3.43512982e-01 2.54253298e-01 3.25445533e-01 3.43512982e-01
      3.43512982e-01 3.43512982e-01 3.43512982e-01 2.70197749e-01
      3.64191920e-01 3.64191920e-01 3.33225816e-01 3.35381478e-01
      3.64191920e-01 3.64191920e-01 3.64191920e-01 1.91456720e-01
      2.47096226e-01 2.10912108e-01 3.58731359e-01 3.58731359e-01
      3.58731359e-01 3.58731359e-01 3.58731359e-01 3.44595701e-01
      3.58731359e-01 4.02763993e-01 2.38997072e-01 2.26337761e-01
      4.02763993e-01 4.02763993e-01 4.02763993e-01 2.80596077e-01
      1.89729884e-01 3.52166533e-01 4.08471346e-01 4.08471346e-01
      4.08471346e-01 4.02532756e-01 3.59198064e-01 2.90104330e-01
      1.09489582e-01 1.70788035e-01 2.81069428e-01 3.56435329e-01
      3.56435329e-01 3.56435329e-01 3.49438429e-01 2.14295328e-01
      3.56435329e-01 3.56435329e-01 3.56435329e-01 2.57162005e-01
      3.66368860e-01 3.66368860e-01 2.94930935e-01 3.66368860e-01
      3.66368860e-01 2.64006734e-01 2.49379531e-01 3.52277011e-01
      3.41265351e-01 3.78320158e-01 3.43642324e-01 2.50126898e-01
      2.31705934e-01 2.35567093e-01 3.65900129e-01 3.78320158e-01
      3.78320158e-01 3.78320158e-01 3.57114315e-01 3.57114315e-01
      2.02298254e-01 2.50585347e-01 3.57114315e-01 3.57114315e-01
      3.57114315e-01 3.57114315e-01 3.57114315e-01 3.48145664e-01
      3.48145664e-01 3.27308804e-01 3.48145664e-01 3.41483265e-01
      2.13418111e-01 3.48145664e-01 3.48145664e-01 3.48145664e-01
      3.59338462e-01 1.58931881e-01 2.59387195e-01 3.59338462e-01
      3.59338462e-01 3.59338462e-01 3.59338462e-01 3.59338462e-01
      3.59338462e-01 3.36743772e-01 3.36743772e-01 3.36743772e-01
      3.25602710e-01 3.11197132e-01 3.36743772e-01 3.36743772e-01
      3.36743772e-01 3.36743772e-01 3.17677855e-01 3.46576035e-01
      3.51124078e-01 3.51124078e-01 3.51124078e-01 3.51124078e-01
      3.51124078e-01 3.51124078e-01 1.89021245e-01 1.23596571e-01
      1.78861424e-01 3.74221027e-01 3.94979417e-01 3.94979417e-01
      3.94979417e-01 3.94979417e-01 3.94979417e-01 1.69415325e-01
      2.06681877e-01 3.04639548e-01 3.88548017e-01 3.88548017e-01
      3.88548017e-01 3.13059092e-01 3.88548017e-01 3.00358146e-01
      2.61718333e-01 3.80714595e-01 3.80714595e-01 3.80714595e-01
      2.74743885e-01 3.80714595e-01 3.16423714e-01 1.95351660e-01
      2.40224957e-01 3.80714595e-01 3.41440737e-01 3.35832179e-01
      3.00051451e-01 3.41440737e-01 3.41440737e-01 3.41440737e-01
      3.07056546e-01 3.41440737e-01 3.41440737e-01 3.44611079e-01
      2.96466798e-01 3.44611079e-01 3.44611079e-01 3.44611079e-01
      2.78148890e-01 3.44611079e-01 3.44611079e-01 3.44611079e-01</_>
    <_>
      1.42371133e-01 3.62486720e-01 3.62486720e-01 3.62486720e-01
      3.62486720e-01 3.22163045e-01 3.62486720e-01 3.62486720e-01
      2.89723992e-01 3.32778692e-01 3.32778692e-01 3.32778692e-01
      3.32778692e-01 3.32778692e-01 3.32778692e-01 3.32778692e-01
      3.32778692e-01 3.32778692e-01 3.50333810e-01 3.50333810e-01
      3.50333810e-01 3.50333810e-01 2.55465478e-01 3.50333810e-01
      3.50333810e-01 2.68515736e-01 3.50333810e-01 3.39604646e-01
      3.39604646e-01 3.39604646e-01 3.39604646e-01 3.39604646e-01
      3.39604646e-01 3.39604646e-01 3.39604646e-01 2.71949321e-01
      3.67298573e-01 3.67298573e-01 3.67298573e-01 2.33379468e-01
      1.75107241e-01 3.18986803e-01 3.67298573e-01 3.67298573e-01
      3.67298573e-01 3.56699556e-01 3.56699556e-01 2.73550868e-01
      2.72218287e-01 3.56699556e-01 3.56699556e-01 3.56699556e-01
      2.89993256e-01 3.56699556e-01 2.93483287e-01 3.85858625e-01
      3.85858625e-01 2.27706477e-01 2.06317797e-01 3.75400305e-01
      3.85858625e-01 3.85858625e-01 2.81287313e-01 3.02831233e-01
      3.37490618e-01 3.37490618e-01 3.37490618e-01 3.37490618e-01
      3.28057885e-01 3.37490618e-01 3.37490618e-01 3.37490618e-01
      3.40176314e-01 3.40176314e-01 3.40176314e-01 3.40176314e-01
      3.40176314e-01 3.18453074e-01 2.91803539e-01 3.40176314e-01
      3.40176314e-01 3.54949921e-01 2.19013706e-01 3.60259682e-01
      3.41663092e-01 3.60259682e-01 3.19886655e-01 2.90232390e-01
      3.60259682e-01 3.60259682e-01 3.62403780e-01 3.62403780e-01
      3.62403780e-01 3.62403780e-01 2.58267134e-01 1.83996364e-01
      3.28334749e-01 3.62403780e-01 3.62403780e-01 3.45464915e-01
      3.45464915e-01 3.45464915e-01 3.45464915e-01 3.45464915e-01
      2.11647704e-01 3.45464915e-01 3.45464915e-01 3.41074020e-01
      3.57829034e-01 3.57829034e-01 3.57829034e-01 3.28824103e-01
      3.36212486e-01 3.57829034e-01 3.57829034e-01 1.97977468e-01
      3.09608847e-01 1.77139118e-01 3.21861386e-01 3.66276413e-01
      3.66276413e-01 3.66276413e-01 3.66276413e-01 3.66276413e-01
      3.66276413e-01 2.37523004e-01 2.29868725e-01 3.60232472e-01
      3.61777216e-01 3.61777216e-01 2.75410980e-01 3.61777216e-01
      3.61777216e-01 3.54439914e-01 2.97940463e-01 3.57739538e-01
      3.57739538e-01 3.57739538e-01 3.57739538e-01 3.57739538e-01
      3.57739538e-01 2.30170727e-01 2.18183726e-01 3.57739538e-01
      3.19949865e-01 3.41437370e-01 3.41437370e-01 3.41437370e-01
      3.41437370e-01 2.79578865e-01 3.41437370e-01 3.41437370e-01
      3.41437370e-01 3.37487251e-01 3.37487251e-01 3.37487251e-01
      2.92313069e-01 3.37487251e-01 3.37487251e-01 3.37487251e-01
      3.37487251e-01 3.37487251e-01 3.40029210e-01 3.40029210e-01
      2.67663419e-01 3.40029210e-01 3.40029210e-01 3.40029210e-01
      3.40029210e-01 3.40029210e-01 3.40029210e-01 3.44471157e-01
      3.44471157e-01 3.44471157e-01 3.44471157e-01 3.44471157e-01
      3.44471157e-01 3.44471157e-01 2.17428550e-01 3.44471157e-01
      3.40995878e-01 3.40995878e-01 3.40995878e-01 3.40995878e-01
      3.40995878e-01 2.57618636e-01 3.40995878e-01 3.40995878e-01
      3.40995878e-01 2.90617943e-01 3.42713237e-01 3.42713237e-01
      3.42713237e-01 3.42713237e-01 3.42713237e-01 3.42713237e-01
      3.42713237e-01 2.99917281e-01 3.36788833e-01 3.38198632e-01
      3.38198632e-01 3.38198632e-01 2.87308335e-01 3.38198632e-01
      3.38198632e-01 3.38198632e-01 3.38198632e-01 2.10642695e-01
      3.95299315e-01 3.95299315e-01 3.95299315e-01 3.59280676e-01
      3.47061306e-01 3.95299315e-01 2.67934561e-01 7.28782713e-02</_>
    <_>
      3.43512982e-01 3.43512982e-01 3.43512982e-01 2.54253298e-01
      3.25445533e-01 3.43512982e-01 3.43512982e-01 3.43512982e-01
      3.43512982e-01 2.70197749e-01 3.64191920e-01 3.64191920e-01
      3.33225816e-01 3.35381478e-01 3.64191920e-01 3.64191920e-01
      3.64191920e-01 1.91456720e-01 2.47096226e-01 2.10912108e-01
      3.58731359e-01 3.58731359e-01 3.58731359e-01 3.58731359e-01
      3.58731359e-01 3.44595701e-01 3.58731359e-01 4.02763993e-01
      2.38997072e-01 2.26337761e-01 4.02763993e-01 4.02763993e-01
      4.02763993e-01 2.80596077e-01 1.89729884e-01 3.52166533e-01
      4.08471346e-01 4.08471346e-01 4.08471346e-01 4.02532756e-01
      3.59198064e-01 2.90104330e-01 1.09489582e-01 1.70788035e-01
      2.81069428e-01 3.56435329e-01 3.56435329e-01 3.56435329e-01
      3.49438429e-01 2.14295328e-01 3.56435329e-01 3.56435329e-01
      3.56435329e-01 2.57162005e-01 3.66368860e-01 3.66368860e-01
      2.94930935e-01 3.66368860e-01 3.66368860e-01 2.64006734e-01
      2.49379531e-01 3.52277011e-01 3.41265351e-01 3.78320158e-01
      3.43642324e-01 2.50126898e-01 2.31705934e-01 2.35567093e-01
      3.65900129e-01 3.78320158e-01 3.78320158e-01 3.78320158e-01
      3.57114315e-01 3.57114315e-01 2.02298254e-01 2.50585347e-01
      3.57114315e-01 3.57114315e-01 3.57114315e-01 3.57114315e-01
      3.57114315e-01 3.48145664e-01 3.48145664e-01 3.27308804e-01
      3.48145664e-01 3.41483265e-01 2.13418111e-01 3.48145664e-01
      3.48145664e-01 3.48145664e-01 3.59338462e-01 1.58931881e-01
      2.59387195e-01 3.59338462e-01 3.59338462e-01 3.59338462e-01
      3.59338462e-01 3.59338462e-01 3.59338462e-01 3.36743772e-01
      3.36743772e-01 3.36743772e-01 3.25602710e-01 3.11197132e-01
      3.36743772e-01 3.36743772e-01 3.36743772e-01 3.36743772e-01
      3.17677855e-01 3.46576035e-01 3.51124078e-01 3.51124078e-01
      3.51124078e-01 3.51124078e-01 3.51124078e-01 3.51124078e-01
      1.89021245e-01 1.23596571e-01 1.78861424e-01 3.74221027e-01
      3.94979417e-01 3.94979417e-01 3.94979417e-01 3.94979417e-01
      3.94979417e-01 1.69415325e-01 2.06681877e-01 3.04639548e-01
      3.88548017e-01 3.88548017e-01 3.88548017e-01 3.13059092e-01
      3.88548017e-01 3.00358146e-01 2.61718333e-01 3.80714595e-01
      3.80714595e-01 3.80714595e-01 2.74743885e-01 3.80714595e-01
      3.16423714e-01 1.95351660e-01 2.40224957e-01 3.80714595e-01
      3.41440737e-01 3.35832179e-01 3.00051451e-01 3.41440737e-01
      3.41440737e-01 3.41440737e-01 3.07056546e-01 3.41440737e-01
      3.41440737e-01 3.44611079e-01 2.96466798e-01 3.44611079e-01
      3.44611079e-01 3.44611079e-01 2.78148890e-01 3.44611079e-01
      3.44611079e-01 3.44611079e-01 3.68345827e-01 3.68345827e-01
      3.68345827e-01 2.55827427e-01 2.23395064e-01 2.58640647e-01
      3.68345827e-01 3.68345827e-01 3.68345827e-01 3.46080333e-01
      3.14394593e-01 2.95149028e-01 3.46080333e-01 3.46080333e-01
      3.46080333e-01 3.03242117e-01 3.46080333e-01 3.46080333e-01
      3.32778692e-01 3.32778692e-01 3.32778692e-01 3.32778692e-01
      3.32778692e-01 3.32778692e-01 3.32778692e-01 3.32778692e-01
      3.32778692e-01 3.78580689e-01 2.53489405e-01 2.49075502e-01
      3.78580689e-01 3.78580689e-01 2.08993763e-01 3.31099927e-01
      3.78580689e-01 3.78580689e-01 3.49392056e-01 2.92641938e-01
      3.24690670e-01 3.49392056e-01 3.49392056e-01 3.49392056e-01
      3.49392056e-01 2.70179659e-01 3.49392056e-01 3.37837785e-01
      3.37837785e-01 3.37837785e-01 3.37837785e-01 3.37837785e-01
      3.31576824e-01 2.96210468e-01 3.37837785e-01 3.37837785e-01</_>
    <_>
      3.78320158e-01 3.43642324e-01 2.50126898e-01 2.31705934e-01
      2.35567093e-01 3.65900129e-01 3.78320158e-01 3.78320158e-01
      3.78320158e-01 3.57114315e-01 3.57114315e-01 2.02298254e-01
      2.50585347e-01 3.57114315e-01 3.57114315e-01 3.57114315e-01
      3.57114315e-01 3.57114315e-01 3.48145664e-01 3.48145664e-01
      3.27308804e-01 3.48145664e-01 3.41483265e-01 2.13418111e-01
      3.48145664e-01 3.48145664e-01 3.48145664e-01 3.59338462e-01
      1.58931881e-01 2.59387195e-01 3.59338462e-01 3.59338462e-01
      3.59338462e-01 3.59338462e-01 3.59338462e-01 3.59338462e-01
      3.36743772e-01 3.36743772e-01 3.36743772e-01 3.25602710e-01
      3.11197132e-01 3.36743772e-01 3.36743772e-01 3.36743772e-01
      3.36743772e-01 3.04095477e-01 3.83282870e-01 3.83282870e-01
      3.83282870e-01 2.10841566e-01 3.26859534e-01 3.83282870e-01
      3.83282870e-01 1.33703738e-01 1.23596571e-01 1.78861424e-01
      3.74221027e-01 3.94979417e-01 3.94979417e-01 3.94979417e-01
      3.94979417e-01 3.94979417e-01 1.69415325e-01 2.06681877e-01
      3.04639548e-01 3.88548017e-01 3.88548017e-01 3.88548017e-01
      3.13059092e-01 3.88548017e-01 3.00358146e-01 2.61718333e-01
      3.80714595e-01 3.80714595e-01 3.80714595e-01 2.74743885e-01
      3.80714595e-01 3.16423714e-01 1.95351660e-01 2.40224957e-01
      3.80714595e-01 3.41440737e-01 3.35832179e-01 3.00051451e-01
      3.41440737e-01 3.41440737e-01 3.41440737e-01 3.07056546e-01
      3.41440737e-01 3.41440737e-01 3.44611079e-01 2.96466798e-01
      3.44611079e-01 3.44611079e-01 3.44611079e-01 2.78148890e-01
      3.44611079e-01 3.44611079e-01 3.44611079e-01 3.49396855e-01
      2.87759662e-01 3.49396855e-01 3.47255677e-01 3.49396855e-01
      3.49396855e-01 3.49396855e-01 2.46268213e-01 3.49396855e-01
      3.46080333e-01 3.14394593e-01 2.95149028e-01 3.46080333e-01
      3.46080333e-01 3.46080333e-01 3.03242117e-01 3.46080333e-01
      3.46080333e-01 3.32778692e-01 3.32778692e-01 3.32778692e-01
      3.32778692e-01 3.32778692e-01 3.32778692e-01 3.32778692e-01
      3.32778692e-01 3.32778692e-01 3.78580689e-01 2.53489405e-01
      2.49075502e-01 3.78580689e-01 3.78580689e-01 2.08993763e-01
      3.31099927e-01 3.78580689e-01 3.78580689e-01 3.49392056e-01
      2.92641938e-01 3.24690670e-01 3.49392056e-01 3.49392056e-01
      3.49392056e-01 3.49392056e-01 2.70179659e-01 3.49392056e-01
      3.37837785e-01 3.37837785e-01 3.37837785e-01 3.37837785e-01
      3.37837785e-01 3.31576824e-01 2.96210468e-01 3.37837785e-01
      3.37837785e-01 3.65993410e-01 3.65993410e-01 3.65993410e-01
      3.65993410e-01 3.65993410e-01 3.33140492e-01 1.37104154e-01
      2.50711590e-01 3.65993410e-01 3.25558215e-01 3.61268044e-01
      2.95987278e-01 2.78407753e-01 3.61268044e-01 3.61268044e-01
      3.61268044e-01 3.61268044e-01 2.69647926e-01 3.74302387e-01
      3.74302387e-01 2.79406786e-01 3.74302387e-01 3.74302387e-01
      2.40614444e-01 1.68799162e-01 3.62343103e-01 3.74302387e-01
      3.45195621e-01 3.45195621e-01 3.45195621e-01 3.45195621e-01
      3.45195621e-01 3.45195621e-01 3.45195621e-01 2.08016619e-01
      3.45195621e-01 3.48247975e-01 3.15162659e-01 2.93359548e-01
      3.48247975e-01 2.88917571e-01 3.48247975e-01 3.48247975e-01
      3.48247975e-01 3.48247975e-01 3.93182009e-01 3.93182009e-01
      2.36800402e-01 2.01142326e-01 3.63881856e-01 3.93182009e-01
      2.79135257e-01 2.66166419e-01 3.93182009e-01 3.55668515e-01
      3.55668515e-01 3.55668515e-01 3.55668515e-01 3.55668515e-01
      3.55668515e-01 3.00506592e-01 2.45638430e-01 2.94624358e-01</_>
    <_>
      3.33871663e-01 3.33871663e-01 3.33871663e-01 3.33871663e-01
      3.33871663e-01 3.33871663e-01 3.33871663e-01 3.33871663e-01
      3.23885500e-01 3.60445708e-01 3.60445708e-01 1.86627612e-01
      2.28300676e-01 3.60445708e-01 3.60445708e-01 3.60445708e-01
      3.60445708e-01 3.60445708e-01 3.25558215e-01 3.61268044e-01
      2.95987278e-01 2.78407753e-01 3.61268044e-01 3.61268044e-01
      3.61268044e-01 3.61268044e-01 2.69647926e-01 3.74302387e-01
      3.74302387e-01 2.79406786e-01 3.74302387e-01 3.74302387e-01
      2.40614444e-01 1.68799162e-01 3.62343103e-01 3.74302387e-01
      3.45195621e-01 3.45195621e-01 3.45195621e-01 3.45195621e-01
      3.45195621e-01 3.45195621e-01 3.45195621e-01 2.08016619e-01
      3.45195621e-01 3.48247975e-01 3.15162659e-01 2.93359548e-01
      3.48247975e-01 2.88917571e-01 3.48247975e-01 3.48247975e-01
      3.48247975e-01 3.48247975e-01 2.18524829e-01 3.47051710e-01
      3.47051710e-01 3.47051710e-01 3.47051710e-01 3.47051710e-01
      3.47051710e-01 3.47051710e-01 3.25061738e-01 3.38959187e-01
      3.08366776e-01 3.38959187e-01 3.11881155e-01 3.38959187e-01
      3.38959187e-01 3.38959187e-01 3.38959187e-01 3.38959187e-01
      3.29316735e-01 3.41179699e-01 3.41179699e-01 3.41179699e-01
      3.41179699e-01 2.70770252e-01 3.41179699e-01 3.41179699e-01
      3.41179699e-01 3.07228297e-01 3.57899755e-01 3.57899755e-01
      3.57899755e-01 3.57899755e-01 3.34000587e-01 2.58429259e-01
      2.88499385e-01 3.57899755e-01 2.45904163e-01 3.48123997e-01
      3.48123997e-01 3.48123997e-01 3.48123997e-01 3.48123997e-01
      3.48123997e-01 3.48123997e-01 2.96176702e-01 2.91205943e-01
      2.82185555e-01 3.68918031e-01 3.68918031e-01 3.68918031e-01
      3.54747653e-01 3.00360531e-01 2.67245948e-01 3.68918031e-01
      3.53385329e-01 3.53385329e-01 3.53385329e-01 2.51856208e-01
      2.42630094e-01 3.53385329e-01 3.53385329e-01 3.53385329e-01
      3.53385329e-01 3.40964675e-01 3.40964675e-01 3.38312596e-01
      3.40964675e-01 3.40964675e-01 3.10596675e-01 3.40964675e-01
      3.40964675e-01 2.96860427e-01 3.36520374e-01 3.36520374e-01
      3.36520374e-01 3.36520374e-01 3.36520374e-01 3.01114768e-01
      3.36520374e-01 3.36520374e-01 3.36520374e-01 4.10718173e-01
      1.06913328e-01 3.77348036e-01 4.10718173e-01 4.10718173e-01
      2.64234960e-01 1.66025773e-01 2.64448106e-01 4.10718173e-01
      3.71154636e-01 2.51796395e-01 2.19207302e-01 3.45464617e-01
      3.71154636e-01 3.71154636e-01 3.71154636e-01 2.76972890e-01
      3.71154636e-01 3.49116772e-01 3.02690327e-01 3.49116772e-01
      3.49116772e-01 3.49116772e-01 2.27404594e-01 3.49116772e-01
      3.49116772e-01 3.49116772e-01 3.41973871e-01 2.47010425e-01
      3.41973871e-01 3.41973871e-01 3.41973871e-01 3.41973871e-01
      3.41973871e-01 3.41973871e-01 3.41973871e-01 3.42166573e-01
      3.42166573e-01 3.42166573e-01 3.42166573e-01 3.42166573e-01
      3.42166573e-01 3.42166573e-01 2.44862229e-01 3.42166573e-01
      3.84041637e-01 2.37287447e-01 2.30150923e-01 3.84041637e-01
      3.84041637e-01 3.84041637e-01 2.40728140e-01 3.02487373e-01
      3.84041637e-01 3.75851423e-01 2.22694591e-01 1.33613691e-01
      2.84980506e-01 3.75851423e-01 3.75851423e-01 3.75851423e-01
      3.75851423e-01 3.75851423e-01 3.54868740e-01 3.54868740e-01
      3.01850647e-01 3.54868740e-01 3.54868740e-01 3.54868740e-01
      3.54868740e-01 1.54330820e-01 3.54868740e-01 4.21393931e-01
      4.21393931e-01 1.76916122e-01 3.09145451e-01 4.21393931e-01
      4.21393931e-01 1.10125497e-01 9.16191638e-02 3.71627867e-01</_>
    <_>
      3.55787575e-01 3.55787575e-01 3.55787575e-01 3.19440126e-01
