<?xml version="1.0"?>
<opencv_storage>
<opencv_ml_svm>
  <format>3</format>
  <svmType>C_SVC</svmType>
  <kernel>
    <type>RBF</type>
    <gamma>5.0624999999999998e-01</gamma></kernel>
  <C>10.</C>
  <term_criteria><epsilon>1.1920928955078125e-07</epsilon>
    <iterations>1000</iterations></term_criteria>
  <var_count>135</var_count>
  <class_count>2</class_count>
  <class_labels type_id="opencv-matrix">
    <rows>2</rows>
    <cols>1</cols>
    <dt>i</dt>
    <data>
      0 1</data></class_labels>
  <sv_total>245</sv_total>
  <support_vectors>
    <_>
      3.61172646e-01 3.61172646e-01 3.61172646e-01 3.03656101e-01
      1.94190547e-01 2.89482802e-01 3.61172646e-01 3.61172646e-01
      3.61172646e-01 1.83374986e-01 3.42503577e-01 3.61910909e-01
      3.61910909e-01 3.61910909e-01 3.61910909e-01 3.61910909e-01
      3.61910909e-01 2.44074002e-01 2.28427902e-01 1.50536254e-01
      3.79166812e-01 2.53638774e-01 4.59671885e-01 4.59671885e-01
      4.59671885e-01 2.32766733e-01 1.56182215e-01 3.80714864e-01
      3.80714864e-01 3.65422219e-01 2.72365391e-01 2.82766730e-01
      3.80714864e-01 3.80714864e-01 3.07724029e-01 1.84537202e-01
      2.15355977e-01 2.04186827e-01 2.07306623e-01 1.81908771e-01
      4.53259528e-01 4.37665552e-01 4.53259528e-01 4.26089972e-01
      2.17584342e-01 3.49073797e-01 3.49073797e-01 3.49073797e-01
      3.21873873e-01 2.48917028e-01 3.49073797e-01 3.49073797e-01
      3.49073797e-01 3.15966308e-01 3.50787133e-01 3.50787133e-01
      3.50787133e-01 3.50787133e-01 3.50787133e-01 3.50787133e-01
      3.50787133e-01 2.58063376e-01 2.61796236e-01 3.33092779e-01
      3.33092779e-01 3.33092779e-01 3.33092779e-01 3.33092779e-01
      3.33092779e-01 3.30250472e-01 3.33092779e-01 3.33092779e-01
      3.35597783e-01 3.35597783e-01 3.35597783e-01 3.35269868e-01
      3.09612334e-01 3.35597783e-01 3.35597783e-01 3.35597783e-01
      3.35597783e-01 3.32778692e-01 3.32778692e-01 3.32778692e-01
      3.32778692e-01 3.32778692e-01 3.32778692e-01 3.32778692e-01
      3.32778692e-01 3.32778692e-01 3.38230550e-01 3.38230550e-01
      3.38230550e-01 3.38230550e-01 3.38230550e-01 3.05606127e-01
      3.20040882e-01 3.38230550e-01 3.38230550e-01 3.44805032e-01
      3.44805032e-01 3.44805032e-01 3.44805032e-01 3.44805032e-01
      3.44805032e-01 3.44805032e-01 3.44805032e-01 2.13144958e-01
      3.32778692e-01 3.32778692e-01 3.32778692e-01 3.32778692e-01
      3.32778692e-01 3.32778692e-01 3.32778692e-01 3.32778692e-01
      3.32778692e-01 2.96682358e-01 3.44723314e-01 3.14656138e-01
      3.10679793e-01 3.44723314e-01 3.44723314e-01 3.44723314e-01
      3.44723314e-01 3.44723314e-01 2.94559449e-01 3.43398988e-01
      3.43398988e-01 2.90419906e-01 3.43398988e-01 3.43398988e-01
      3.43398988e-01 3.43398988e-01 3.43398988e-01</_>
    <_>
      3.36762995e-01 3.36762995e-01 3.36762995e-01 3.36762995e-01
      3.36762995e-01 3.08300823e-01 3.28208238e-01 3.36762995e-01
      3.36762995e-01 2.83769220e-01 3.43987554e-01 3.43987554e-01
      3.43987554e-01 3.43987554e-01 2.96219587e-01 3.43987554e-01
      3.43987554e-01 3.43987554e-01 3.20988089e-01 3.58364910e-01
      3.58364910e-01 3.58364910e-01 3.58364910e-01 1.61370486e-01
      3.58364910e-01 3.58364910e-01 3.11116159e-01 3.57511550e-01
      2.45633125e-01 2.08888203e-01 3.54360163e-01 3.57511550e-01
      3.57511550e-01 3.57511550e-01 3.57511550e-01 3.57511550e-01
      3.42825025e-01 3.42825025e-01 3.42825025e-01 3.42825025e-01
      2.37366170e-01 3.42825025e-01 3.42825025e-01 3.42825025e-01
      3.42825025e-01 3.32778692e-01 3.32778692e-01 3.32778692e-01
      3.32778692e-01 3.32778692e-01 3.32778692e-01 3.32778692e-01
      3.32778692e-01 3.32778692e-01 3.32778692e-01 3.32778692e-01
      3.32778692e-01 3.32778692e-01 3.32778692e-01 3.32778692e-01
      3.32778692e-01 3.32778692e-01 3.32778692e-01 3.57871145e-01
      3.57871145e-01 3.57871145e-01 3.57871145e-01 2.30533615e-01
      2.16278762e-01 3.57871145e-01 3.57871145e-01 3.57871145e-01
      3.33416402e-01 3.33416402e-01 3.33416402e-01 3.33416402e-01
      3.27622920e-01 3.33416402e-01 3.33416402e-01 3.33416402e-01
      3.33416402e-01 3.44006300e-01 3.44006300e-01 3.44006300e-01
      2.68873245e-01 3.15181226e-01 3.44006300e-01 3.44006300e-01
      3.38952601e-01 3.44006300e-01 2.95363724e-01 3.57700914e-01
      3.57700914e-01 3.57700914e-01 3.57700914e-01 3.57700914e-01
      3.57700914e-01 2.36419052e-01 2.92562634e-01 3.33344311e-01
      3.33344311e-01 3.33344311e-01 3.33344311e-01 3.28210145e-01
      3.33344311e-01 3.33344311e-01 3.33344311e-01 3.33344311e-01
      3.05333763e-01 3.36045712e-01 3.36045712e-01 3.36045712e-01
      3.36045712e-01 3.36045712e-01 3.36045712e-01 3.36045712e-01
      3.36045712e-01 3.66816461e-01 3.66816461e-01 3.66816461e-01
      3.24306548e-01 2.23464698e-01 3.66816461e-01 3.66816461e-01
      3.17828149e-01 2.59687692e-01 3.39595288e-01 3.39595288e-01
      3.39595288e-01 2.85554826e-01 3.28360915e-01 3.39595288e-01
      3.39595288e-01 3.39595288e-01 3.39550793e-01</_>
    <_>
      3.32778692e-01 3.32778692e-01 3.32778692e-01 3.32778692e-01
      3.32778692e-01 3.32778692e-01 3.32778692e-01 3.32778692e-01
      3.32778692e-01 3.35944682e-01 3.35944682e-01 3.35944682e-01
      3.35944682e-01 3.35944682e-01 3.35944682e-01 3.06223571e-01
      3.35944682e-01 3.35944682e-01 3.40043306e-01 2.91006893e-01
      3.40043306e-01 3.40043306e-01 3.40043306e-01 3.40043306e-01
      3.40043306e-01 3.20174098e-01 3.40043306e-01 3.41706276e-01
      3.41706276e-01 3.41706276e-01 3.41706276e-01 3.41706276e-01
      3.41706276e-01 3.41706276e-01 3.41706276e-01 2.49960616e-01
      3.32778692e-01 3.32778692e-01 3.32778692e-01 3.32778692e-01
      3.32778692e-01 3.32778692e-01 3.32778692e-01 3.32778692e-01
      3.32778692e-01 3.32778692e-01 3.32778692e-01 3.32778692e-01
      3.32778692e-01 3.32778692e-01 3.32778692e-01 3.32778692e-01
      3.32778692e-01 3.32778692e-01 3.32778692e-01 3.32778692e-01
      3.32778692e-01 3.32778692e-01 3.32778692e-01 3.32778692e-01
      3.32778692e-01 3.32778692e-01 3.32778692e-01 3.38056177e-01
      3.38056177e-01 2.86995620e-01 3.38056177e-01 3.38056177e-01
      3.38056177e-01 3.38056177e-01 3.38056177e-01 3.38056177e-01
      3.81473541e-01 2.85095423e-01 2.61578798e-01 3.81473541e-01
      3.81473541e-01 3.81473541e-01 1.57725647e-01 3.06591421e-01
      3.81473541e-01 3.51255119e-01 3.51255119e-01 3.51255119e-01
      3.51255119e-01 3.51255119e-01 2.90300786e-01 2.20351771e-01
      3.51255119e-01 3.51255119e-01 3.44323039e-01 3.44323039e-01
      3.44323039e-01 3.44323039e-01 3.02769512e-01 3.44323039e-01
      3.44323039e-01 3.44323039e-01 2.73827970e-01 3.39040250e-01
      3.39040250e-01 2.77536184e-01 3.39040250e-01 3.39040250e-01
      3.39040250e-01 3.39040250e-01 3.39040250e-01 3.39040250e-01
      3.65574628e-01 2.12677658e-01 3.65574628e-01 3.65574628e-01
      3.65574628e-01 2.38534972e-01 3.03888261e-01 3.65574628e-01
      3.65574628e-01 3.30930561e-01 3.33008617e-01 3.33008617e-01
      3.33008617e-01 3.33008617e-01 3.33008617e-01 3.33008617e-01
      3.33008617e-01 3.33008617e-01 3.33251208e-01 3.33251208e-01
      3.28966767e-01 3.33251208e-01 3.33251208e-01 3.33251208e-01
      3.33251208e-01 3.33251208e-01 3.33251208e-01</_>
    <_>
      3.32778692e-01 3.32778692e-01 3.32778692e-01 3.32778692e-01
      3.32778692e-01 3.32778692e-01 3.32778692e-01 3.32778692e-01
      3.32778692e-01 3.37412208e-01 3.37412208e-01 2.93006510e-01
      3.37412208e-01 3.37412208e-01 3.37412208e-01 3.37412208e-01
      3.37412208e-01 3.37412208e-01 3.35010827e-01 3.14316183e-01
      3.35010827e-01 3.35010827e-01 3.35010827e-01 3.35010827e-01
      3.35010827e-01 3.35010827e-01 3.35010827e-01 3.56802583e-01
      3.56802583e-01 3.56802583e-01 3.56802583e-01 3.56802583e-01
      3.56802583e-01 2.23317429e-01 2.35388815e-01 3.56802583e-01
      3.49821538e-01 3.49821538e-01 2.71239012e-01 3.49821538e-01
      3.49821538e-01 3.49821538e-01 3.49821538e-01 2.58576244e-01
      3.49030048e-01 3.39890450e-01 3.39890450e-01 3.39890450e-01
      3.39890450e-01 3.39890450e-01 3.39890450e-01 2.69072592e-01
      3.39890450e-01 3.39890450e-01 3.97234052e-01 2.50829190e-01
      2.21889347e-01 3.97234052e-01 3.97234052e-01 3.97234052e-01
      1.34238854e-01 2.77284712e-01 3.97234052e-01 3.93781066e-01
      2.95129150e-01 1.64437085e-01 3.93781066e-01 3.93781066e-01
      3.93781066e-01 2.35617429e-01 2.26035222e-01 3.93781066e-01
      3.87253284e-01 3.87253284e-01 1.74422234e-01 3.87253284e-01
      3.87253284e-01 2.22684354e-01 1.27785757e-01 3.87253284e-01
      3.87253284e-01 3.79726708e-01 2.16663286e-01 2.05309629e-01
      3.79726708e-01 3.79726708e-01 2.68154830e-01 3.37997854e-01
      3.79726708e-01 3.79726708e-01 3.90724868e-01 3.07454169e-01
      2.07933128e-01 3.90724868e-01 3.90724868e-01 2.37718150e-01
      1.96195647e-01 3.90724868e-01 3.90724868e-01 3.57469201e-01
      3.25647086e-01 2.50775367e-01 2.47622937e-01 3.57469201e-01
      3.56729478e-01 3.57469201e-01 3.57469201e-01 3.57469201e-01
      3.65663916e-01 3.04469556e-01 3.47229391e-01 3.65663916e-01
      3.65663916e-01 2.99105465e-01 2.86523402e-01 2.76905388e-01
      3.65663916e-01 3.39510977e-01 3.39510977e-01 3.39510977e-01
      3.39510977e-01 3.39510977e-01 3.39510977e-01 3.39510977e-01
      2.72884995e-01 3.39510977e-01 3.58047932e-01 2.97156215e-01
      2.95144558e-01 3.58047932e-01 3.58047932e-01 3.58047932e-01
      3.58047932e-01 2.51443803e-01 3.41752946e-01</_>
    <_>
      2.83848315e-01 3.66637021e-01 3.66637021e-01 2.00103372e-01
      3.27779174e-01 3.66637021e-01 3.66637021e-01 3.66637021e-01
      3.10117900e-01 2.06131369e-01 3.49386275e-01 3.49386275e-01
      3.49386275e-01 3.49386275e-01 3.49386275e-01 3.49386275e-01
      3.49386275e-01 3.15473735e-01 3.33235770e-01 3.33235770e-01
      3.33235770e-01 3.33235770e-01 3.33235770e-01 3.33235770e-01
      3.33235770e-01 3.33235770e-01 3.29092354e-01 3.33663464e-01
      3.33663464e-01 3.33663464e-01 3.33663464e-01 3.32914442e-01
      3.33663464e-01 3.33663464e-01 3.33663464e-01 3.26366276e-01
      3.64177257e-01 3.64177257e-01 3.64177257e-01 3.50295603e-01
      1.25428468e-01 2.61442840e-01 3.64177257e-01 3.64177257e-01
      3.55590373e-01 3.44428331e-01 3.44428331e-01 3.44428331e-01
      2.32312396e-01 3.44428331e-01 3.34923267e-01 3.44428331e-01
      3.44428331e-01 3.44428331e-01 3.32778692e-01 3.32778692e-01
      3.32778692e-01 3.32778692e-01 3.32778692e-01 3.32778692e-01
      3.32778692e-01 3.32778692e-01 3.32778692e-01 3.30297023e-01
      3.42773050e-01 3.42773050e-01 3.12868178e-01 2.90916473e-01
      3.42773050e-01 3.42773050e-01 3.42773050e-01 3.42773050e-01
      3.13266784e-01 3.38249892e-01 3.38249892e-01 3.12399447e-01
      3.38249892e-01 3.38249892e-01 3.38249892e-01 3.38249892e-01
      3.38249892e-01 3.32778692e-01 3.32778692e-01 3.32778692e-01
      3.32778692e-01 3.32778692e-01 3.32778692e-01 3.32778692e-01
      3.32778692e-01 3.32778692e-01 3.32778692e-01 3.32778692e-01
      3.32778692e-01 3.32778692e-01 3.32778692e-01 3.32778692e-01
      3.32778692e-01 3.32778692e-01 3.32778692e-01 3.37920398e-01
      3.37920398e-01 3.37920398e-01 3.37920398e-01 3.37920398e-01
      3.37920398e-01 3.37920398e-01 3.37920398e-01 2.88274080e-01
      3.41715723e-01 3.45856160e-01 3.45856160e-01 3.45856160e-01
      2.86587983e-01 2.82742351e-01 3.45856160e-01 3.45856160e-01
      3.45856160e-01 2.83099174e-01 3.05106968e-01 3.42957288e-01
      3.42957288e-01 3.42957288e-01 3.42957288e-01 3.42957288e-01
      3.42957288e-01 3.42957288e-01 2.50347823e-01 3.57337028e-01
      3.57337028e-01 3.57337028e-01 3.57337028e-01 3.57337028e-01
      3.57337028e-01 3.23084325e-01 2.51463264e-01</_>
    <_>
      3.32778692e-01 3.32778692e-01 3.32778692e-01 3.32778692e-01
      3.32778692e-01 3.32778692e-01 3.32778692e-01 3.32778692e-01
      3.32778692e-01 3.05604219e-01 3.53286058e-01 3.53286058e-01
      3.53286058e-01 2.73467004e-01 3.53286058e-01 3.53286058e-01
      3.53286058e-01 2.81825632e-01 3.35434526e-01 3.35434526e-01
      3.35434526e-01 3.35434526e-01 3.10673177e-01 3.35434526e-01
      3.35434526e-01 3.35434526e-01 3.35434526e-01 3.32778692e-01
      3.32778692e-01 3.32778692e-01 3.32778692e-01 3.32778692e-01
      3.32778692e-01 3.32778692e-01 3.32778692e-01 3.32778692e-01
      3.46206605e-01 1.94085062e-01 3.46206605e-01 3.46206605e-01
      3.46206605e-01 3.46206605e-01 3.46206605e-01 3.46206605e-01
      3.46206605e-01 3.41005147e-01 1.90093249e-01 3.47256720e-01
      3.47256720e-01 3.47256720e-01 3.47256720e-01 3.47256720e-01
      3.47256720e-01 3.47256720e-01 3.52954119e-01 3.25091690e-01
      2.61728466e-01 3.52954119e-01 3.52954119e-01 3.52954119e-01
      3.52954119e-01 2.73545861e-01 3.52954119e-01 3.32778692e-01
      3.32778692e-01 3.32778692e-01 3.32778692e-01 3.32778692e-01
      3.32778692e-01 3.32778692e-01 3.32778692e-01 3.32778692e-01
      3.40370625e-01 3.40370625e-01 3.40370625e-01 3.40370625e-01
      2.64162928e-01 3.40370625e-01 3.40370625e-01 3.40370625e-01
      3.40370625e-01 3.32778692e-01 3.32778692e-01 3.32778692e-01
      3.32778692e-01 3.32778692e-01 3.32778692e-01 3.32778692e-01
      3.32778692e-01 3.32778692e-01 3.35983753e-01 3.35983753e-01
      3.35983753e-01 3.35983753e-01 3.35983753e-01 3.35983753e-01
      3.05879563e-01 3.35983753e-01 3.35983753e-01 3.32778692e-01
      3.32778692e-01 3.32778692e-01 3.32778692e-01 3.32778692e-01
      3.32778692e-01 3.32778692e-01 3.32778692e-01 3.32778692e-01
      3.32778692e-01 3.32778692e-01 3.32778692e-01 3.32778692e-01
      3.32778692e-01 3.32778692e-01 3.32778692e-01 3.32778692e-01
      3.32778692e-01 3.32778692e-01 3.32778692e-01 3.32778692e-01
      3.32778692e-01 3.32778692e-01 3.32778692e-01 3.32778692e-01
      3.32778692e-01 3.32778692e-01 3.41354430e-01 3.41354430e-01
      3.41354430e-01 2.53785014e-01 3.41354430e-01 3.41354430e-01
      3.41354430e-01 3.41354430e-01 3.41354430e-01</_>
    <_>
      3.48223865e-01 3.48223865e-01 3.48223865e-01 2.17292339e-01
      3.48223865e-01 3.48223865e-01 3.48223865e-01 3.16995144e-01
      3.48223865e-01 3.39400530e-01 2.73983896e-01 3.39400530e-01
      3.39400530e-01 3.39400530e-01 3.39400530e-01 3.39400530e-01
      3.39400530e-01 3.39400530e-01 1.86104968e-01 2.49053821e-01
      1.92252725e-01 4.02224779e-01 4.47682679e-01 4.47682679e-01
      2.26516634e-01 2.18060657e-01 4.47682679e-01 3.41665536e-01
      2.82409072e-01 3.41665536e-01 3.41665536e-01 3.41665536e-01
      3.41665536e-01 3.41665536e-01 3.15727651e-01 3.41665536e-01
      2.77089506e-01 3.39085788e-01 3.39085788e-01 3.39085788e-01
      3.39085788e-01 3.39085788e-01 3.39085788e-01 3.39085788e-01
      3.39085788e-01 3.30303043e-01 2.53422111e-01 3.77087981e-01
      3.80853564e-01 3.80853564e-01 3.80853564e-01 2.16938630e-01
      2.31121004e-01 3.80853564e-01 3.32778692e-01 3.32778692e-01
      3.32778692e-01 3.32778692e-01 3.32778692e-01 3.32778692e-01
      3.32778692e-01 3.32778692e-01 3.32778692e-01 3.42448890e-01
      3.42448890e-01 3.42448890e-01 2.41678804e-01 3.42448890e-01
      3.42448890e-01 3.42448890e-01 3.42448890e-01 3.42448890e-01
      4.29283887e-01 8.51139352e-02 1.12300500e-01 4.34494644e-01
      4.34494644e-01 4.34494644e-01 1.37125716e-01 1.32565141e-01
      4.34494644e-01 3.44480455e-01 3.44480455e-01 3.14457953e-01
      3.44480455e-01 3.44480455e-01 3.44480455e-01 3.44480455e-01
      2.58856922e-01 3.44480455e-01 3.33128422e-01 3.33128422e-01
      3.33128422e-01 3.33128422e-01 3.33128422e-01 3.33128422e-01
      3.29962581e-01 3.33128422e-01 3.33128422e-01 2.74126321e-01
      2.10516527e-01 1.87998354e-01 4.41198111e-01 4.41198111e-01
      4.41198111e-01 4.38538492e-01 1.68798774e-01 1.89765051e-01
      3.26719195e-01 3.38767380e-01 3.38767380e-01 3.38767380e-01
      3.38767380e-01 2.94153959e-01 3.38767380e-01 3.38767380e-01
      3.38767380e-01 3.32778692e-01 3.32778692e-01 3.32778692e-01
      3.32778692e-01 3.32778692e-01 3.32778692e-01 3.32778692e-01
      3.32778692e-01 3.32778692e-01 1.53698996e-01 3.95130277e-01
      3.95130277e-01 3.95130277e-01 3.95130277e-01 3.95130277e-01
      2.78821528e-01 2.82118559e-01 1.85626552e-01</_>
    <_>
      3.35976809e-01 3.35976809e-01 3.35976809e-01 3.05940688e-01
      3.35976809e-01 3.35976809e-01 3.35976809e-01 3.35976809e-01
      3.35976809e-01 3.34534556e-01 3.34534556e-01 3.34534556e-01
      3.34534556e-01 3.18355978e-01 3.34534556e-01 3.34534556e-01
      3.34534556e-01 3.34534556e-01 3.33838016e-01 3.33838016e-01
      3.24163526e-01 3.33838016e-01 3.33838016e-01 3.33838016e-01
      3.33838016e-01 3.33838016e-01 3.33838016e-01 3.43547434e-01
      3.43547434e-01 3.35959285e-01 2.39844024e-01 3.43547434e-01
      3.43547434e-01 3.43547434e-01 3.43547434e-01 3.43547434e-01
      3.33665401e-01 3.33665401e-01 3.33665401e-01 3.33665401e-01
      3.25584531e-01 3.33665401e-01 3.33665401e-01 3.33665401e-01
      3.33665401e-01 3.33168954e-01 3.33168954e-01 3.33168954e-01
      3.29634279e-01 3.33168954e-01 3.33168954e-01 3.33168954e-01
      3.33168954e-01 3.33168954e-01 3.86983454e-01 2.54889548e-01
      2.41649568e-01 3.86983454e-01 3.86983454e-01 3.86983454e-01
      2.48917222e-01 2.49058485e-01 3.86983454e-01 3.32778692e-01
      3.32778692e-01 3.32778692e-01 3.32778692e-01 3.32778692e-01
      3.32778692e-01 3.32778692e-01 3.32778692e-01 3.32778692e-01
      3.39118987e-01 3.39118987e-01 3.39118987e-01 3.39118987e-01
      3.39118987e-01 3.39118987e-01 3.39118987e-01 2.76763976e-01
      3.39118987e-01 3.46233010e-01 3.46233010e-01 3.46233010e-01
      3.46233010e-01 3.46233010e-01 3.46233010e-01 1.93706512e-01
      3.46233010e-01 3.46233010e-01 4.22170073e-01 4.22170073e-01
      4.22170073e-01 4.22170073e-01 2.39385411e-01 3.48584741e-01
      2.17726231e-01 1.97433487e-01 1.32932991e-01 3.51048976e-01
      2.79259861e-01 2.36345112e-01 3.51048976e-01 3.51048976e-01
      3.51048976e-01 3.51048976e-01 3.51048976e-01 3.51048976e-01
      3.36368412e-01 3.36368412e-01 3.02472681e-01 3.36368412e-01
      3.36368412e-01 3.36368412e-01 3.36368412e-01 3.36368412e-01
      3.36368412e-01 2.76534647e-01 3.57263416e-01 3.57263416e-01
      3.57263416e-01 2.97680646e-01 3.57263416e-01 3.57263416e-01
      3.57263416e-01 2.55973667e-01 3.40186059e-01 3.40186059e-01
      3.40186059e-01 3.40186059e-01 3.40186059e-01 3.40186059e-01
      2.66061395e-01 3.40186059e-01 3.40186059e-01</_>
    <_>
      3.32778692e-01 3.32778692e-01 3.32778692e-01 3.32778692e-01
      3.32778692e-01 3.32778692e-01 3.32778692e-01 3.32778692e-01
      3.32778692e-01 3.32778692e-01 3.32778692e-01 3.32778692e-01
      3.32778692e-01 3.32778692e-01 3.32778692e-01 3.32778692e-01
      3.32778692e-01 3.32778692e-01 3.32778692e-01 3.32778692e-01
      3.32778692e-01 3.32778692e-01 3.32778692e-01 3.32778692e-01
      3.32778692e-01 3.32778692e-01 3.32778692e-01 3.51295024e-01
      3.51295024e-01 3.51295024e-01 1.99290648e-01 3.04821521e-01
      3.51295024e-01 3.51295024e-01 3.51295024e-01 3.51295024e-01
      3.55309665e-01 3.34151268e-01 3.55309665e-01 3.55309665e-01
      3.28037709e-01 2.12731093e-01 3.17340314e-01 3.55309665e-01
      3.55309665e-01 2.85511732e-01 3.38212937e-01 3.38212937e-01
      3.38212937e-01 3.38212937e-01 3.38212937e-01 3.38212937e-01
      3.38212937e-01 3.38212937e-01 4.79794592e-01 2.37410277e-01
      9.63071361e-02 2.63460726e-01 4.79794592e-01 4.79794592e-01
      2.66156316e-01 1.28202707e-01 2.86834359e-01 4.22204107e-01
      1.32230282e-01 1.60569653e-01 4.22204107e-01 4.22204107e-01
      1.97407469e-01 1.49210542e-01 4.22204107e-01 4.22204107e-01
      3.38921189e-01 3.38921189e-01 3.38921189e-01 3.38921189e-01
      3.38921189e-01 3.38921189e-01 3.35783631e-01 3.35016549e-01
      2.87091315e-01 3.40149641e-01 3.40149641e-01 3.40149641e-01
      3.40149641e-01 3.40149641e-01 3.03628623e-01 3.07406366e-01
      3.40149641e-01 3.40149641e-01 3.79608244e-01 3.79608244e-01
      2.74483234e-01 1.88875735e-01 3.79608244e-01 3.79608244e-01
      3.79608244e-01 1.43449530e-01 3.79608244e-01 3.32778692e-01
      3.32778692e-01 3.32778692e-01 3.32778692e-01 3.32778692e-01
      3.32778692e-01 3.32778692e-01 3.32778692e-01 3.32778692e-01
      3.32778692e-01 3.32778692e-01 3.32778692e-01 3.32778692e-01
      3.32778692e-01 3.32778692e-01 3.32778692e-01 3.32778692e-01
      3.32778692e-01 3.32778692e-01 3.32778692e-01 3.32778692e-01
      3.32778692e-01 3.32778692e-01 3.32778692e-01 3.32778692e-01
      3.32778692e-01 3.32778692e-01 3.36406916e-01 3.36406916e-01
      3.36406916e-01 3.02129120e-01 3.36406916e-01 3.36406916e-01
      3.36406916e-01 3.36406916e-01 3.36406916e-01</_>
    <_>
      3.38466197e-01 3.38466197e-01 3.38466197e-01 2.94291854e-01
      3.38466197e-01 3.38466197e-01 3.38466197e-01 3.28777909e-01
      3.38466197e-01 3.32778692e-01 3.32778692e-01 3.32778692e-01
      3.32778692e-01 3.32778692e-01 3.32778692e-01 3.32778692e-01
      3.32778692e-01 3.32778692e-01 3.40376794e-01 3.40376794e-01
      3.40376794e-01 3.40376794e-01 3.40376794e-01 3.19700003e-01
      2.88784444e-01 3.40376794e-01 3.40376794e-01 3.66631269e-01
      3.66631269e-01 3.66631269e-01 3.41228604e-01 3.66631269e-01
      3.66631269e-01 2.12318659e-01 1.68255195e-01 3.66631269e-01
      1.57266244e-01 1.85198486e-01 3.33901346e-01 4.09898341e-01
      2.03379273e-01 3.34595859e-01 4.09898341e-01 4.09898341e-01
      4.09898341e-01 3.32778692e-01 3.32778692e-01 3.32778692e-01
      3.32778692e-01 3.32778692e-01 3.32778692e-01 3.32778692e-01
      3.32778692e-01 3.32778692e-01 3.79358828e-01 2.09921822e-01
      2.28355482e-01 3.79358828e-01 3.79358828e-01 3.79358828e-01
      1.91096842e-01 3.79358828e-01 3.79358828e-01 3.32778692e-01
      3.32778692e-01 3.32778692e-01 3.32778692e-01 3.32778692e-01
      3.32778692e-01 3.32778692e-01 3.32778692e-01 3.32778692e-01
      3.36363524e-01 3.36363524e-01 3.36363524e-01 3.36363524e-01
      3.36363524e-01 3.31425220e-01 3.07918489e-01 3.36363524e-01
      3.36363524e-01 3.32778692e-01 3.32778692e-01 3.32778692e-01
      3.32778692e-01 3.32778692e-01 3.32778692e-01 3.32778692e-01
      3.32778692e-01 3.32778692e-01 2.37069830e-01 3.82598221e-01
      3.82598221e-01 3.02692533e-01 2.06404820e-01 3.82598221e-01
      3.82598221e-01 3.82598221e-01 2.71740645e-01 3.32778692e-01
      3.32778692e-01 3.32778692e-01 3.32778692e-01 3.32778692e-01
      3.32778692e-01 3.32778692e-01 3.32778692e-01 3.32778692e-01
      3.33874226e-01 3.33874226e-01 3.33874226e-01 3.33874226e-01
      3.33874226e-01 3.33874226e-01 3.23864400e-01 3.33874226e-01
      3.33874226e-01 3.32778692e-01 3.32778692e-01 3.32778692e-01
      3.32778692e-01 3.32778692e-01 3.32778692e-01 3.32778692e-01
      3.32778692e-01 3.32778692e-01 3.32778692e-01 3.32778692e-01
      3.32778692e-01 3.32778692e-01 3.32778692e-01 3.32778692e-01
      3.32778692e-01 3.32778692e-01 3.32778692e-01</_>
    <_>
      3.49806249e-01 3.49806249e-01 3.49806249e-01 1.81908384e-01
      3.49806249e-01 3.49806249e-01 3.49806249e-01 3.32745224e-01
      3.44250709e-01 3.36212397e-01 3.36212397e-01 3.36212397e-01
      3.36212397e-01 3.36212397e-01 3.03859293e-01 3.36212397e-01
      3.36212397e-01 3.36212397e-01 3.32778692e-01 3.32778692e-01
      3.32778692e-01 3.32778692e-01 3.32778692e-01 3.32778692e-01
      3.32778692e-01 3.32778692e-01 3.32778692e-01 3.85280699e-01
      3.85280699e-01 3.26972187e-01 1.18131183e-01 3.85280699e-01
      3.85280699e-01 3.85280699e-01 2.84795672e-01 2.27970481e-01
      3.71292710e-01 2.66174287e-01 3.71292710e-01 3.71292710e-01
      3.71292710e-01 2.61324763e-01 1.73209205e-01 3.71292710e-01
      3.71292710e-01 2.37363949e-01 2.82379925e-01 3.50594789e-01
      3.50594789e-01 3.50594789e-01 3.50594789e-01 3.50594789e-01
      3.50594789e-01 3.50594789e-01 4.35668975e-01 1.93483755e-01
      2.30986789e-01 4.39387947e-01 4.39387947e-01 2.81084120e-01
      1.40469670e-01 1.92580923e-01 4.39387947e-01 4.36366081e-01
      4.36366081e-01 1.46373034e-01 1.41365632e-01 3.87647539e-01
      2.85026550e-01 2.06500381e-01 3.29897702e-01 4.36366081e-01
      3.36444944e-01 3.01789403e-01 3.36444944e-01 3.36444944e-01
      3.36444944e-01 3.36444944e-01 3.36444944e-01 3.36444944e-01
      3.36444944e-01 2.28102580e-01 2.47970700e-01 3.64953995e-01
      3.64953995e-01 3.64953995e-01 2.89283782e-01 3.64953995e-01
      3.64953995e-01 3.64953995e-01 3.99483740e-01 3.99483740e-01
      3.13427240e-01 2.59975642e-01 3.99483740e-01 3.99483740e-01
      3.99483740e-01 1.08917542e-01 1.42778724e-01 3.45925659e-01
      3.45925659e-01 3.45925659e-01 2.78968722e-01 2.84724832e-01
      3.45925659e-01 3.45925659e-01 3.45925659e-01 3.45925659e-01
      3.32778692e-01 3.32778692e-01 3.32778692e-01 3.32778692e-01
      3.32778692e-01 3.32778692e-01 3.32778692e-01 3.32778692e-01
      3.32778692e-01 3.37402165e-01 3.37402165e-01 3.37402165e-01
      3.37402165e-01 3.37402165e-01 2.93099284e-01 3.37402165e-01
      3.37402165e-01 3.37402165e-01 3.54150057e-01 3.54150057e-01
      3.54150057e-01 3.54150057e-01 3.54150057e-01 3.54150057e-01
      2.58458346e-01 2.27387786e-01 3.54150057e-01</_>
    <_>
      3.43313485e-01 3.43313485e-01 3.43313485e-01 3.43313485e-01
      2.90550739e-01 3.43313485e-01 3.43313485e-01 3.33327055e-01
      3.06363106e-01 3.44714314e-01 3.44714314e-01 3.44714314e-01
      3.44714314e-01 3.33723724e-01 2.31059864e-01 3.44714314e-01
      3.44714314e-01 3.44714314e-01 3.41698736e-01 3.41278315e-01
      2.50617087e-01 3.41698736e-01 3.41698736e-01 3.41698736e-01
      3.41698736e-01 3.41698736e-01 3.41698736e-01 3.61216277e-01
      3.61216277e-01 3.61216277e-01 3.61216277e-01 3.15400630e-01
      3.61216277e-01 3.61216277e-01 1.96056962e-01 2.74976671e-01
      1.29889593e-01 2.03760311e-01 3.97346199e-01 3.97346199e-01
      3.97346199e-01 2.36036837e-01 3.04150373e-01 3.97346199e-01
      3.97346199e-01 3.32778692e-01 3.32778692e-01 3.32778692e-01
      3.32778692e-01 3.32778692e-01 3.32778692e-01 3.32778692e-01
      3.32778692e-01 3.32778692e-01 3.26272637e-01 3.36702913e-01
      3.69827479e-01 3.83709788e-01 3.83709788e-01 3.83709788e-01
      3.83709788e-01 1.39538646e-01 1.76543593e-01 4.44281310e-01
      1.80274412e-01 1.68613940e-01 2.40806684e-01 3.66541743e-01
      3.67271990e-01 1.23472825e-01 4.44281310e-01 4.44281310e-01
      3.32778692e-01 3.32778692e-01 3.32778692e-01 3.32778692e-01
      3.32778692e-01 3.32778692e-01 3.32778692e-01 3.32778692e-01
      3.32778692e-01 2.12066099e-01 1.28947228e-01 4.16644007e-01
      4.16644007e-01 4.16644007e-01 1.36219129e-01 2.18452662e-01
      4.16644007e-01 4.16644007e-01 4.49514300e-01 4.49514300e-01
      4.49514300e-01 2.31534988e-01 1.62269413e-01 2.32649043e-01
      1.74201876e-01 1.51148275e-01 4.49514300e-01 3.57369155e-01
      2.45513856e-01 2.72756845e-01 3.57369155e-01 3.57369155e-01
      3.57369155e-01 3.08998257e-01 3.57369155e-01 3.57369155e-01
      2.64268696e-01 2.33509555e-01 3.71746808e-01 3.71746808e-01
      3.71746808e-01 2.06754014e-01 3.71746808e-01 3.71746808e-01
      3.71746808e-01 3.38208407e-01 3.38208407e-01 3.38208407e-01
      3.38208407e-01 3.13320339e-01 3.38208407e-01 3.38208407e-01
      3.38208407e-01 3.12660575e-01 3.33537281e-01 3.33537281e-01
      3.33537281e-01 3.33537281e-01 3.33537281e-01 3.33537281e-01
      3.33537281e-01 3.26635301e-01 3.33537281e-01</_>
    <_>
      3.36873293e-01 3.36873293e-01 3.36873293e-01 3.36873293e-01
      3.36873293e-01 3.36873293e-01 3.36873293e-01 2.97935098e-01
      3.36873293e-01 2.19952658e-01 3.74677598e-01 3.74677598e-01
      2.78347313e-01 1.67632014e-01 3.74677598e-01 3.74677598e-01
      3.74677598e-01 3.74677598e-01 3.32977533e-01 3.31180871e-01
      3.32977533e-01 3.32977533e-01 3.32977533e-01 3.32977533e-01
      3.32977533e-01 3.32977533e-01 3.32977533e-01 3.53218794e-01
      3.53218794e-01 2.96389550e-01 3.52935106e-01 3.53218794e-01
      3.53218794e-01 3.23904365e-01 2.35222086e-01 3.53218794e-01
      3.47903639e-01 1.34595007e-01 9.35361013e-02 1.56003118e-01
      3.16964597e-01 4.25161034e-01 4.25161034e-01 4.25161034e-01
      4.25161034e-01 3.39736849e-01 3.11813802e-01 3.02373618e-01
      3.39736849e-01 3.39736849e-01 3.39736849e-01 3.39736849e-01
      3.39736849e-01 3.39736849e-01 3.57829928e-01 3.08637828e-01
      3.02128375e-01 3.57829928e-01 3.57829928e-01 3.13250124e-01
      2.67486811e-01 3.57829928e-01 3.57829928e-01 3.15070271e-01
      2.81218499e-01 3.48482549e-01 3.48482549e-01 3.48482549e-01
      3.48482549e-01 3.48482549e-01 3.48482549e-01 2.99206734e-01
      3.44308972e-01 3.44308972e-01 2.19477937e-01 3.44308972e-01
      3.44308972e-01 3.44308972e-01 3.44308972e-01 3.44308972e-01
      3.44308972e-01 3.32784027e-01 3.32784027e-01 3.32784027e-01
      3.32784027e-01 3.32784027e-01 3.32735926e-01 3.32784027e-01
      3.32784027e-01 3.32784027e-01 3.48141193e-01 3.48141193e-01
      3.48141193e-01 3.48141193e-01 2.56766498e-01 2.86664695e-01
      3.48141193e-01 3.48141193e-01 3.48141193e-01 3.38615716e-01
      3.38615716e-01 3.38615716e-01 3.38615716e-01 3.38615716e-01
      3.38615716e-01 3.38615716e-01 2.81659365e-01 3.38615716e-01
      3.52465272e-01 3.18836272e-01 3.52465272e-01 3.52465272e-01
      3.52465272e-01 2.39249378e-01 3.03630054e-01 3.52465272e-01
      3.52465272e-01 3.38282108e-01 3.38282108e-01 3.38282108e-01
      3.38282108e-01 3.38282108e-01 2.84853935e-01 3.38282108e-01
      3.38282108e-01 3.38282108e-01 2.99469829e-01 3.36703449e-01
      3.36703449e-01 3.36703449e-01 3.36703449e-01 3.36703449e-01
      3.36703449e-01 3.36703449e-01 3.36703449e-01</_>
    <_>
      3.52856338e-01 3.52856338e-01 3.52856338e-01 2.80593604e-01
      3.13437402e-01 3.52856338e-01 3.52856338e-01 2.69171298e-01
      3.52856338e-01 1.52173400e-01 2.54884601e-01 3.73999327e-01
      3.73999327e-01 2.62464762e-01 3.73999327e-01 3.73999327e-01
      3.73999327e-01 3.73999327e-01 3.35111380e-01 3.35111380e-01
      3.35111380e-01 3.35111380e-01 3.35111380e-01 3.35111380e-01
      3.35111380e-01 3.13455850e-01 3.35111380e-01 3.63952875e-01
      3.63952875e-01 2.02282444e-01 3.56313646e-01 3.63952875e-01
      3.63952875e-01 3.63952875e-01 3.21385592e-01 2.50776827e-01
      3.64054292e-01 2.30616614e-01 2.91087657e-01 3.64054292e-01
      3.64054292e-01 2.51463056e-01 3.64054292e-01 3.64054292e-01
      3.64054292e-01 3.36265206e-01 3.36265206e-01 3.36265206e-01
      3.36265206e-01 3.36265206e-01 3.36265206e-01 3.03390682e-01
      3.36265206e-01 3.36265206e-01 2.99026102e-01 3.25632840e-01
      3.77568156e-01 3.77568156e-01 3.77568156e-01 3.77568156e-01
      3.51869583e-01 2.42307633e-01 2.19131470e-01 4.46461290e-01
      4.46461290e-01 2.39581347e-01 2.99685806e-01 2.84117490e-01
      2.72399336e-01 2.34196767e-01 2.01430485e-01 4.46461290e-01
      3.35998893e-01 3.35998893e-01 3.22856277e-01 3.19593221e-01
      3.35998893e-01 3.35998893e-01 3.35998893e-01 3.35998893e-01
      3.35998893e-01 3.50957483e-01 2.79759884e-01 3.50957483e-01
      3.50957483e-01 3.50957483e-01 2.36706272e-01 3.50957483e-01
      3.50957483e-01 3.50957483e-01 3.49898070e-01 3.49898070e-01
      3.49898070e-01 3.49898070e-01 3.38707775e-01 3.49898070e-01
      3.49898070e-01 3.49898070e-01 1.57418057e-01 3.36164951e-01
      3.36164951e-01 3.04279894e-01 3.36164951e-01 3.36164951e-01
      3.36164951e-01 3.36164951e-01 3.36164951e-01 3.36164951e-01
      2.19382435e-01 3.11925828e-01 3.88161331e-01 3.88161331e-01
      3.47900778e-01 1.58537731e-01 3.19139153e-01 3.88161331e-01
      3.88161331e-01 3.32778692e-01 3.32778692e-01 3.32778692e-01
      3.32778692e-01 3.32778692e-01 3.32778692e-01 3.32778692e-01
      3.32778692e-01 3.32778692e-01 3.40691596e-01 3.40691596e-01
      3.40691596e-01 3.40691596e-01 3.40691596e-01 3.40691596e-01
      2.60825694e-01 3.40691596e-01 3.40691596e-01</_>
    <_>
      3.68468583e-01 3.68468583e-01 3.24639499e-01 1.34896174e-01
      3.31340164e-01 3.68468583e-01 3.21907938e-01 3.40944976e-01
      3.68468583e-01 3.32778692e-01 3.32778692e-01 3.32778692e-01
      3.32778692e-01 3.32778692e-01 3.32778692e-01 3.32778692e-01
      3.32778692e-01 3.32778692e-01 3.39793712e-01 3.39793712e-01
      3.39793712e-01 3.39793712e-01 3.39793712e-01 2.70049781e-01
      3.39793712e-01 3.39793712e-01 3.39793712e-01 3.53250027e-01
      2.92370558e-01 2.88522571e-01 2.81125247e-01 3.53250027e-01
      3.53250027e-01 3.53250027e-01 3.53250027e-01 3.53250027e-01
      2.75490791e-01 3.39248300e-01 3.39248300e-01 3.39248300e-01
      3.39248300e-01 3.39248300e-01 3.39248300e-01 3.39248300e-01
      3.39248300e-01 3.46527427e-01 3.46527427e-01 3.46527427e-01
      3.46527427e-01 3.46527427e-01 2.05005929e-01 3.37552190e-01
      3.46527427e-01 3.46527427e-01 3.32778692e-01 3.32778692e-01
      3.32778692e-01 3.32778692e-01 3.32778692e-01 3.32778692e-01
      3.32778692e-01 3.32778692e-01 3.32778692e-01 3.41197670e-01
      3.41197670e-01 2.83542454e-01 3.41197670e-01 3.41197670e-01
      3.41197670e-01 3.18251044e-01 3.41197670e-01 3.41197670e-01
      3.41354460e-01 3.41354460e-01 2.53784209e-01 3.41354460e-01
      3.41354460e-01 3.41354460e-01 3.41354460e-01 3.41354460e-01
      3.41354460e-01 3.44683677e-01 3.30830246e-01 3.44683677e-01
      3.44683677e-01 3.44683677e-01 3.44683677e-01 2.35498711e-01
      3.44683677e-01 3.44683677e-01 3.42987508e-01 3.42987508e-01
      3.42987508e-01 3.42987508e-01 3.42987508e-01 3.42987508e-01
      3.42987508e-01 2.35477492e-01 3.42987508e-01 3.32778692e-01
      3.32778692e-01 3.32778692e-01 3.32778692e-01 3.32778692e-01
      3.32778692e-01 3.32778692e-01 3.32778692e-01 3.32778692e-01
      3.38388532e-01 3.38388532e-01 3.38388532e-01 3.38388532e-01
      2.93951243e-01 3.29642504e-01 3.38388532e-01 3.38388532e-01
      3.38388532e-01 3.39326680e-01 3.39326680e-01 3.39326680e-01
      3.39326680e-01 3.39326680e-01 3.39326680e-01 3.39326680e-01
      2.74716198e-01 3.39326680e-01 3.60441297e-01 3.60441297e-01
      3.60441297e-01 3.60441297e-01 3.60441297e-01 3.60441297e-01
      3.60441297e-01 2.47394502e-01 1.60528272e-01</_>
    <_>
      3.32778692e-01 3.32778692e-01 3.32778692e-01 3.32778692e-01
      3.32778692e-01 3.32778692e-01 3.32778692e-01 3.32778692e-01
      3.32778692e-01 3.38334233e-01 3.38334233e-01 3.38334233e-01
      3.38334233e-01 3.38334233e-01 3.38334233e-01 3.38334233e-01
      3.38334233e-01 2.84357309e-01 3.25479835e-01 3.42631310e-01
      3.42631310e-01 3.42631310e-01 3.42631310e-01 2.62423426e-01
      3.42631310e-01 3.42631310e-01 3.42631310e-01 3.58068585e-01
      3.58068585e-01 1.70188695e-01 3.22903544e-01 3.58068585e-01
      3.58068585e-01 3.58068585e-01 3.58068585e-01 3.06452155e-01
      3.24948341e-01 3.51155728e-01 3.51155728e-01 3.51155728e-01
      2.94025689e-01 3.51155728e-01 3.51155728e-01 3.51155728e-01
      2.54139900e-01 3.37237477e-01 3.37237477e-01 3.37237477e-01
      3.37237477e-01 3.37237477e-01 3.18706870e-01 3.14567298e-01
      3.37237477e-01 3.37237477e-01 3.38556677e-01 3.38556677e-01
      2.82227397e-01 3.38556677e-01 3.38556677e-01 3.38556677e-01
      3.38556677e-01 3.38556677e-01 3.38556677e-01 3.89767140e-01
      3.89767140e-01 3.89767140e-01 3.89767140e-01 3.19036633e-01
      2.41949677e-01 1.10561304e-01 2.52915680e-01 3.89767140e-01
      3.58578593e-01 3.58578593e-01 2.19368502e-01 3.58578593e-01
      3.58578593e-01 3.43793780e-01 2.42134407e-01 3.58578593e-01
      3.58578593e-01 3.33040774e-01 3.33040774e-01 3.33040774e-01
      3.33040774e-01 3.33040774e-01 3.33040774e-01 3.33040774e-01
      3.30670983e-01 3.33040774e-01 3.32778692e-01 3.32778692e-01
      3.32778692e-01 3.32778692e-01 3.32778692e-01 3.32778692e-01
      3.32778692e-01 3.32778692e-01 3.32778692e-01 3.57172787e-01
      3.57172787e-01 2.85635680e-01 3.01053673e-01 3.57172787e-01
      3.57172787e-01 3.14563602e-01 2.95632005e-01 3.57172787e-01
      3.32778692e-01 3.32778692e-01 3.32778692e-01 3.32778692e-01
      3.32778692e-01 3.32778692e-01 3.32778692e-01 3.32778692e-01
      3.32778692e-01 3.33926350e-01 3.33926350e-01 3.33926350e-01
      3.33926350e-01 3.33926350e-01 3.33926350e-01 3.33926350e-01
      3.33926350e-01 3.23433429e-01 3.36648315e-01 3.36648315e-01
      2.99966216e-01 3.36648315e-01 3.36648315e-01 3.36648315e-01
      3.36648315e-01 3.36648315e-01 3.36648315e-01</_>
    <_>
      3.42815697e-01 3.42815697e-01 3.42815697e-01 3.22802782e-01
      3.37072700e-01 3.42815697e-01 3.42815697e-01 3.42815697e-01
      2.71329284e-01 2.17971325e-01 3.20949376e-01 3.56363356e-01
      3.56363356e-01 2.89742231e-01 3.56363356e-01 3.56363356e-01
      3.56363356e-01 3.56363356e-01 2.57287860e-01 2.84713626e-01
      3.37542117e-01 3.50073546e-01 3.50073546e-01 3.50073546e-01
      3.50073546e-01 3.50073546e-01 3.50073546e-01 3.41934413e-01
      3.41934413e-01 3.41934413e-01 2.72126645e-01 3.38516921e-01
      3.41934413e-01 3.41934413e-01 3.41934413e-01 3.26224208e-01
      2.07662091e-01 2.17324317e-01 3.99550647e-01 3.99550647e-01
      3.46184552e-01 1.56060308e-01 3.50561559e-01 3.99550647e-01
      3.99550647e-01 3.37486565e-01 3.37486565e-01 3.37486565e-01
      3.37486565e-01 3.37486565e-01 2.92319089e-01 3.37486565e-01
      3.37486565e-01 3.37486565e-01 3.46333057e-01 3.46333057e-01
      2.77434200e-01 3.46333057e-01 3.46333057e-01 3.46333057e-01
      3.46333057e-01 2.82743543e-01 3.46333057e-01 3.41770619e-01
      3.41770619e-01 3.41770619e-01 3.41770619e-01 3.41770619e-01
      3.41770619e-01 2.49255002e-01 3.41770619e-01 3.41770619e-01
      3.61575395e-01 3.12251955e-01 2.51052171e-01 3.61575395e-01
      3.61575395e-01 3.61575395e-01 2.26800263e-01 3.61575395e-01
      3.61575395e-01 3.70196670e-01 1.96091697e-01 3.70196670e-01
      3.70196670e-01 3.70196670e-01 3.34703833e-01 2.56280810e-01
      3.08083147e-01 3.70196670e-01 3.41854095e-01 3.41854095e-01
      3.41854095e-01 3.17779332e-01 3.41854095e-01 3.41854095e-01
      3.41854095e-01 2.78480113e-01 3.41854095e-01 3.32778692e-01
      3.32778692e-01 3.32778692e-01 3.32778692e-01 3.32778692e-01
      3.32778692e-01 3.32778692e-01 3.32778692e-01 3.32778692e-01
      3.45511377e-01 3.45511377e-01 3.45511377e-01 3.45511377e-01
      3.45511377e-01 2.70277649e-01 2.96397150e-01 3.45511377e-01
      3.45511377e-01 3.62176806e-01 3.62176806e-01 3.62176806e-01
      3.38721186e-01 2.89066195e-01 3.62176806e-01 3.62176806e-01
      3.18917155e-01 2.01300263e-01 3.46671969e-01 3.46671969e-01
      3.46671969e-01 2.64835507e-01 3.46671969e-01 3.46671969e-01
      2.91767389e-01 3.46671969e-01 3.46671969e-01</_>
    <_>
      3.36843759e-01 3.36843759e-01 3.36843759e-01 3.36843759e-01
      3.30744445e-01 3.36843759e-01 3.36843759e-01 3.04953456e-01
      3.36843759e-01 3.32778692e-01 3.32778692e-01 3.32778692e-01
      3.32778692e-01 3.32778692e-01 3.32778692e-01 3.32778692e-01
      3.32778692e-01 3.32778692e-01 1.77949935e-01 3.07400435e-01
      3.64274979e-01 3.64274979e-01 3.64274979e-01 2.81086415e-01
      3.57363224e-01 3.64274979e-01 3.64274979e-01 3.32778692e-01
      3.32778692e-01 3.32778692e-01 3.32778692e-01 3.32778692e-01
      3.32778692e-01 3.32778692e-01 3.32778692e-01 3.32778692e-01
      3.01880538e-01 2.89322197e-01 3.02796602e-01 3.48805100e-01
      3.48805100e-01 3.48805100e-01 3.48805100e-01 3.48805100e-01
      3.48805100e-01 3.42913508e-01 2.36339927e-01 3.42913508e-01
      3.42913508e-01 3.42913508e-01 3.42913508e-01 3.42913508e-01
      3.42913508e-01 3.42913508e-01 3.38288128e-01 3.37671548e-01
      2.95364022e-01 3.38288128e-01 3.38288128e-01 3.38288128e-01
      3.38288128e-01 3.29734713e-01 3.38288128e-01 3.57679158e-01
      3.57679158e-01 3.34965765e-01 1.65329173e-01 2.98804909e-01
      3.57679158e-01 3.57679158e-01 3.57679158e-01 3.57679158e-01
      3.60315830e-01 3.60315830e-01 1.06377035e-01 3.60315830e-01
      3.60315830e-01 3.60315830e-01 2.92735159e-01 3.47023457e-01
      3.60315830e-01 3.32778692e-01 3.32778692e-01 3.32778692e-01
      3.32778692e-01 3.32778692e-01 3.32778692e-01 3.32778692e-01
      3.32778692e-01 3.32778692e-01 3.60908478e-01 3.60908478e-01
      3.60908478e-01 3.60908478e-01 1.90633744e-01 2.19701111e-01
      3.60908478e-01 3.60908478e-01 3.60908478e-01 3.46531510e-01
      3.46531510e-01 3.46531510e-01 3.46531510e-01 3.46531510e-01
      3.46531510e-01 3.06377381e-01 2.49162719e-01 3.46531510e-01
      2.96333283e-01 3.08370292e-01 3.48075002e-01 3.48075002e-01
      3.48075002e-01 2.94413626e-01 3.48075002e-01 3.48075002e-01
      3.48075002e-01 3.37250173e-01 3.37250173e-01 3.37250173e-01
      3.37250173e-01 3.37250173e-01 2.94497907e-01 3.37250173e-01
      3.37250173e-01 3.37250173e-01 3.57910216e-01 3.57910216e-01
      3.57910216e-01 2.74776161e-01 3.57910216e-01 3.57910216e-01
      3.57910216e-01 2.65636623e-01 2.85938859e-01</_>
    <_>
      3.32778692e-01 3.32778692e-01 3.32778692e-01 3.32778692e-01
      3.32778692e-01 3.32778692e-01 3.32778692e-01 3.32778692e-01
      3.32778692e-01 3.43806952e-01 3.43806952e-01 2.25696668e-01
      3.43806952e-01 3.43806952e-01 3.43806952e-01 3.43806952e-01
      3.43806952e-01 3.43806952e-01 3.46669167e-01 3.46669167e-01
      3.46669167e-01 3.46669167e-01 2.22854570e-01 3.24985772e-01
      3.46669167e-01 3.46669167e-01 3.46669167e-01 3.35605174e-01
      3.35605174e-01 3.35605174e-01 3.35605174e-01 3.35605174e-01
      3.35605174e-01 3.35605174e-01 3.35605174e-01 3.09192747e-01
      2.46520087e-01 3.75135452e-01 3.75135452e-01 3.75135452e-01
      1.69002041e-01 3.25373620e-01 3.75135452e-01 3.75135452e-01
      3.12117457e-01 3.43880385e-01 2.97856122e-01 3.43880385e-01
      3.43880385e-01 3.43880385e-01 2.82966048e-01 3.43880385e-01
      3.43880385e-01 3.43880385e-01 3.33687991e-01 3.33687991e-01
      3.25399071e-01 3.33687991e-01 3.33687991e-01 3.33687991e-01
      3.33687991e-01 3.33687991e-01 3.33687991e-01 3.32870185e-01
      3.32870185e-01 3.32870185e-01 3.32870185e-01 3.32870185e-01
      3.32870185e-01 3.32044542e-01 3.32870185e-01 3.32870185e-01
      3.42597455e-01 3.42597455e-01 2.39985481e-01 3.42597455e-01
      3.42597455e-01 3.42597455e-01 3.42597455e-01 3.42597455e-01
      3.42597455e-01 3.44463229e-01 3.44463229e-01 3.44463229e-01
      2.59812385e-01 3.13801706e-01 3.44463229e-01 3.44463229e-01
      3.44463229e-01 3.44463229e-01 9.11236331e-02 3.60657275e-01
      4.41146821e-01 4.17863518e-01 9.89545956e-02 2.42493317e-01
      4.41146821e-01 4.41146821e-01 1.73723325e-01 3.32778692e-01
      3.32778692e-01 3.32778692e-01 3.32778692e-01 3.32778692e-01
      3.32778692e-01 3.32778692e-01 3.32778692e-01 3.32778692e-01
      3.82353306e-01 3.82353306e-01 2.04669565e-01 2.45623603e-01
      3.82353306e-01 3.82353306e-01 3.82353306e-01 1.43982261e-01
      3.77171457e-01 1.44207969e-01 2.18582183e-01 4.52404082e-01
      3.31781834e-01 8.57377872e-02 2.97280401e-01 4.52404082e-01
      4.52404082e-01 3.27250570e-01 3.34832489e-01 3.34832489e-01
      3.34832489e-01 3.34832489e-01 3.34832489e-01 3.15835625e-01
      3.34832489e-01 3.34832489e-01 3.34832489e-01</_>
    <_>
      3.32778692e-01 3.32778692e-01 3.32778692e-01 3.32778692e-01
      3.32778692e-01 3.32778692e-01 3.32778692e-01 3.32778692e-01
      3.32778692e-01 3.38978410e-01 3.38978410e-01 3.38978410e-01
      3.38978410e-01 3.38978410e-01 3.38978410e-01 3.38978410e-01
      2.78140545e-01 3.38978410e-01 3.06070656e-01 3.35962057e-01
      3.35962057e-01 3.35962057e-01 3.35962057e-01 3.35962057e-01
      3.35962057e-01 3.35962057e-01 3.35962057e-01 3.35818142e-01
      3.35818142e-01 3.35818142e-01 3.35818142e-01 3.11473489e-01
      3.31982464e-01 3.35818142e-01 3.35818142e-01 3.35818142e-01
      3.33235502e-01 3.29094559e-01 3.33235502e-01 3.33235502e-01
      3.33235502e-01 3.33235502e-01 3.33235502e-01 3.33235502e-01
      3.33235502e-01 3.04192632e-01 3.36174786e-01 3.36174786e-01
      3.36174786e-01 3.36174786e-01 3.36174786e-01 3.36174786e-01
      3.36174786e-01 3.36174786e-01 3.43932629e-01 3.43932629e-01
      3.43932629e-01 3.43932629e-01 3.43932629e-01 3.43932629e-01
      2.81563967e-01 2.98760563e-01 3.43932629e-01 3.32778692e-01
      3.32778692e-01 3.32778692e-01 3.32778692e-01 3.32778692e-01
      3.32778692e-01 3.32778692e-01 3.32778692e-01 3.32778692e-01
      3.41180801e-01 3.41180801e-01 3.41180801e-01 3.41180801e-01
      2.55648881e-01 3.41180801e-01 3.41180801e-01 3.41180801e-01
      3.41180801e-01 1.28139645e-01 2.59112418e-01 3.99761260e-01
      3.99761260e-01 3.10120165e-01 1.31253168e-01 3.99761260e-01
      3.99761260e-01 3.99761260e-01 3.32778692e-01 3.32778692e-01
      3.32778692e-01 3.32778692e-01 3.32778692e-01 3.32778692e-01
      3.32778692e-01 3.32778692e-01 3.32778692e-01 3.32778692e-01
      3.32778692e-01 3.32778692e-01 3.32778692e-01 3.32778692e-01
      3.32778692e-01 3.32778692e-01 3.32778692e-01 3.32778692e-01
      1.45847172e-01 3.98928523e-02 4.24138993e-01 4.24138993e-01
      4.13972169e-01 6.47733137e-02 2.78848141e-01 4.24138993e-01
      4.24138993e-01 3.12522799e-01 3.35220098e-01 3.35220098e-01
      3.35220098e-01 3.35220098e-01 3.35220098e-01 3.35220098e-01
      3.35220098e-01 3.35220098e-01 3.32778692e-01 3.32778692e-01
      3.32778692e-01 3.32778692e-01 3.32778692e-01 3.32778692e-01
      3.32778692e-01 3.32778692e-01 3.32778692e-01</_>
    <_>
      3.37736696e-01 3.37736696e-01 3.37736696e-01 3.37736696e-01
      2.89994806e-01 3.37736696e-01 3.37736696e-01 3.37736696e-01
      3.37736696e-01 3.32778692e-01 3.32778692e-01 3.32778692e-01
      3.32778692e-01 3.32778692e-01 3.32778692e-01 3.32778692e-01
      3.32778692e-01 3.32778692e-01 1.57205135e-01 5.78426942e-02
      4.41225857e-01 4.41225857e-01 2.85233945e-01 7.19217137e-02
      3.19814354e-01 4.41225857e-01 4.41225857e-01 3.41964841e-01
      3.41964841e-01 3.41964841e-01 3.17360252e-01 3.41964841e-01
      3.07313830e-01 3.15886527e-01 3.41964841e-01 3.41964841e-01
      3.40529174e-01 3.40529174e-01 3.40529174e-01 2.87676930e-01
      3.19560170e-01 3.40529174e-01 3.40529174e-01 3.40529174e-01
      3.40529174e-01 2.86706507e-01 2.60458976e-01 3.87432456e-01
      3.87432456e-01 2.71361500e-01 1.48099244e-01 3.87432456e-01
      3.87432456e-01 3.87432456e-01 3.32778692e-01 3.32778692e-01
      3.32778692e-01 3.32778692e-01 3.32778692e-01 3.32778692e-01
      3.32778692e-01 3.32778692e-01 3.32778692e-01 3.35182041e-01
      3.12849939e-01 3.35182041e-01 3.35182041e-01 3.35182041e-01
      3.35182041e-01 3.35182041e-01 3.35182041e-01 3.35182041e-01
      3.35545331e-01 3.35545331e-01 3.35545331e-01 3.35545331e-01
      3.35015237e-01 3.10286015e-01 3.35545331e-01 3.35545331e-01
      3.35545331e-01 3.32778692e-01 3.32778692e-01 3.32778692e-01
      3.32778692e-01 3.32778692e-01 3.32778692e-01 3.32778692e-01
      3.32778692e-01 3.32778692e-01 3.32778692e-01 3.32778692e-01
      3.32778692e-01 3.32778692e-01 3.32778692e-01 3.32778692e-01
      3.32778692e-01 3.32778692e-01 3.32778692e-01 3.42135221e-01
      3.42135221e-01 3.42135221e-01 3.42135221e-01 3.42135221e-01
      3.42135221e-01 2.45213106e-01 3.42135221e-01 3.42135221e-01
      3.45422536e-01 2.66492009e-01 3.45422536e-01 3.45422536e-01
      3.45422536e-01 3.45422536e-01 3.45422536e-01 3.00522417e-01
      3.45422536e-01 3.33460569e-01 3.33460569e-01 3.33460569e-01
      3.27262193e-01 3.33460569e-01 3.33460569e-01 3.33460569e-01
      3.33460569e-01 3.33460569e-01 3.37040365e-01 3.37040365e-01
      3.37040365e-01 2.96416730e-01 3.37040365e-01 3.37040365e-01
      3.37040365e-01 3.37040365e-01 3.37040365e-01</_>
    <_>
      3.40384781e-01 3.40384781e-01 3.40384781e-01 3.40384781e-01
      3.40384781e-01 2.64016569e-01 3.40384781e-01 3.40384781e-01
      3.40384781e-01 3.32778692e-01 3.32778692e-01 3.32778692e-01
      3.32778692e-01 3.32778692e-01 3.32778692e-01 3.32778692e-01
      3.32778692e-01 3.32778692e-01 3.32778692e-01 3.32778692e-01
      3.32778692e-01 3.32778692e-01 3.32778692e-01 3.32778692e-01
      3.32778692e-01 3.32778692e-01 3.32778692e-01 3.52729648e-01
      3.52729648e-01 3.34100246e-01 2.59258449e-01 3.52729648e-01
      3.52729648e-01 3.24371874e-01 3.00549537e-01 3.52729648e-01
      3.32778692e-01 3.32778692e-01 3.32778692e-01 3.32778692e-01
      3.32778692e-01 3.32778692e-01 3.32778692e-01 3.32778692e-01
      3.32778692e-01 3.37700874e-01 3.18058610e-01 3.11723143e-01
      3.37700874e-01 3.37700874e-01 3.37700874e-01 3.37700874e-01
      3.37700874e-01 3.37700874e-01 3.36132616e-01 3.04565787e-01
      3.36132616e-01 3.36132616e-01 3.36132616e-01 3.36132616e-01
      3.36132616e-01 3.36132616e-01 3.36132616e-01 3.32778692e-01
      3.32778692e-01 3.32778692e-01 3.32778692e-01 3.32778692e-01
      3.32778692e-01 3.32778692e-01 3.32778692e-01 3.32778692e-01
      3.32778692e-01 3.32778692e-01 3.32778692e-01 3.32778692e-01
      3.32778692e-01 3.32778692e-01 3.32778692e-01 3.32778692e-01
      3.32778692e-01 2.32160255e-01 1.73297510e-01 4.19739336e-01
      4.19739336e-01 4.19739336e-01 1.13816977e-01 1.34226665e-01
      4.19739336e-01 4.19739336e-01 3.34716469e-01 3.34716469e-01
      3.34716469e-01 3.34716469e-01 3.16819727e-01 3.34716469e-01
      3.34716469e-01 3.34716469e-01 3.34716469e-01 3.32778692e-01
      3.32778692e-01 3.32778692e-01 3.32778692e-01 3.32778692e-01
      3.32778692e-01 3.32778692e-01 3.32778692e-01 3.32778692e-01
      3.62895101e-01 2.35670477e-01 3.21709633e-01 3.62895101e-01
      3.62895101e-01 3.62895101e-01 2.17208639e-01 3.62895101e-01
      3.62895101e-01 3.33901435e-01 3.33901435e-01 3.33901435e-01
      3.33901435e-01 3.23639691e-01 3.33901435e-01 3.33901435e-01
      3.33901435e-01 3.33901435e-01 3.32778692e-01 3.32778692e-01
      3.32778692e-01 3.32778692e-01 3.32778692e-01 3.32778692e-01
      3.32778692e-01 3.32778692e-01 3.32778692e-01</_>
    <_>
      2.74143755e-01 3.54461312e-01 3.54461312e-01 3.54461312e-01
      2.77554959e-01 3.00682515e-01 3.54461312e-01 3.54461312e-01
      3.54461312e-01 3.90348881e-01 3.91639560e-01 3.91639560e-01
      3.00072104e-01 1.57806709e-01 2.98585981e-01 3.91639560e-01
      3.91639560e-01 1.61521211e-01 3.41003597e-01 3.41003597e-01
      3.41003597e-01 3.41003597e-01 3.41003597e-01 3.06510508e-01
      3.41003597e-01 2.97758549e-01 3.41003597e-01 3.32778692e-01
      3.32778692e-01 3.32778692e-01 3.32778692e-01 3.32778692e-01
      3.32778692e-01 3.32778692e-01 3.32778692e-01 3.32778692e-01
      1.93282202e-01 4.31192130e-01 4.31192130e-01 1.07849136e-01
      1.13272369e-01 4.01173800e-01 4.31192130e-01 4.31192130e-01
      1.70954823e-01 3.03356826e-01 3.76233995e-01 3.76233995e-01
      3.76233995e-01 3.22731614e-01 1.94122910e-01 3.76233995e-01
      3.76233995e-01 2.33701169e-01 3.50818127e-01 3.50818127e-01
      3.50818127e-01 3.50818127e-01 2.87032157e-01 3.50818127e-01
      3.50818127e-01 3.23406935e-01 2.66599447e-01 2.28258640e-01
      3.83652180e-01 3.83652180e-01 2.29072899e-01 1.74796551e-01
      3.53683472e-01 3.83652180e-01 3.83652180e-01 3.83652180e-01
      3.37966770e-01 3.37966770e-01 3.37966770e-01 2.87838370e-01
      3.37966770e-01 3.37966770e-01 3.37966770e-01 3.37966770e-01
      3.37966770e-01 3.38576794e-01 2.82034069e-01 3.38576794e-01
      3.38576794e-01 3.38576794e-01 3.38576794e-01 3.38576794e-01
      3.38576794e-01 3.38576794e-01 2.31646985e-01 3.61825168e-01
      3.61825168e-01 3.61825168e-01 3.43434066e-01 3.61825168e-01
      3.61825168e-01 3.61825168e-01 1.98173761e-01 3.36985976e-01
      3.36985976e-01 2.96911716e-01 3.36985976e-01 3.36985976e-01
      3.36985976e-01 3.36985976e-01 3.36985976e-01 3.36985976e-01
      3.35992545e-01 3.35992545e-01 3.35992545e-01 3.35992545e-01
      3.35992545e-01 3.35992545e-01 3.05802345e-01 3.35992545e-01
      3.35992545e-01 3.44221890e-01 3.44221890e-01 3.44221890e-01
      3.03535044e-01 3.38760108e-01 3.44221890e-01 3.44221890e-01
      3.44221890e-01 2.80600160e-01 3.39834541e-01 3.39834541e-01
      3.39834541e-01 2.69637614e-01 3.39834541e-01 3.39834541e-01
      3.39834541e-01 3.39834541e-01 3.39834541e-01</_>
    <_>
      3.32778692e-01 3.32778692e-01 3.32778692e-01 3.32778692e-01
      3.32778692e-01 3.32778692e-01 3.32778692e-01 3.32778692e-01
      3.32778692e-01 1.91458151e-01 4.31644768e-01 4.31644768e-01
      1.05784364e-01 1.20769531e-01 3.96051794e-01 4.31644768e-01
      4.31644768e-01 1.76438153e-01 3.03878725e-01 3.74917001e-01
      3.74917001e-01 3.74917001e-01 3.29252779e-01 1.92341775e-01
      3.74917001e-01 3.74917001e-01 2.35999316e-01 3.50818127e-01
      3.50818127e-01 3.50818127e-01 3.50818127e-01 2.87032157e-01
      3.50818127e-01 3.50818127e-01 3.23406935e-01 2.66599447e-01
      2.28258640e-01 3.83652180e-01 3.83652180e-01 2.29072899e-01
      1.74796551e-01 3.53683472e-01 3.83652180e-01 3.83652180e-01
      3.83652180e-01 3.37966770e-01 3.37966770e-01 3.37966770e-01
      2.87838370e-01 3.37966770e-01 3.37966770e-01 3.37966770e-01
      3.37966770e-01 3.37966770e-01 3.38576794e-01 2.82034069e-01
      3.38576794e-01 3.38576794e-01 3.38576794e-01 3.38576794e-01
      3.38576794e-01 3.38576794e-01 3.38576794e-01 2.31646985e-01
      3.61825168e-01 3.61825168e-01 3.61825168e-01 3.43434066e-01
      3.61825168e-01 3.61825168e-01 3.61825168e-01 1.98173761e-01
      3.36985976e-01 3.36985976e-01 2.96911716e-01 3.36985976e-01
      3.36985976e-01 3.36985976e-01 3.36985976e-01 3.36985976e-01
      3.36985976e-01 3.35539401e-01 3.35539401e-01 3.35539401e-01
      3.35539401e-01 3.35539401e-01 3.35539401e-01 3.09764355e-01
      3.35539401e-01 3.35539401e-01 3.45717639e-01 3.45717639e-01
      3.45717639e-01 3.15766603e-01 3.21899861e-01 3.45717639e-01
      3.45717639e-01 3.45717639e-01 2.75851130e-01 3.39849561e-01
      3.39849561e-01 3.39849561e-01 2.69486308e-01 3.39849561e-01
      3.39849561e-01 3.39849561e-01 3.39849561e-01 3.39849561e-01
      3.40081841e-01 3.25249791e-01 3.47962946e-01 3.47962946e-01
      3.16333324e-01 2.63861060e-01 3.47962946e-01 3.47962946e-01
      3.47962946e-01 3.32778692e-01 3.32778692e-01 3.32778692e-01
      3.32778692e-01 3.32778692e-01 3.32778692e-01 3.32778692e-01
      3.32778692e-01 3.32778692e-01 3.43871176e-01 3.43871176e-01
      3.43871176e-01 3.43871176e-01 3.18314791e-01 2.59823561e-01
      3.43871176e-01 3.43871176e-01 3.43871176e-01</_>
    <_>
      3.47415477e-01 3.47415477e-01 2.99439996e-01 3.47415477e-01
      3.14909667e-01 2.88983375e-01 3.47415477e-01 3.47415477e-01
      3.47415477e-01 3.32778692e-01 3.32778692e-01 3.32778692e-01
      3.32778692e-01 3.32778692e-01 3.32778692e-01 3.32778692e-01
      3.32778692e-01 3.32778692e-01 3.32778692e-01 3.32778692e-01
      3.32778692e-01 3.32778692e-01 3.32778692e-01 3.32778692e-01
      3.32778692e-01 3.32778692e-01 3.32778692e-01 3.42640996e-01
      3.42640996e-01 3.42640996e-01 3.42640996e-01 3.42640996e-01
      3.42640996e-01 3.42640996e-01 2.39486620e-01 3.42640996e-01
      3.32778692e-01 3.32778692e-01 3.32778692e-01 3.32778692e-01
      3.32778692e-01 3.32778692e-01 3.32778692e-01 3.32778692e-01
      3.32778692e-01 3.41706127e-01 3.41706127e-01 3.41706127e-01
      3.41706127e-01 3.41706127e-01 3.41706127e-01 2.49962628e-01
      3.41706127e-01 3.41706127e-01 3.53399366e-01 3.53399366e-01
      3.02429438e-01 2.93464631e-01 3.53399366e-01 3.53399366e-01
      3.53399366e-01 2.63699383e-01 3.53399366e-01 3.81071717e-01
      3.25085819e-01 1.49227723e-01 2.04458818e-01 3.81071717e-01
      3.81071717e-01 3.81071717e-01 3.16798896e-01 3.81071717e-01
      3.60375822e-01 3.17449540e-01 1.80345073e-01 3.46780658e-01
      3.60375822e-01 3.60375822e-01 3.05762351e-01 3.60375822e-01
      3.60375822e-01 3.76131207e-01 2.82271057e-01 3.76131207e-01
      3.76131207e-01 3.76131207e-01 1.95083514e-01 1.72219843e-01
      3.76131207e-01 3.76131207e-01 3.52022350e-01 3.49476397e-01
      3.52022350e-01 3.52022350e-01 3.52022350e-01 3.52022350e-01
      2.71160364e-01 2.39380315e-01 3.52022350e-01 3.32778692e-01
      3.32778692e-01 3.32778692e-01 3.32778692e-01 3.32778692e-01
      3.32778692e-01 3.32778692e-01 3.32778692e-01 3.32778692e-01
      3.70685041e-01 3.61419201e-01 3.70685041e-01 3.70685041e-01
      3.70685041e-01 2.03452021e-01 1.92600086e-01 3.16462070e-01
      3.70685041e-01 3.73362720e-01 2.17199549e-01 2.60262012e-01
      3.73362720e-01 3.73362720e-01 3.73362720e-01 3.73362720e-01
      2.12036550e-01 3.73362720e-01 3.33585262e-01 3.33585262e-01
      3.33585262e-01 3.33585262e-01 3.33585262e-01 3.33585262e-01
      3.26241881e-01 3.33585262e-01 3.33585262e-01</_>
    <_>
      3.32778692e-01 3.32778692e-01 3.32778692e-01 3.32778692e-01
      3.32778692e-01 3.32778692e-01 3.32778692e-01 3.32778692e-01
      3.32778692e-01 3.32778692e-01 3.32778692e-01 3.32778692e-01
      3.32778692e-01 3.32778692e-01 3.32778692e-01 3.32778692e-01
      3.32778692e-01 3.32778692e-01 3.40173781e-01 3.21254134e-01
      3.40173781e-01 3.40173781e-01 3.40173781e-01 3.40173781e-01
      3.40173781e-01 2.88737684e-01 3.40173781e-01 3.51941496e-01
      3.00430924e-01 3.49695116e-01 3.51941496e-01 3.51941496e-01
      3.51941496e-01 2.96142966e-01 2.77350843e-01 3.51941496e-01
      3.35379839e-01 3.35379839e-01 3.35379839e-01 3.35379839e-01
      3.35379839e-01 3.11146230e-01 3.35379839e-01 3.35379839e-01
      3.35379839e-01 3.36855620e-01 3.36855620e-01 3.36855620e-01
      3.36855620e-01 3.36855620e-01 3.36855620e-01 3.36855620e-01
      2.98095405e-01 3.36855620e-01 3.45623463e-01 2.96517015e-01
      2.69138336e-01 3.45623463e-01 3.45623463e-01 3.45623463e-01
      3.45623463e-01 3.45623463e-01 3.45623463e-01 3.85337204e-01
      1.74070939e-01 1.91264823e-01 3.55682641e-01 3.85337204e-01
      3.85337204e-01 2.45628670e-01 3.85337204e-01 3.85337204e-01
      3.45718473e-01 3.45711231e-01 2.71818519e-01 3.45718473e-01
      3.45718473e-01 3.45718473e-01 2.93286145e-01 3.45718473e-01
      3.45718473e-01 3.36979091e-01 2.96974808e-01 3.36979091e-01
      3.36979091e-01 3.36979091e-01 3.36979091e-01 3.36979091e-01
      3.36979091e-01 3.36979091e-01 3.41994315e-01 3.41994315e-01
      3.41994315e-01 3.41994315e-01 3.41994315e-01 2.46783882e-01
      3.41994315e-01 3.41994315e-01 3.41994315e-01 3.84619027e-01
      3.84619027e-01 2.10181683e-01 3.50444764e-01 3.84619027e-01
      3.84619027e-01 2.11526290e-01 2.11582735e-01 3.84619027e-01
      3.32778692e-01 3.32778692e-01 3.32778692e-01 3.32778692e-01
      3.32778692e-01 3.32778692e-01 3.32778692e-01 3.32778692e-01
      3.32778692e-01 3.35534871e-01 3.35534871e-01 3.35534871e-01
      3.09803873e-01 3.35534871e-01 3.35534871e-01 3.35534871e-01
      3.35534871e-01 3.35534871e-01 3.55027169e-01 2.23290518e-01
      3.50506067e-01 2.59757936e-01 3.55027169e-01 3.55027169e-01
      3.55027169e-01 3.55027169e-01 3.55027169e-01</_>
    <_>
      3.44739109e-01 3.44739109e-01 3.44739109e-01 3.44739109e-01
      3.44739109e-01 3.44739109e-01 3.44739109e-01 3.44739109e-01
      2.13998318e-01 3.32778692e-01 3.32778692e-01 3.32778692e-01
      3.32778692e-01 3.32778692e-01 3.32778692e-01 3.32778692e-01
      3.32778692e-01 3.32778692e-01 3.34196299e-01 3.34196299e-01
      3.34196299e-01 3.34196299e-01 3.34196299e-01 3.34196299e-01
      3.34196299e-01 3.21190566e-01 3.34196299e-01 3.46174389e-01
      3.51799101e-01 3.51799101e-01 3.51799101e-01 3.51799101e-01
      3.51799101e-01 3.51799101e-01 2.98187435e-01 2.12501585e-01
      3.37567121e-01 3.37567121e-01 3.37567121e-01 3.37567121e-01
      3.37567121e-01 3.37567121e-01 2.91572630e-01 3.37567121e-01
      3.37567121e-01 3.19047421e-01 2.14588046e-01 3.63641441e-01
      3.63641441e-01 3.63641441e-01 2.34770283e-01 3.63641441e-01
      3.63641441e-01 3.63641441e-01 3.43269825e-01 3.43269825e-01
      2.82048285e-01 3.43269825e-01 3.43269825e-01 3.43269825e-01
      3.43269825e-01 3.03611636e-01 3.43269825e-01 4.26376015e-01
      1.45115510e-01 1.00750171e-01 3.41733485e-01 4.26376015e-01
      4.26376015e-01 2.46271715e-01 2.44773805e-01 4.26376015e-01
      3.75142157e-01 3.21568578e-01 2.13089481e-01 3.62078905e-01
      3.75142157e-01 3.35782826e-01 2.21787825e-01 3.63597006e-01
      3.75142157e-01 3.41241539e-01 2.54998922e-01 3.41241539e-01
      3.41241539e-01 3.41241539e-01 3.41241539e-01 3.41241539e-01
      3.41241539e-01 3.41241539e-01 3.37105602e-01 3.37105602e-01
      3.37105602e-01 3.37105602e-01 3.37105602e-01 3.37105602e-01
      2.95821488e-01 3.37105602e-01 3.37105602e-01 3.34042341e-01
      3.22471976e-01 3.34042341e-01 3.34042341e-01 3.34042341e-01
      3.34042341e-01 3.34042341e-01 3.34042341e-01 3.34042341e-01
      2.32751682e-01 3.24346781e-01 3.45826238e-01 3.45826238e-01
      3.45826238e-01 3.45826238e-01 3.45826238e-01 3.45826238e-01
      3.45826238e-01 3.51619631e-01 3.51619631e-01 2.40031138e-01
      3.51619631e-01 3.51619631e-01 3.51619631e-01 3.51619631e-01
      3.51619631e-01 2.70956367e-01 3.38767856e-01 3.38767856e-01
      3.38767856e-01 3.38767856e-01 3.33570808e-01 2.86356777e-01
      3.38767856e-01 3.38767856e-01 3.38767856e-01</_>
    <_>
      3.32778692e-01 3.32778692e-01 3.32778692e-01 3.32778692e-01
      3.32778692e-01 3.32778692e-01 3.32778692e-01 3.32778692e-01
      3.32778692e-01 3.34047765e-01 3.34047765e-01 3.34047765e-01
      3.34047765e-01 3.34047765e-01 3.34047765e-01 3.34047765e-01
      3.22426826e-01 3.34047765e-01 3.40256661e-01 3.25771004e-01
      3.40256661e-01 3.40256661e-01 3.40256661e-01 3.40256661e-01
      2.82933444e-01 3.40256661e-01 3.40256661e-01 3.37258607e-01
      3.37258607e-01 3.37258607e-01 3.37258607e-01 3.37258607e-01
      3.37258607e-01 2.94420183e-01 3.37258607e-01 3.37258607e-01
      3.19892257e-01 2.19242021e-01 3.63080293e-01 3.63080293e-01
      3.63080293e-01 2.34543607e-01 3.63080293e-01 3.63080293e-01
      3.63080293e-01 3.33172113e-01 3.33172113e-01 3.29608768e-01
      3.33172113e-01 3.33172113e-01 3.33172113e-01 3.33172113e-01
      3.33172113e-01 3.33172113e-01 4.26198691e-01 1.45191535e-01
      1.01954773e-01 3.40816945e-01 4.26198691e-01 4.26198691e-01
      2.50467747e-01 2.42478088e-01 4.26198691e-01 3.74853909e-01
      3.18146944e-01 2.06069216e-01 3.71814370e-01 3.74853909e-01
      3.36640716e-01 2.20059469e-01 3.61977220e-01 3.74853909e-01
      3.77027243e-01 1.95702374e-01 1.78277478e-01 3.17422122e-01
      3.77027243e-01 3.77027243e-01 3.77027243e-01 3.38595062e-01
      3.77027243e-01 3.36728513e-01 3.36728513e-01 3.36728513e-01
      3.36728513e-01 3.36728513e-01 3.36728513e-01 2.99243927e-01
      3.36728513e-01 3.36728513e-01 3.34224194e-01 3.25656891e-01
      3.29647452e-01 3.34224194e-01 3.34224194e-01 3.34224194e-01
      3.34224194e-01 3.34224194e-01 3.34224194e-01 3.83504868e-01
      3.83504868e-01 2.49248549e-01 3.83504868e-01 3.83504868e-01
      3.83504868e-01 1.45934656e-01 1.74043462e-01 3.83504868e-01
      3.51959288e-01 3.51959288e-01 2.43076548e-01 3.51959288e-01
      3.51959288e-01 3.51959288e-01 3.51959288e-01 3.51959288e-01
      2.65084982e-01 3.38725805e-01 3.38725805e-01 3.38725805e-01
      3.38725805e-01 3.33868921e-01 2.86358207e-01 3.38725805e-01
      3.38725805e-01 3.38725805e-01 3.34519029e-01 3.34519029e-01
      3.34519029e-01 3.34519029e-01 3.34519029e-01 3.34519029e-01
      3.18486810e-01 3.34519029e-01 3.34519029e-01</_>
    <_>
      3.40594023e-01 3.06428790e-01 3.40594023e-01 3.40594023e-01
      3.40594023e-01 3.40594023e-01 3.01111788e-01 3.40594023e-01
      3.40594023e-01 3.39299679e-01 3.39299679e-01 2.74983048e-01
      3.39299679e-01 3.39299679e-01 3.39299679e-01 3.39299679e-01
      3.39299679e-01 3.39299679e-01 3.33719581e-01 3.33719581e-01
      3.33719581e-01 3.33719581e-01 3.33719581e-01 3.25139284e-01
      3.33719581e-01 3.33719581e-01 3.33719581e-01 3.42903078e-01
      3.42903078e-01 3.03790748e-01 2.84969419e-01 3.42903078e-01
      3.42903078e-01 3.42903078e-01 3.42903078e-01 3.42903078e-01
      3.47039521e-01 3.47039521e-01 3.47039521e-01 3.47039521e-01
      3.47039521e-01 2.45119557e-01 3.05604547e-01 3.47039521e-01
      3.47039521e-01 3.80821973e-01 2.66805053e-01 2.10386142e-01
      3.80821973e-01 3.80821973e-01 3.80821973e-01 2.87698954e-01
      2.69908518e-01 3.80821973e-01 3.79619569e-01 2.34468877e-01
      2.15683758e-01 3.79619569e-01 3.79619569e-01 3.79619569e-01
      2.90799350e-01 2.99321055e-01 3.79619569e-01 3.67118001e-01
      3.20942193e-01 1.50641426e-01 3.67118001e-01 2.85703033e-01
      3.67118001e-01 3.39309573e-01 3.67118001e-01 3.67118001e-01
      3.39173108e-01 3.39173108e-01 3.39173108e-01 3.39173108e-01
      3.39173108e-01 3.39173108e-01 2.76231676e-01 3.39173108e-01
      3.39173108e-01 3.32778692e-01 3.32778692e-01 3.32778692e-01
      3.32778692e-01 3.32778692e-01 3.32778692e-01 3.32778692e-01
      3.32778692e-01 3.32778692e-01 3.65547150e-01 3.65547150e-01
      3.65547150e-01 3.65547150e-01 3.65547150e-01 2.22492978e-01
      2.95677245e-01 2.40148634e-01 3.65547150e-01 4.05502051e-01
      2.58536726e-01 2.72662520e-01 3.05619687e-01 4.05502051e-01
      4.05502051e-01 2.57795066e-01 1.92805246e-01 4.05502051e-01
      3.37514490e-01 3.37514490e-01 3.37514490e-01 3.37514490e-01
      3.37514490e-01 3.37514490e-01 2.92060792e-01 3.37514490e-01
      3.37514490e-01 3.32778692e-01 3.32778692e-01 3.32778692e-01
      3.32778692e-01 3.32778692e-01 3.32778692e-01 3.32778692e-01
      3.32778692e-01 3.32778692e-01 3.32778692e-01 3.32778692e-01
      3.32778692e-01 3.32778692e-01 3.32778692e-01 3.32778692e-01
      3.32778692e-01 3.32778692e-01 3.32778692e-01</_>
    <_>
      3.32872003e-01 3.32872003e-01 3.32872003e-01 3.32872003e-01
      3.32872003e-01 3.32029939e-01 3.32872003e-01 3.32872003e-01
      3.32872003e-01 3.32778692e-01 3.32778692e-01 3.32778692e-01
      3.32778692e-01 3.32778692e-01 3.32778692e-01 3.32778692e-01
      3.32778692e-01 3.32778692e-01 3.37350100e-01 3.37350100e-01
      3.37350100e-01 3.37350100e-01 2.93578953e-01 3.37350100e-01
      3.37350100e-01 3.37350100e-01 3.37350100e-01 3.36087763e-01
      3.36087763e-01 3.36087763e-01 3.14165294e-01 3.27501535e-01
      3.36087763e-01 3.36087763e-01 3.36087763e-01 3.36087763e-01
      3.55009556e-01 2.91589081e-01 2.50250906e-01 3.04323077e-01
      3.55009556e-01 3.55009556e-01 3.55009556e-01 3.55009556e-01
      3.55009556e-01 3.43215168e-01 2.76513070e-01 3.09087336e-01
      3.43215168e-01 3.43215168e-01 3.43215168e-01 3.43215168e-01
      3.43215168e-01 3.43215168e-01 3.47728014e-01 3.47728014e-01
      3.08957338e-01 3.47728014e-01 3.47728014e-01 3.47728014e-01
      3.19554090e-01 2.71049410e-01 3.47728014e-01 3.64706606e-01
      3.42952877e-01 2.55982220e-01 3.64706606e-01 3.64706606e-01
      3.64706606e-01 2.29891539e-01 3.08720142e-01 3.64706606e-01
      4.06967849e-01 1.58577889e-01 1.55063406e-01 4.06967849e-01
      4.06967849e-01 4.06967849e-01 1.24747649e-01 3.21040124e-01
      4.06967849e-01 3.50012630e-01 3.50012630e-01 3.50012630e-01
      3.50012630e-01 3.50012630e-01 3.50012630e-01 2.53118366e-01
      2.73627847e-01 3.50012630e-01 3.44993681e-01 3.35580111e-01
      3.17340702e-01 3.44993681e-01 3.44993681e-01 3.44993681e-01
      3.44993681e-01 2.62887746e-01 3.44993681e-01 3.30582172e-01
      3.42745841e-01 3.42745841e-01 2.98922539e-01 3.19405079e-01
      3.42745841e-01 3.29458714e-01 3.42745841e-01 3.42745841e-01
      3.32778692e-01 3.32778692e-01 3.32778692e-01 3.32778692e-01
      3.32778692e-01 3.32778692e-01 3.32778692e-01 3.32778692e-01
      3.32778692e-01 3.35637748e-01 3.35637748e-01 3.35637748e-01
      3.35637748e-01 3.35637748e-01 3.35637748e-01 3.35637748e-01
      3.08909535e-01 3.35637748e-01 3.40019554e-01 3.40019554e-01
      3.40019554e-01 3.40019554e-01 3.40019554e-01 3.40019554e-01
      3.02633852e-01 3.40019554e-01 3.09390038e-01</_>
    <_>
      3.34382266e-01 3.34382266e-01 3.34382266e-01 3.19635540e-01
      3.34382266e-01 3.34382266e-01 3.34382266e-01 3.34382266e-01
      3.34382266e-01 3.36651266e-01 3.36651266e-01 3.36651266e-01
      3.36651266e-01 3.36651266e-01 3.36651266e-01 3.36651266e-01
      3.36651266e-01 2.99939305e-01 3.49303126e-01 3.49303126e-01
      3.49303126e-01 3.49303126e-01 3.49303126e-01 2.74144083e-01
      2.59357661e-01 3.49303126e-01 3.49303126e-01 3.56055737e-01
      3.56055737e-01 2.61148185e-01 3.56055737e-01 3.56055737e-01
      3.56055737e-01 3.13177288e-01 2.63647884e-01 3.56055737e-01
      3.95767242e-01 3.57152104e-01 1.25483513e-01 2.37671450e-01
      3.95767242e-01 3.95767242e-01 3.95767242e-01 2.20984384e-01
      3.47697973e-01 3.82247776e-01 2.12609321e-01 2.30287060e-01
      3.82247776e-01 3.82247776e-01 3.82247776e-01 2.61808068e-01
      3.14382285e-01 3.82247776e-01 3.41844440e-01 3.41844440e-01
      3.41844440e-01 3.29221636e-01 3.41844440e-01 3.41844440e-01
      3.41844440e-01 2.64941961e-01 3.41844440e-01 3.41015428e-01
      3.41015428e-01 3.41015428e-01 3.41015428e-01 3.41015428e-01
      3.41015428e-01 3.41015428e-01 2.57411063e-01 3.41015428e-01
      4.62007344e-01 8.33386928e-02 8.20362717e-02 3.56864840e-01
      4.62007344e-01 3.79064500e-01 1.66726753e-01 2.06197664e-01
      4.62007344e-01 3.68876904e-01 3.68876904e-01 3.68876904e-01
      2.74688780e-01 3.68876904e-01 3.56665343e-01 1.73067451e-01
      2.88699687e-01 3.68876904e-01 3.23092341e-01 3.01440984e-01
      3.38349789e-01 3.38349789e-01 3.38349789e-01 3.38349789e-01
      3.38349789e-01 3.38349789e-01 3.38349789e-01 3.32778692e-01
      3.32778692e-01 3.32778692e-01 3.32778692e-01 3.32778692e-01
      3.32778692e-01 3.32778692e-01 3.32778692e-01 3.32778692e-01
      3.52007478e-01 3.52007478e-01 3.34789157e-01 1.94316804e-01
      3.52007478e-01 3.52007478e-01 3.21223974e-01 3.52007478e-01
      3.52007478e-01 3.32778692e-01 3.32778692e-01 3.32778692e-01
      3.32778692e-01 3.32778692e-01 3.32778692e-01 3.32778692e-01
      3.32778692e-01 3.32778692e-01 3.50526541e-01 3.50526541e-01
      3.50526541e-01 2.38562256e-01 3.50526541e-01 3.50526541e-01
      3.50526541e-01 2.81964332e-01 3.50526541e-01</_>
    <_>
      3.38443846e-01 3.38443846e-01 3.38443846e-01 3.38443846e-01
      3.38443846e-01 3.38443846e-01 3.38443846e-01 3.38443846e-01
      2.83309907e-01 3.48702073e-01 3.48702073e-01 3.48702073e-01
      3.48702073e-01 3.48702073e-01 2.85176367e-01 2.53058463e-01
      3.48702073e-01 3.48702073e-01 3.45102161e-01 3.45102161e-01
      3.45102161e-01 3.45102161e-01 3.45102161e-01 2.09255353e-01
      3.45102161e-01 3.45102161e-01 3.45102161e-01 3.95617813e-01
      3.58284563e-01 1.30791545e-01 2.36979917e-01 3.95617813e-01
      3.95617813e-01 3.95617813e-01 2.20677152e-01 3.45921934e-01
      3.83427709e-01 2.16356218e-01 2.22551093e-01 3.83427709e-01
      3.83427709e-01 3.83427709e-01 2.58011431e-01 3.13331366e-01
      3.83427709e-01 3.50143194e-01 2.26567477e-01 3.50143194e-01
      3.50143194e-01 3.50143194e-01 3.50143194e-01 2.94901699e-01
      3.50143194e-01 3.50143194e-01 3.41019154e-01 3.41019154e-01
      3.41019154e-01 3.41019154e-01 3.41019154e-01 3.41019154e-01
      3.41019154e-01 2.57371902e-01 3.41019154e-01 4.61844265e-01
      8.31392929e-02 7.48352259e-02 3.59400392e-01 4.61844265e-01
      3.80669504e-01 1.63529336e-01 2.05315039e-01 4.61844265e-01
      3.32778692e-01 3.32778692e-01 3.32778692e-01 3.32778692e-01
      3.32778692e-01 3.32778692e-01 3.32778692e-01 3.32778692e-01
      3.32778692e-01 3.23530018e-01 3.00891310e-01 3.38359922e-01
      3.38359922e-01 3.38359922e-01 3.38359922e-01 3.38359922e-01
      3.38359922e-01 3.38359922e-01 3.32778692e-01 3.32778692e-01
      3.32778692e-01 3.32778692e-01 3.32778692e-01 3.32778692e-01
      3.32778692e-01 3.32778692e-01 3.32778692e-01 3.38714093e-01
      3.38714093e-01 3.38714093e-01 3.38714093e-01 3.38714093e-01
      3.38714093e-01 3.38714093e-01 2.80709475e-01 3.38714093e-01
      3.32778692e-01 3.32778692e-01 3.32778692e-01 3.32778692e-01
      3.32778692e-01 3.32778692e-01 3.32778692e-01 3.32778692e-01
      3.32778692e-01 3.50314736e-01 3.50314736e-01 3.50314736e-01
      2.38218442e-01 3.50314736e-01 3.50314736e-01 3.50314736e-01
      2.84093082e-01 3.50314736e-01 3.32778692e-01 3.32778692e-01
      3.32778692e-01 3.32778692e-01 3.32778692e-01 3.32778692e-01
      3.32778692e-01 3.32778692e-01 3.32778692e-01</_>
    <_>
      3.42339754e-01 3.42339754e-01 3.42339754e-01 3.42339754e-01
      3.42339754e-01 3.42339754e-01 2.42914319e-01 3.42339754e-01
      3.42339754e-01 3.34399372e-01 3.34399372e-01 3.34399372e-01
      3.34399372e-01 3.34399372e-01 3.34399372e-01 3.34399372e-01
      3.19492012e-01 3.34399372e-01 3.62749755e-01 3.29146177e-01
      2.33765304e-01 3.62749755e-01 3.62749755e-01 3.62749755e-01
      3.27692807e-01 2.60907918e-01 3.62749755e-01 3.65029663e-01
      3.65029663e-01 3.06624502e-01 2.02941731e-01 3.65029663e-01
      3.65029663e-01 2.95411587e-01 3.28097373e-01 3.65029663e-01
      3.57089698e-01 3.02454352e-01 2.29485914e-01 3.57089698e-01
      3.57089698e-01 3.57089698e-01 3.33068013e-01 3.22165310e-01
      3.57089698e-01 3.49588335e-01 3.40231240e-01 3.49588335e-01
      3.49588335e-01 3.49588335e-01 2.66262680e-01 2.81735659e-01
      3.49588335e-01 3.45570445e-01 4.17985737e-01 7.76485726e-02
      1.39077932e-01 4.17985737e-01 4.17985737e-01 4.17985737e-01
      2.66347408e-01 1.61093757e-01 4.17985737e-01 3.46069843e-01
      3.19524407e-01 3.46069843e-01 3.46069843e-01 3.46069843e-01
      2.48314217e-01 3.37935746e-01 3.46069843e-01 3.46069843e-01
      3.57266665e-01 2.58415073e-01 2.86359102e-01 3.57266665e-01
      3.57266665e-01 3.57266665e-01 3.57266665e-01 2.86030978e-01
      3.57266665e-01 3.36998194e-01 3.36998194e-01 3.36998194e-01
      3.36998194e-01 3.10354620e-01 3.36998194e-01 3.24558944e-01
      3.36998194e-01 3.36998194e-01 3.32833022e-01 3.32343251e-01
      3.32833022e-01 3.32833022e-01 3.32833022e-01 3.32833022e-01
      3.32833022e-01 3.32833022e-01 3.32833022e-01 3.32778692e-01
      3.32778692e-01 3.32778692e-01 3.32778692e-01 3.32778692e-01
      3.32778692e-01 3.32778692e-01 3.32778692e-01 3.32778692e-01
      3.39491159e-01 3.39491159e-01 3.39491159e-01 3.39491159e-01
      3.39491159e-01 3.17448705e-01 2.98420459e-01 3.39491159e-01
      3.39491159e-01 3.32778692e-01 3.32778692e-01 3.32778692e-01
      3.32778692e-01 3.32778692e-01 3.32778692e-01 3.32778692e-01
      3.32778692e-01 3.32778692e-01 3.32778692e-01 3.32778692e-01
      3.32778692e-01 3.32778692e-01 3.32778692e-01 3.32778692e-01
      3.32778692e-01 3.32778692e-01 3.32778692e-01</_>
    <_>
      3.45041603e-01 3.45041603e-01 3.45041603e-01 3.45041603e-01
      3.45041603e-01 3.45041603e-01 2.96425223e-01 2.74424613e-01
      3.45041603e-01 2.78106183e-01 3.38981956e-01 3.38981956e-01
      3.38981956e-01 3.38981956e-01 3.38981956e-01 3.38981956e-01
      3.38981956e-01 3.38981956e-01 2.85063267e-01 3.67166340e-01
      3.67166340e-01 3.67166340e-01 2.77217090e-01 1.71332166e-01
      3.67166340e-01 3.67166340e-01 3.67166340e-01 3.46508592e-01
      3.21001083e-01 2.30258122e-01 3.46508592e-01 3.46508592e-01
      3.46508592e-01 3.46508592e-01 3.46508592e-01 3.46508592e-01
      3.54185551e-01 3.54185551e-01 2.33399943e-01 3.54185551e-01
      3.54185551e-01 3.54185551e-01 3.32757235e-01 2.80310631e-01
      3.54185551e-01 4.24191326e-01 1.32343441e-01 2.40335077e-01
      2.66759098e-01 4.24191326e-01 4.24191326e-01 1.19129591e-01
      3.39678258e-01 4.24191326e-01 3.54804546e-01 3.54804546e-01
      2.69009650e-01 3.24267775e-01 3.54804546e-01 3.54804546e-01
      2.98363596e-01 3.16997439e-01 3.54804546e-01 3.89992863e-01
      2.58012474e-01 2.23401964e-01 3.89992863e-01 3.89992863e-01
      3.89992863e-01 2.86056995e-01 1.93194911e-01 3.89992863e-01
      3.57322931e-01 3.26896191e-01 1.62321106e-01 3.57322931e-01
      3.57322931e-01 3.57294083e-01 3.57322931e-01 3.11710358e-01
      3.57322931e-01 3.41715574e-01 3.41715574e-01 3.41715574e-01
      3.41715574e-01 3.12673926e-01 3.41715574e-01 3.41715574e-01
      3.41715574e-01 2.85366774e-01 3.36578161e-01 3.36578161e-01
      3.36578161e-01 3.36578161e-01 3.36578161e-01 3.36578161e-01
      3.00596237e-01 3.36578161e-01 3.36578161e-01 3.37636560e-01
      3.37636560e-01 2.90927500e-01 3.37636560e-01 3.37636560e-01
      3.37636560e-01 3.37636560e-01 3.37636560e-01 3.37636560e-01
      3.33131939e-01 3.33131939e-01 3.33131939e-01 3.29933733e-01
      3.33131939e-01 3.33131939e-01 3.33131939e-01 3.33131939e-01
      3.33131939e-01 3.32778692e-01 3.32778692e-01 3.32778692e-01
      3.32778692e-01 3.32778692e-01 3.32778692e-01 3.32778692e-01
      3.32778692e-01 3.32778692e-01 3.40703577e-01 3.40703577e-01
      3.40703577e-01 3.40703577e-01 3.40703577e-01 3.40703577e-01
      3.40703577e-01 2.60699868e-01 3.40703577e-01</_>
    <_>
      3.32048625e-01 3.32741886e-01 3.15261781e-01 3.39094371e-01
      3.39094371e-01 3.18313688e-01 3.39094371e-01 3.39094371e-01
      3.39094371e-01 3.32778692e-01 3.32778692e-01 3.32778692e-01
      3.32778692e-01 3.32778692e-01 3.32778692e-01 3.32778692e-01
      3.32778692e-01 3.32778692e-01 3.44110966e-01 3.44110966e-01
      3.44110966e-01 3.21632832e-01 3.44110966e-01 3.44110966e-01
      3.44110966e-01 2.53431857e-01 3.44110966e-01 3.37259173e-01
      3.37259173e-01 3.37259173e-01 2.94414937e-01 3.37259173e-01
      3.37259173e-01 3.37259173e-01 3.37259173e-01 3.37259173e-01
      3.41819704e-01 3.41819704e-01 2.63866872e-01 3.41819704e-01
      3.41819704e-01 3.41819704e-01 3.36520433e-01 3.35661680e-01
      3.41819704e-01 3.58598053e-01 2.69963592e-01 2.91589022e-01
      3.47178519e-01 3.58598053e-01 3.58598053e-01 3.42863590e-01
      2.93350071e-01 3.58598053e-01 4.02704388e-01 2.36121953e-01
      2.40814492e-01 4.02704388e-01 4.02704388e-01 4.02704388e-01
      2.12001562e-01 1.62582427e-01 4.02704388e-01 3.35555136e-01
      3.29031080e-01 3.16551834e-01 3.35555136e-01 3.35555136e-01
      3.35555136e-01 3.35555136e-01 3.35555136e-01 3.35555136e-01
      3.58941734e-01 3.58941734e-01 3.58941734e-01 3.58941734e-01
      3.58941734e-01 2.12652251e-01 2.61664927e-01 3.31193835e-01
      3.58941734e-01 3.36545765e-01 3.36545765e-01 3.36545765e-01
      3.36545765e-01 3.36545765e-01 3.36545765e-01 3.36545765e-01
      3.00886989e-01 3.36545765e-01 3.47052336e-01 3.47052336e-01
      3.47052336e-01 2.69482344e-01 3.47052336e-01 3.47052336e-01
      3.13185751e-01 3.21176767e-01 3.47052336e-01 3.51292104e-01
      3.51292104e-01 3.51292104e-01 2.99788952e-01 3.51292104e-01
      3.51292104e-01 3.51292104e-01 2.06818059e-01 3.51292104e-01
      3.41727942e-01 3.41727942e-01 3.41727942e-01 3.41727942e-01
      3.41727942e-01 2.70152181e-01 3.25818151e-01 3.41727942e-01
      3.41727942e-01 3.00732255e-01 3.36563051e-01 3.36563051e-01
      3.36563051e-01 3.36563051e-01 3.36563051e-01 3.36563051e-01
      3.36563051e-01 3.36563051e-01 3.45159501e-01 3.45159501e-01
      2.99792796e-01 2.75136560e-01 3.40830028e-01 3.45159501e-01
      3.45159501e-01 3.45159501e-01 3.45159501e-01</_>
    <_>
      3.02017778e-01 3.43479067e-01 3.43479067e-01 3.43479067e-01
      2.81972289e-01 3.43479067e-01 3.43479067e-01 3.43479067e-01
      3.43479067e-01 3.44893456e-01 3.44893456e-01 3.44893456e-01
      2.79976904e-01 3.44893456e-01 3.44893456e-01 3.44893456e-01
      3.44893456e-01 2.92415142e-01 2.68375486e-01 3.39959174e-01
      3.39959174e-01 3.39959174e-01 3.39959174e-01 3.39959174e-01
      3.39959174e-01 3.39959174e-01 3.39959174e-01 3.53623390e-01
      3.53623390e-01 3.53623390e-01 2.80871958e-01 3.53623390e-01
      3.53623390e-01 3.53623390e-01 2.05502436e-01 3.53623390e-01
      2.12156668e-01 3.59873414e-01 3.59873414e-01 3.59873414e-01
      3.20919305e-01 3.59873414e-01 3.59873414e-01 3.59873414e-01
      2.67117023e-01 3.32778692e-01 3.32778692e-01 3.32778692e-01
      3.32778692e-01 3.32778692e-01 3.32778692e-01 3.32778692e-01
      3.32778692e-01 3.32778692e-01 3.32778692e-01 3.32778692e-01
      3.32778692e-01 3.32778692e-01 3.32778692e-01 3.32778692e-01
      3.32778692e-01 3.32778692e-01 3.32778692e-01 3.33478540e-01
      3.33478540e-01 3.33478540e-01 3.27115357e-01 3.33478540e-01
      3.33478540e-01 3.33478540e-01 3.33478540e-01 3.33478540e-01
      3.32778692e-01 3.32778692e-01 3.32778692e-01 3.32778692e-01
      3.32778692e-01 3.32778692e-01 3.32778692e-01 3.32778692e-01
      3.32778692e-01 1.22167550e-01 3.70416403e-01 3.70416403e-01
      3.70416403e-01 3.70416403e-01 3.70416403e-01 3.70416403e-01
      3.70416403e-01 1.44623935e-01 3.64355564e-01 3.64355564e-01
      3.64355564e-01 3.64355564e-01 2.25031957e-01 1.28201634e-01
      3.64355564e-01 3.64355564e-01 3.64355564e-01 2.21874163e-01
      3.44117284e-01 3.44117284e-01 3.44117284e-01 3.44117284e-01
      3.44117284e-01 3.44117284e-01 3.44117284e-01 3.44117284e-01
      2.46903092e-01 3.45968097e-01 3.45968097e-01 3.12609553e-01
      3.45968097e-01 3.45968097e-01 3.45968097e-01 3.45968097e-01
      3.45968097e-01 1.83289304e-01 3.63529414e-01 3.63529414e-01
      3.63529414e-01 3.36424619e-01 2.38054439e-01 3.63529414e-01
      3.63529414e-01 3.63529414e-01 2.24672481e-01 3.54368389e-01
      3.54368389e-01 3.54368389e-01 2.58733869e-01 3.54368389e-01
      3.54368389e-01 3.54368389e-01 3.54368389e-01</_>
    <_>
      3.35342675e-01 3.35342675e-01 3.35342675e-01 3.11467081e-01
      3.35342675e-01 3.35342675e-01 3.35342675e-01 3.35342675e-01
      3.35342675e-01 2.41781846e-01 3.75636429e-01 3.75636429e-01
      3.75636429e-01 2.83465058e-01 3.75636429e-01 3.75636429e-01
      3.48877639e-01 1.73801973e-01 3.32778692e-01 3.32778692e-01
      3.32778692e-01 3.32778692e-01 3.32778692e-01 3.32778692e-01
      3.32778692e-01 3.32778692e-01 3.32778692e-01 3.18978429e-01
      3.62918079e-01 3.62918079e-01 3.03718746e-01 3.62918079e-01
      3.62918079e-01 3.62918079e-01 3.25680822e-01 1.94334999e-01
      1.54695094e-01 1.74186915e-01 3.70732784e-01 3.70732784e-01
      3.70732784e-01 3.70732784e-01 3.70732784e-01 3.70732784e-01
      3.42589349e-01 3.39098036e-01 3.39098036e-01 3.39098036e-01
      3.39098036e-01 2.76969463e-01 3.39098036e-01 3.39098036e-01
      3.39098036e-01 3.39098036e-01 3.32778692e-01 3.32778692e-01
      3.32778692e-01 3.32778692e-01 3.32778692e-01 3.32778692e-01
      3.32778692e-01 3.32778692e-01 3.32778692e-01 3.34539503e-01
      3.34539503e-01 3.34539503e-01 3.34539503e-01 3.34539503e-01
      3.34539503e-01 3.18314403e-01 3.34539503e-01 3.34539503e-01
      3.39386314e-01 2.74124920e-01 3.39386314e-01 3.39386314e-01
      3.39386314e-01 3.39386314e-01 3.39386314e-01 3.39386314e-01
      3.39386314e-01 2.64359027e-01 3.40351611e-01 3.40351611e-01
      3.40351611e-01 3.40351611e-01 3.40351611e-01 3.40351611e-01
      3.40351611e-01 3.40351611e-01 3.35372448e-01 3.35372448e-01
      3.35372448e-01 3.11210245e-01 3.35372448e-01 3.35372448e-01
      3.35372448e-01 3.35372448e-01 3.35372448e-01 3.32778692e-01
      3.32778692e-01 3.32778692e-01 3.32778692e-01 3.32778692e-01
      3.32778692e-01 3.32778692e-01 3.32778692e-01 3.32778692e-01
      3.32778692e-01 3.32778692e-01 3.32778692e-01 3.32778692e-01
      3.32778692e-01 3.32778692e-01 3.32778692e-01 3.32778692e-01
      3.32778692e-01 1.28007933e-01 4.05929655e-01 4.05929655e-01
      2.42306620e-01 2.86671460e-01 4.05929655e-01 4.05929655e-01
      4.05929655e-01 1.21537246e-01 3.32778692e-01 3.32778692e-01
      3.32778692e-01 3.32778692e-01 3.32778692e-01 3.32778692e-01
      3.32778692e-01 3.32778692e-01 3.32778692e-01</_>
    <_>
      3.23960930e-01 3.45109224e-01 3.45109224e-01 3.45109224e-01
      3.45109224e-01 3.45109224e-01 3.45109224e-01 3.45109224e-01
      2.40621179e-01 3.25651884e-01 3.72367442e-01 3.72367442e-01
      3.72367442e-01 1.84311926e-01 2.79518247e-01 3.72367442e-01
      3.72367442e-01 2.91275978e-01 3.33547890e-01 3.33547890e-01
      3.33547890e-01 3.26548606e-01 3.33547890e-01 3.33547890e-01
      3.33547890e-01 3.33547890e-01 3.33547890e-01 3.53712171e-01
      3.53712171e-01 3.53712171e-01 2.73209423e-01 3.53712171e-01
      3.53712171e-01 3.53712171e-01 2.33904973e-01 3.41228992e-01
      3.39427501e-01 3.39427501e-01 3.39427501e-01 3.39427501e-01
      3.39427501e-01 3.39427501e-01 3.39427501e-01 3.39427501e-01
      2.73715645e-01 3.65618974e-01 3.65618974e-01 3.65618974e-01
      2.58340716e-01 2.27118850e-01 2.75610000e-01 3.65618974e-01
      3.65618974e-01 3.65618974e-01 3.35127413e-01 3.38415056e-01
      3.38415056e-01 3.38415056e-01 3.38415056e-01 3.38415056e-01
      3.38415056e-01 3.38415056e-01 2.87462890e-01 3.36722761e-01
      3.19315076e-01 3.36722761e-01 3.36722761e-01 3.36722761e-01
      3.17801923e-01 3.36722761e-01 3.36722761e-01 3.36722761e-01
      3.35883677e-01 3.35883677e-01 3.35883677e-01 3.35883677e-01
      3.35883677e-01 3.35883677e-01 3.35883677e-01 3.35883677e-01
      3.06759328e-01 3.40863556e-01 3.40863556e-01 2.85891593e-01
      3.19956511e-01 3.39647323e-01 3.40863556e-01 3.40863556e-01
      3.40863556e-01 3.40863556e-01 3.32778692e-01 3.32778692e-01
      3.32778692e-01 3.32778692e-01 3.32778692e-01 3.32778692e-01
      3.32778692e-01 3.32778692e-01 3.32778692e-01 3.32778692e-01
      3.32778692e-01 3.32778692e-01 3.32778692e-01 3.32778692e-01
      3.32778692e-01 3.32778692e-01 3.32778692e-01 3.32778692e-01
      3.32778692e-01 3.32778692e-01 3.32778692e-01 3.32778692e-01
      3.32778692e-01 3.32778692e-01 3.32778692e-01 3.32778692e-01
      3.32778692e-01 3.33381087e-01 3.33381087e-01 3.33381087e-01
      3.33381087e-01 3.27910721e-01 3.33381087e-01 3.33381087e-01
      3.33381087e-01 3.33381087e-01 3.54309380e-01 3.54309380e-01
      3.54309380e-01 1.43808007e-01 3.11501771e-01 3.54309380e-01
      3.54309380e-01 3.54309380e-01 3.54309380e-01</_>
    <_>
      3.32896084e-01 3.32896084e-01 3.31836313e-01 3.32896084e-01
      3.32896084e-01 3.32896084e-01 3.32896084e-01 3.32896084e-01
      3.32896084e-01 3.35924715e-01 3.35924715e-01 3.35924715e-01
      3.35924715e-01 3.35924715e-01 3.35924715e-01 3.06398988e-01
      3.35924715e-01 3.35924715e-01 3.32778692e-01 3.32778692e-01
      3.32778692e-01 3.32778692e-01 3.32778692e-01 3.32778692e-01
      3.32778692e-01 3.32778692e-01 3.32778692e-01 3.32778692e-01
      3.32778692e-01 3.32778692e-01 3.32778692e-01 3.32778692e-01
      3.32778692e-01 3.32778692e-01 3.32778692e-01 3.32778692e-01
      3.32778692e-01 3.32778692e-01 3.32778692e-01 3.32778692e-01
      3.32778692e-01 3.32778692e-01 3.32778692e-01 3.32778692e-01
      3.32778692e-01 3.25402647e-01 1.73637241e-01 2.28655279e-01
      3.66972655e-01 3.66972655e-01 3.66972655e-01 3.66972655e-01
      3.66972655e-01 3.66972655e-01 3.35470587e-01 3.35470587e-01
      3.35470587e-01 3.35470587e-01 3.35470587e-01 3.35470587e-01
      3.35470587e-01 3.10361207e-01 3.35470587e-01 3.32778692e-01
      3.32778692e-01 3.32778692e-01 3.32778692e-01 3.32778692e-01
      3.32778692e-01 3.32778692e-01 3.32778692e-01 3.32778692e-01
      5.46467721e-01 2.57319808e-01 5.47776185e-02 1.49907485e-01
      1.84669375e-01 1.16474174e-01 9.26290825e-02 4.99353051e-01
      5.46467721e-01 3.32778692e-01 3.32778692e-01 3.32778692e-01
      3.32778692e-01 3.32778692e-01 3.32778692e-01 3.32778692e-01
      3.32778692e-01 3.32778692e-01 3.32778692e-01 3.32778692e-01
      3.32778692e-01 3.32778692e-01 3.32778692e-01 3.32778692e-01
      3.32778692e-01 3.32778692e-01 3.32778692e-01 3.48378122e-01
      3.48378122e-01 3.48378122e-01 3.47180039e-01 3.48378122e-01
      3.48378122e-01 3.48378122e-01 2.93807715e-01 2.47908369e-01
      3.32778692e-01 3.32778692e-01 3.32778692e-01 3.32778692e-01
      3.32778692e-01 3.32778692e-01 3.32778692e-01 3.32778692e-01
      3.32778692e-01 3.39419574e-01 3.39419574e-01 2.73794860e-01
      3.39419574e-01 3.39419574e-01 3.39419574e-01 3.39419574e-01
      3.39419574e-01 3.39419574e-01 3.47749352e-01 3.41586024e-01
      2.53891140e-01 2.99676865e-01 3.47749352e-01 3.47749352e-01
      3.47749352e-01 3.47749352e-01 3.47749352e-01</_>
    <_>
      3.32778692e-01 3.32778692e-01 3.32778692e-01 3.32778692e-01
      3.32778692e-01 3.32778692e-01 3.32778692e-01 3.32778692e-01
      3.32778692e-01 2.78224289e-01 3.55186045e-01 3.55186045e-01
      3.55186045e-01 2.98181832e-01 3.55186045e-01 3.55186045e-01
      3.55186045e-01 2.70531893e-01 3.54414940e-01 3.54414940e-01
      3.54414940e-01 3.54414940e-01 2.50877380e-01 2.32916236e-01
      3.54414940e-01 3.54414940e-01 3.54414940e-01 3.39246124e-01
      3.39246124e-01 3.39246124e-01 3.39246124e-01 3.39246124e-01
      3.39246124e-01 3.39246124e-01 2.88054764e-01 3.28662992e-01
      3.92793983e-01 3.92793983e-01 3.92793983e-01 2.07575709e-01
      2.00839043e-01 3.92793983e-01 3.92793983e-01 2.89729714e-01
      2.39317954e-01 2.11284801e-01 2.90357232e-01 3.81717741e-01
      3.81717741e-01 3.81717741e-01 2.04369843e-01 3.11333656e-01
      3.81717741e-01 3.81717741e-01 3.32778692e-01 3.32778692e-01
      3.32778692e-01 3.32778692e-01 3.32778692e-01 3.32778692e-01
      3.32778692e-01 3.32778692e-01 3.32778692e-01 3.28453779e-01
      3.45950544e-01 3.47813725e-01 3.47813725e-01 3.47813725e-01
      3.47813725e-01 3.47813725e-01 3.14911306e-01 2.54794568e-01
      3.62751067e-01 3.62751067e-01 2.57500976e-01 2.87537009e-01
      3.62751067e-01 2.73770452e-01 3.38377953e-01 3.62751067e-01
      3.62751067e-01 3.37075204e-01 3.37075204e-01 2.96098799e-01
      3.37075204e-01 3.37075204e-01 3.37075204e-01 3.37075204e-01
      3.37075204e-01 3.37075204e-01 3.07300657e-01 2.93006241e-01
      3.65286499e-01 3.65286499e-01 3.65286499e-01 2.43475512e-01
      2.99353719e-01 3.65286499e-01 3.65286499e-01 3.64691943e-01
      3.64691943e-01 3.64691943e-01 2.72839040e-01 3.64691943e-01
      3.64691943e-01 3.27307671e-01 1.29552662e-01 3.64691943e-01
      3.34351659e-01 3.34351659e-01 3.34351659e-01 3.34351659e-01
      3.34351659e-01 3.34351659e-01 3.34351659e-01 3.19892377e-01
      3.34351659e-01 3.32778692e-01 3.32778692e-01 3.32778692e-01
      3.32778692e-01 3.32778692e-01 3.32778692e-01 3.32778692e-01
      3.32778692e-01 3.32778692e-01 3.46509427e-01 3.46509427e-01
      3.46509427e-01 3.46509427e-01 3.46509427e-01 3.46509427e-01
      3.46509427e-01 3.24923635e-01 2.24679619e-01</_>
    <_>
      3.36799413e-01 3.36799413e-01 3.36799413e-01 2.98603594e-01
      3.36799413e-01 3.36799413e-01 3.36799413e-01 3.36799413e-01
      3.36799413e-01 3.52943659e-01 3.52943659e-01 3.52943659e-01
      2.98811436e-01 3.52943659e-01 3.52943659e-01 3.52943659e-01
      3.52943659e-01 1.87619001e-01 2.98559844e-01 2.85773873e-01
      3.82174939e-01 3.82174939e-01 2.62420028e-01 1.61939844e-01
      3.82174939e-01 3.82174939e-01 3.82174939e-01 3.48984212e-01
      3.48984212e-01 3.24274093e-01 3.48984212e-01 3.48984212e-01
      3.48984212e-01 3.48984212e-01 1.97052941e-01 3.48984212e-01
      3.94538492e-01 3.94538492e-01 2.22182751e-01 3.06088716e-01
      3.94538492e-01 3.94538492e-01 3.94538492e-01 1.61026061e-01
      2.20840618e-01 3.67059082e-01 2.49498889e-01 2.12097496e-01
      3.67059082e-01 3.67059082e-01 2.84083635e-01 3.67059082e-01
      3.67059082e-01 3.67059082e-01 3.42885643e-01 3.42885643e-01
      2.71468937e-01 3.42885643e-01 3.42885643e-01 3.42885643e-01
      3.16045702e-01 3.42885643e-01 3.42885643e-01 2.08625987e-01
      1.76818520e-01 4.00941104e-01 4.00941104e-01 4.00941104e-01
      3.54792267e-01 2.69347757e-01 3.18841547e-01 3.72636646e-01
      4.54771370e-01 4.54771370e-01 2.94783473e-01 1.75467372e-01
      3.04854184e-01 3.16265404e-01 1.29072443e-01 2.18405232e-01
      4.54771370e-01 3.34805399e-01 3.34805399e-01 3.34805399e-01
      3.34805399e-01 3.34805399e-01 3.34805399e-01 3.16065550e-01
      3.34805399e-01 3.34805399e-01 1.87973067e-01 2.77277976e-01
      3.16216141e-01 3.61519635e-01 3.61519635e-01 3.61519635e-01
      3.61519635e-01 3.61519635e-01 3.61519635e-01 3.79232824e-01
      3.79232824e-01 3.79232824e-01 1.22360736e-01 1.80959120e-01
      3.79232824e-01 3.79232824e-01 3.61285299e-01 3.14449012e-01
      3.39366525e-01 2.78573215e-01 3.35885167e-01 3.39366525e-01
      3.39366525e-01 3.39366525e-01 3.39366525e-01 3.39366525e-01
      3.39366525e-01 3.32778692e-01 3.32778692e-01 3.32778692e-01
      3.32778692e-01 3.32778692e-01 3.32778692e-01 3.32778692e-01
      3.32778692e-01 3.32778692e-01 3.50522965e-01 3.50522965e-01
      3.50522965e-01 3.50522965e-01 3.50522965e-01 3.50522965e-01
      3.50522965e-01 1.62928089e-01 3.31493199e-01</_>
    <_>
      3.32778692e-01 3.32778692e-01 3.32778692e-01 3.32778692e-01
      3.32778692e-01 3.32778692e-01 3.32778692e-01 3.32778692e-01
      3.32778692e-01 3.32778692e-01 3.32778692e-01 3.32778692e-01
      3.32778692e-01 3.32778692e-01 3.32778692e-01 3.32778692e-01
      3.32778692e-01 3.32778692e-01 1.93765208e-01 2.70121515e-01
      3.55755776e-01 3.55755776e-01 3.55755776e-01 3.55755776e-01
      3.55755776e-01 3.55755776e-01 3.55755776e-01 3.37674826e-01
      3.37674826e-01 3.37674826e-01 3.37674826e-01 3.37674826e-01
      3.37674826e-01 2.90571600e-01 3.37674826e-01 3.37674826e-01
      3.32778692e-01 3.32778692e-01 3.32778692e-01 3.32778692e-01
      3.32778692e-01 3.32778692e-01 3.32778692e-01 3.32778692e-01
      3.32778692e-01 3.39038581e-01 3.39038581e-01 3.39038581e-01
      3.39038581e-01 3.39038581e-01 3.39038581e-01 3.39038581e-01
      3.39038581e-01 2.77552158e-01 3.32778692e-01 3.32778692e-01
      3.32778692e-01 3.32778692e-01 3.32778692e-01 3.32778692e-01
      3.32778692e-01 3.32778692e-01 3.32778692e-01 3.35278094e-01
      3.12023997e-01 3.35278094e-01 3.35278094e-01 3.35278094e-01
      3.35278094e-01 3.35278094e-01 3.35278094e-01 3.35278094e-01
      4.09531802e-01 2.50721544e-01 1.49530128e-01 4.09531802e-01
      4.09531802e-01 2.55947858e-01 2.83026934e-01 3.06935966e-01
      4.09531802e-01 3.52764189e-01 2.52760649e-01 2.88815171e-01
      3.20184380e-01 3.52764189e-01 3.52764189e-01 3.52764189e-01
      3.52764189e-01 3.52764189e-01 3.32778692e-01 3.32778692e-01
      3.32778692e-01 3.32778692e-01 3.32778692e-01 3.32778692e-01
      3.32778692e-01 3.32778692e-01 3.32778692e-01 3.53689551e-01
      3.53689551e-01 3.53689551e-01 3.53689551e-01 3.53689551e-01
      3.53689551e-01 3.05479825e-01 1.65753722e-01 3.53689551e-01
      3.32778692e-01 3.32778692e-01 3.32778692e-01 3.32778692e-01
      3.32778692e-01 3.32778692e-01 3.32778692e-01 3.32778692e-01
      3.32778692e-01 3.32778692e-01 3.32778692e-01 3.32778692e-01
      3.32778692e-01 3.32778692e-01 3.32778692e-01 3.32778692e-01
      3.32778692e-01 3.32778692e-01 3.44652712e-01 3.44652712e-01
      3.44652712e-01 3.44652712e-01 3.44652712e-01 3.44652712e-01
      3.44652712e-01 3.44652712e-01 2.15110660e-01</_>
    <_>
      3.34100753e-01 3.34100753e-01 3.34100753e-01 3.34100753e-01
      3.34100753e-01 3.21986765e-01 3.34100753e-01 3.34100753e-01
      3.34100753e-01 3.39978397e-01 3.39978397e-01 3.39978397e-01
      3.39978397e-01 3.20263475e-01 2.91440248e-01 3.39978397e-01
      3.39978397e-01 3.39978397e-01 3.37000310e-01 3.37000310e-01
      3.37000310e-01 3.37000310e-01 2.96781421e-01 3.37000310e-01
      3.37000310e-01 3.37000310e-01 3.37000310e-01 3.57011080e-01
      3.57011080e-01 3.57011080e-01 3.57011080e-01 3.57011080e-01
      3.57011080e-01 3.57011080e-01 2.62061834e-01 1.88569233e-01
      3.55671287e-01 3.55671287e-01 3.55671287e-01 2.77618885e-01
      3.55671287e-01 3.55671287e-01 3.55671287e-01 2.06885293e-01
      3.42870504e-01 3.32778692e-01 3.32778692e-01 3.32778692e-01
      3.32778692e-01 3.32778692e-01 3.32778692e-01 3.32778692e-01
      3.32778692e-01 3.32778692e-01 3.37159187e-01 2.95331538e-01
      3.37159187e-01 3.37159187e-01 3.37159187e-01 3.37159187e-01
      3.37159187e-01 3.37159187e-01 3.37159187e-01 3.32863301e-01
      2.35309988e-01 2.01492041e-01 4.03769165e-01 4.03769165e-01
      4.03769165e-01 3.89295042e-01 1.32966354e-01 3.61772418e-01
      4.10161495e-01 1.97379187e-01 1.95975319e-01 3.95118326e-01
      3.84111673e-01 2.34021857e-01 2.35401675e-01 4.10161495e-01
      4.10161495e-01 3.37276936e-01 3.37276936e-01 3.37276936e-01
      3.37276936e-01 2.94251829e-01 3.37276936e-01 3.37276936e-01
      3.37276936e-01 3.37276936e-01 3.65842611e-01 2.80947238e-01
      3.65842611e-01 3.65842611e-01 3.65842611e-01 1.64820194e-01
      2.95301676e-01 3.65842611e-01 3.65842611e-01 3.66169453e-01
      3.66169453e-01 2.96323478e-01 3.14593464e-01 3.66169453e-01
      3.66169453e-01 3.66169453e-01 2.41939604e-01 2.83953935e-01
      3.32778692e-01 3.32778692e-01 3.32778692e-01 3.32778692e-01
      3.32778692e-01 3.32778692e-01 3.32778692e-01 3.32778692e-01
      3.32778692e-01 3.25596273e-01 3.47837806e-01 3.47837806e-01
      3.47837806e-01 3.47837806e-01 2.47192964e-01 3.21652889e-01
      3.47837806e-01 3.47837806e-01 2.63893157e-01 3.69144082e-01
      3.69144082e-01 3.43200415e-01 3.69144082e-01 3.69144082e-01
      3.69144082e-01 2.89187282e-01 2.09570467e-01</_>
    <_>
      3.35210055e-01 3.35210055e-01 3.35210055e-01 3.12609076e-01
      3.35210055e-01 3.35210055e-01 3.35210055e-01 3.35210055e-01
      3.35210055e-01 3.32778692e-01 3.32778692e-01 3.32778692e-01
      3.32778692e-01 3.32778692e-01 3.32778692e-01 3.32778692e-01
      3.32778692e-01 3.32778692e-01 3.32778692e-01 3.32778692e-01
      3.32778692e-01 3.32778692e-01 3.32778692e-01 3.32778692e-01
      3.32778692e-01 3.32778692e-01 3.32778692e-01 3.42121094e-01
      3.42121094e-01 3.42121094e-01 3.42121094e-01 3.42121094e-01
      3.42121094e-01 3.42121094e-01 2.45371118e-01 3.42121094e-01
      3.07892263e-01 3.39169919e-01 3.39169919e-01 3.39169919e-01
      3.30157310e-01 3.20300251e-01 3.39169919e-01 3.39169919e-01
      3.39169919e-01 3.40764225e-01 3.40764225e-01 3.40764225e-01
      3.40764225e-01 3.40764225e-01 3.40764225e-01 3.40764225e-01
      2.60063946e-01 3.40764225e-01 3.61298531e-01 2.98436522e-01
      2.11029887e-01 2.82086164e-01 3.61298531e-01 3.61298531e-01
      3.61298531e-01 3.61298531e-01 3.61298531e-01 3.32778692e-01
      3.32778692e-01 3.32778692e-01 3.32778692e-01 3.32778692e-01
      3.32778692e-01 3.32778692e-01 3.32778692e-01 3.32778692e-01
      3.40379566e-01 3.40379566e-01 2.64070272e-01 3.40379566e-01
      3.40379566e-01 3.40379566e-01 3.40379566e-01 3.40379566e-01
      3.40379566e-01 3.32778692e-01 3.32778692e-01 3.32778692e-01
      3.32778692e-01 3.32778692e-01 3.32778692e-01 3.32778692e-01
      3.32778692e-01 3.32778692e-01 3.60488445e-01 4.02608693e-01
      4.02608693e-01 4.02608693e-01 2.62563497e-01 2.57325202e-01
      4.02608693e-01 2.15650544e-01 1.89710125e-01 3.43193322e-01
      3.43193322e-01 3.43193322e-01 3.43193322e-01 3.43193322e-01
      3.43193322e-01 2.68548369e-01 3.16198319e-01 3.43193322e-01
      3.32778692e-01 3.32778692e-01 3.32778692e-01 3.32778692e-01
      3.32778692e-01 3.32778692e-01 3.32778692e-01 3.32778692e-01
      3.32778692e-01 2.83060640e-01 3.49092394e-01 3.49092394e-01
      3.49092394e-01 3.49092394e-01 3.49092394e-01 3.49092394e-01
      3.49092394e-01 2.51655012e-01 3.02304834e-01 3.36387187e-01
      3.36387187e-01 3.36387187e-01 3.36387187e-01 3.36387187e-01
      3.36387187e-01 3.36387187e-01 3.36387187e-01</_>
    <_>
      3.39049309e-01 3.39049309e-01 3.39049309e-01 3.39049309e-01
      3.39049309e-01 3.39049309e-01 3.39049309e-01 3.39049309e-01
      2.77446955e-01 3.59595478e-01 3.59595478e-01 3.59595478e-01
      2.90499538e-01 3.21048498e-01 3.59595478e-01 3.59595478e-01
      3.59595478e-01 1.81911156e-01 3.32778692e-01 3.32778692e-01
      3.32778692e-01 3.32778692e-01 3.32778692e-01 3.32778692e-01
      3.32778692e-01 3.32778692e-01 3.32778692e-01 3.32778692e-01
      3.32778692e-01 3.32778692e-01 3.32778692e-01 3.32778692e-01
      3.32778692e-01 3.32778692e-01 3.32778692e-01 3.32778692e-01
      4.08377707e-01 4.08377707e-01 1.86674699e-01 1.68204397e-01
      4.08377707e-01 4.08377707e-01 4.08377707e-01 8.78454223e-02
      3.01996201e-01 3.19282472e-01 2.47415707e-01 3.25351506e-01
